<?xml version="1.0"?>
<opencv_storage>
<stage16>
  <maxWeakCount>9</maxWeakCount>
  <stageThreshold>-1.1088904142379761e+00</stageThreshold>
  <weakClassifiers>
    <_>
      <internalNodes>
        0 -1 112420 -1.6012802720069885e-02</internalNodes>
      <leafValues>
        4.7087377309799194e-01 -5.2962082624435425e-01</leafValues></_>
    <_>
      <internalNodes>
        0 -1 76837 9.3333597760647535e-04</internalNodes>
      <leafValues>
        -3.6623629927635193e-01 3.2982873916625977e-01</leafValues></_>
    <_>
      <internalNodes>
        0 -1 88233 2.0507462322711945e-03</internalNodes>
      <leafValues>
        -1.9064715504646301e-01 5.9344977140426636e-01</leafValues></_>
    <_>
      <internalNodes>
        0 -1 155001 2.2387718781828880e-03</internalNodes>
      <leafValues>
        1.5402324497699738e-01 -7.8777140378952026e-01</leafValues></_>
    <_>
      <internalNodes>
        0 -1 54259 1.0791976237669587e-03</internalNodes>
      <leafValues>
        -3.4924796223640442e-01 3.3941513299942017e-01</leafValues></_>
    <_>
      <internalNodes>
        0 -1 133209 -1.6687313094735146e-02</internalNodes>
      <leafValues>
        8.1438136100769043e-01 -1.5387217700481415e-01</leafValues></_>
    <_>
      <internalNodes>
        0 -1 57145 1.6576547175645828e-02</internalNodes>
      <leafValues>
        -2.7181106805801392e-01 5.3541302680969238e-01</leafValues></_>
    <_>
      <internalNodes>
        0 -1 87545 -8.9787803590297699e-03</internalNodes>
      <leafValues>
        9.0309149026870728e-01 -1.1845246702432632e-01</leafValues></_>
    <_>
      <internalNodes>
        0 -1 75114 5.0512244924902916e-03</internalNodes>
      <leafValues>
        1.6288167238235474e-01 -9.2269301414489746e-01</leafValues></_></weakClassifiers></stage16>
</opencv_storage>
