<?xml version="1.0"?>
<opencv_storage>
<stage8>
  <maxWeakCount>10</maxWeakCount>
  <stageThreshold>-9.3160617351531982e-01</stageThreshold>
  <weakClassifiers>
    <_>
      <internalNodes>
        0 -1 79067 -2.4952637031674385e-03</internalNodes>
      <leafValues>
        5.9808611869812012e-01 -2.7472528815269470e-01</leafValues></_>
    <_>
      <internalNodes>
        0 -1 103715 6.8943100050091743e-03</internalNodes>
      <leafValues>
        -3.8274857401847839e-01 4.2133045196533203e-01</leafValues></_>
    <_>
      <internalNodes>
        0 -1 132254 -3.0382364057004452e-03</internalNodes>
      <leafValues>
        4.9363923072814941e-01 -3.3027842640876770e-01</leafValues></_>
    <_>
      <internalNodes>
        0 -1 111864 1.1912176385521889e-02</internalNodes>
      <leafValues>
        -2.7551782131195068e-01 5.4945737123489380e-01</leafValues></_>
    <_>
      <internalNodes>
        0 -1 86491 -9.9756129086017609e-02</internalNodes>
      <leafValues>
        7.4116313457489014e-01 -2.0037308335304260e-01</leafValues></_>
    <_>
      <internalNodes>
        0 -1 88568 -4.3659573420882225e-03</internalNodes>
      <leafValues>
        7.9007172584533691e-01 -1.8037782609462738e-01</leafValues></_>
    <_>
      <internalNodes>
        0 -1 104277 -1.9994855392724276e-05</internalNodes>
      <leafValues>
        2.5735351443290710e-01 -6.3043987751007080e-01</leafValues></_>
    <_>
      <internalNodes>
        0 -1 85274 4.0912171825766563e-03</internalNodes>
      <leafValues>
        -1.7788863182067871e-01 8.6188316345214844e-01</leafValues></_>
    <_>
      <internalNodes>
        0 -1 132093 1.5171356499195099e-02</internalNodes>
      <leafValues>
        -1.9714237749576569e-01 7.6299327611923218e-01</leafValues></_>
    <_>
      <internalNodes>
        0 -1 152503 1.4014918357133865e-02</internalNodes>
      <leafValues>
        -1.7497693002223969e-01 9.1380673646926880e-01</leafValues></_></weakClassifiers></stage8>
</opencv_storage>
