<?xml version="1.0"?>
<opencv_storage>
<stage7>
  <maxWeakCount>11</maxWeakCount>
  <stageThreshold>-1.2720493078231812e+00</stageThreshold>
  <weakClassifiers>
    <_>
      <internalNodes>
        0 -1 66909 -7.2469860315322876e-02</internalNodes>
      <leafValues>
        3.4745761752128601e-01 -6.2266355752944946e-01</leafValues></_>
    <_>
      <internalNodes>
        0 -1 69587 -5.4157818667590618e-03</internalNodes>
      <leafValues>
        7.9378372430801392e-01 -2.7172940969467163e-01</leafValues></_>
    <_>
      <internalNodes>
        0 -1 77716 1.2951486743986607e-02</internalNodes>
      <leafValues>
        -2.5245356559753418e-01 6.3312083482742310e-01</leafValues></_>
    <_>
      <internalNodes>
        0 -1 85788 -2.4467630311846733e-02</internalNodes>
      <leafValues>
        -9.3925762176513672e-01 2.0747569203376770e-01</leafValues></_>
    <_>
      <internalNodes>
        0 -1 103620 -3.0834482982754707e-02</internalNodes>
      <leafValues>
        5.7743352651596069e-01 -2.6991170644760132e-01</leafValues></_>
    <_>
      <internalNodes>
        0 -1 125447 9.5537630841135979e-03</internalNodes>
      <leafValues>
        -3.8308477401733398e-01 5.9160852432250977e-01</leafValues></_>
    <_>
      <internalNodes>
        0 -1 104110 -1.6560072079300880e-02</internalNodes>
      <leafValues>
        6.8441015481948853e-01 -1.9956956803798676e-01</leafValues></_>
    <_>
      <internalNodes>
        0 -1 143648 -5.9785312041640282e-03</internalNodes>
      <leafValues>
        5.3623604774475098e-01 -3.1678447127342224e-01</leafValues></_>
    <_>
      <internalNodes>
        0 -1 26812 2.7251304127275944e-03</internalNodes>
      <leafValues>
        -1.3495253026485443e-01 7.0719736814498901e-01</leafValues></_>
    <_>
      <internalNodes>
        0 -1 14057 1.6424414515495300e-01</internalNodes>
      <leafValues>
        -3.1364142894744873e-01 4.3028736114501953e-01</leafValues></_>
    <_>
      <internalNodes>
        0 -1 95813 2.7542444877326488e-03</internalNodes>
      <leafValues>
        4.3224552273750305e-01 -2.9499739408493042e-01</leafValues></_></weakClassifiers></stage7>
</opencv_storage>
