<?xml version="1.0"?>
<opencv_storage>
<stage6>
  <maxWeakCount>9</maxWeakCount>
  <stageThreshold>-1.2791475057601929e+00</stageThreshold>
  <weakClassifiers>
    <_>
      <internalNodes>
        0 -1 104672 -1.6359645873308182e-02</internalNodes>
      <leafValues>
        7.7837836742401123e-01 -5.7181817293167114e-01</leafValues></_>
    <_>
      <internalNodes>
        0 -1 69849 -1.3297889381647110e-03</internalNodes>
      <leafValues>
        4.5913615822792053e-01 -4.8840716481208801e-01</leafValues></_>
    <_>
      <internalNodes>
        0 -1 125427 5.4477117955684662e-03</internalNodes>
      <leafValues>
        -3.7937983870506287e-01 4.7238379716873169e-01</leafValues></_>
    <_>
      <internalNodes>
        0 -1 96289 -3.2245066016912460e-02</internalNodes>
      <leafValues>
        7.3939561843872070e-01 -2.7121061086654663e-01</leafValues></_>
    <_>
      <internalNodes>
        0 -1 41797 2.9640644788742065e-03</internalNodes>
      <leafValues>
        -7.0037591457366943e-01 3.0374944210052490e-01</leafValues></_>
    <_>
      <internalNodes>
        0 -1 52825 -6.5642977133393288e-03</internalNodes>
      <leafValues>
        8.6209410429000854e-01 -1.8644364178180695e-01</leafValues></_>
    <_>
      <internalNodes>
        0 -1 104115 3.3894919324666262e-03</internalNodes>
      <leafValues>
        -4.2488005757331848e-01 5.0834751129150391e-01</leafValues></_>
    <_>
      <internalNodes>
        0 -1 27739 5.3550943266600370e-04</internalNodes>
      <leafValues>
        -2.9464244842529297e-01 5.2055943012237549e-01</leafValues></_>
    <_>
      <internalNodes>
        0 -1 96699 5.4757175967097282e-03</internalNodes>
      <leafValues>
        -6.7541199922561646e-01 2.1868304908275604e-01</leafValues></_></weakClassifiers></stage6>
</opencv_storage>
