<?xml version="1.0"?>
<opencv_storage>
<stage6>
  <maxWeakCount>6</maxWeakCount>
  <stageThreshold>-1.0302155017852783e+00</stageThreshold>
  <weakClassifiers>
    <_>
      <internalNodes>
        0 -1 87102 2.1361622959375381e-02</internalNodes>
      <leafValues>
        -6.2745100259780884e-01 8.2828283309936523e-01</leafValues></_>
    <_>
      <internalNodes>
        0 -1 129880 -1.2798072770237923e-02</internalNodes>
      <leafValues>
        6.4624935388565063e-01 -8.0805683135986328e-01</leafValues></_>
    <_>
      <internalNodes>
        0 -1 119643 -3.5085766576230526e-03</internalNodes>
      <leafValues>
        8.3541828393936157e-01 -5.2124744653701782e-01</leafValues></_>
    <_>
      <internalNodes>
        0 -1 133750 -4.2705889791250229e-03</internalNodes>
      <leafValues>
        8.9428770542144775e-01 -4.0150463581085205e-01</leafValues></_>
    <_>
      <internalNodes>
        0 -1 80642 -1.3050943613052368e-01</internalNodes>
      <leafValues>
        9.1781419515609741e-01 -4.6568858623504639e-01</leafValues></_>
    <_>
      <internalNodes>
        0 -1 77321 1.0438539320603013e-03</internalNodes>
      <leafValues>
        -9.5195448398590088e-01 4.9794062972068787e-01</leafValues></_></weakClassifiers></stage6>
</opencv_storage>
