<?xml version="1.0"?>
<opencv_storage>
<stage13>
  <maxWeakCount>10</maxWeakCount>
  <stageThreshold>-1.8974846601486206e+00</stageThreshold>
  <weakClassifiers>
    <_>
      <internalNodes>
        0 -1 75715 -3.5265828482806683e-03</internalNodes>
      <leafValues>
        5.2558141946792603e-01 -8.1706821918487549e-01</leafValues></_>
    <_>
      <internalNodes>
        0 -1 88233 1.9947895780205727e-03</internalNodes>
      <leafValues>
        -5.0639438629150391e-01 5.9814125299453735e-01</leafValues></_>
    <_>
      <internalNodes>
        0 -1 79630 -1.4476333744823933e-03</internalNodes>
      <leafValues>
        5.9303545951843262e-01 -2.9147014021873474e-01</leafValues></_>
    <_>
      <internalNodes>
        0 -1 30169 -2.6406151056289673e-01</internalNodes>
      <leafValues>
        -4.5034432411193848e-01 3.4912154078483582e-01</leafValues></_>
    <_>
      <internalNodes>
        0 -1 152745 1.4078002423048019e-02</internalNodes>
      <leafValues>
        -1.3255399465560913e-01 9.2452186346054077e-01</leafValues></_>
    <_>
      <internalNodes>
        0 -1 53560 -3.3145747147500515e-03</internalNodes>
      <leafValues>
        8.6118370294570923e-01 -1.2436568737030029e-01</leafValues></_>
    <_>
      <internalNodes>
        0 -1 25446 1.1132291983813047e-03</internalNodes>
      <leafValues>
        -1.7282110452651978e-01 6.0178858041763306e-01</leafValues></_>
    <_>
      <internalNodes>
        0 -1 137107 -2.2042792290449142e-02</internalNodes>
      <leafValues>
        7.4181491136550903e-01 -1.6780501604080200e-01</leafValues></_>
    <_>
      <internalNodes>
        0 -1 48736 -1.2483518803492188e-03</internalNodes>
      <leafValues>
        6.2544578313827515e-01 -1.4788950979709625e-01</leafValues></_>
    <_>
      <internalNodes>
        0 -1 64659 1.0673446953296661e-01</internalNodes>
      <leafValues>
        1.1376179009675980e-01 -9.4006615877151489e-01</leafValues></_></weakClassifiers></stage13>
</opencv_storage>
