<?xml version="1.0"?>
<opencv_storage>
<stage20>
  <maxWeakCount>100</maxWeakCount>
  <stageThreshold>-9.2224800586700439e-01</stageThreshold>
  <weakClassifiers>
    <_>
      <internalNodes>
        0 -1 118635 5.1642623730003834e-03</internalNodes>
      <leafValues>
        1.4269663393497467e-01 7.0887243747711182e-01</leafValues></_>
    <_>
      <internalNodes>
        0 -1 135864 1.7303850501775742e-02</internalNodes>
      <leafValues>
        -4.0333699434995651e-02 8.1163728237152100e-01</leafValues></_>
    <_>
      <internalNodes>
        0 -1 46784 -1.7736498266458511e-02</internalNodes>
      <leafValues>
        -1.2549909949302673e-01 3.6862432956695557e-01</leafValues></_>
    <_>
      <internalNodes>
        0 -1 111475 7.2099855169653893e-03</internalNodes>
      <leafValues>
        4.7162100672721863e-02 -6.2001109123229980e-01</leafValues></_>
    <_>
      <internalNodes>
        0 -1 75214 1.3666485436260700e-02</internalNodes>
      <leafValues>
        -4.8328571021556854e-02 7.2501236200332642e-01</leafValues></_>
    <_>
      <internalNodes>
        0 -1 104832 -6.0208573937416077e-02</internalNodes>
      <leafValues>
        9.3279880285263062e-01 -1.2362025445327163e-03</leafValues></_>
    <_>
      <internalNodes>
        0 -1 132320 -1.9274114165455103e-03</internalNodes>
      <leafValues>
        2.0433963835239410e-01 -1.0914999246597290e-01</leafValues></_>
    <_>
      <internalNodes>
        0 -1 152750 1.4414876699447632e-02</internalNodes>
      <leafValues>
        -6.2458563596010208e-02 5.0409734249114990e-01</leafValues></_>
    <_>
      <internalNodes>
        0 -1 155105 2.7931674849241972e-03</internalNodes>
      <leafValues>
        -8.6240991950035095e-02 2.1430553495883942e-01</leafValues></_>
    <_>
      <internalNodes>
        0 -1 37590 -2.2869041562080383e-01</internalNodes>
      <leafValues>
        9.3270504474639893e-01 -1.6909882426261902e-02</leafValues></_>
    <_>
      <internalNodes>
        0 -1 119346 6.6324207000434399e-03</internalNodes>
      <leafValues>
        -6.6662952303886414e-02 2.5239130854606628e-01</leafValues></_>
    <_>
      <internalNodes>
        0 -1 6479 5.0991916656494141e-01</internalNodes>
      <leafValues>
        -3.8616705685853958e-02 4.3876710534095764e-01</leafValues></_>
    <_>
      <internalNodes>
        0 -1 39096 -1.8421674147248268e-02</internalNodes>
      <leafValues>
        4.2365126311779022e-02 -4.3703702092170715e-01</leafValues></_>
    <_>
      <internalNodes>
        0 -1 139104 -6.0437992215156555e-03</internalNodes>
      <leafValues>
        -4.9229636788368225e-02 2.9368561506271362e-01</leafValues></_>
    <_>
      <internalNodes>
        0 -1 131861 -2.6410579681396484e-02</internalNodes>
      <leafValues>
        7.7526494860649109e-02 -1.9095881283283234e-01</leafValues></_>
    <_>
      <internalNodes>
        0 -1 99401 1.0010837577283382e-03</internalNodes>
      <leafValues>
        -2.1331667900085449e-02 7.7161437273025513e-01</leafValues></_>
    <_>
      <internalNodes>
        0 -1 32155 1.4902526140213013e-01</internalNodes>
      <leafValues>
        -9.7136870026588440e-03 9.8161530494689941e-01</leafValues></_>
    <_>
      <internalNodes>
        0 -1 11446 -2.1185828372836113e-03</internalNodes>
      <leafValues>
        1.1229852586984634e-01 -1.5375025570392609e-01</leafValues></_>
    <_>
      <internalNodes>
        0 -1 132405 4.3156938627362251e-03</internalNodes>
      <leafValues>
        -8.7088070809841156e-02 1.8597568571567535e-01</leafValues></_>
    <_>
      <internalNodes>
        0 -1 61860 -7.4409693479537964e-02</internalNodes>
      <leafValues>
        -3.9148055016994476e-02 4.0888008475303650e-01</leafValues></_>
    <_>
      <internalNodes>
        0 -1 106144 -3.9769476279616356e-03</internalNodes>
      <leafValues>
        2.0597839355468750e-01 -8.6435593664646149e-02</leafValues></_>
    <_>
      <internalNodes>
        0 -1 22719 4.8494362272322178e-04</internalNodes>
      <leafValues>
        -1.2085670977830887e-01 1.3892526924610138e-01</leafValues></_>
    <_>
      <internalNodes>
        0 -1 101574 -1.2532621622085571e-02</internalNodes>
      <leafValues>
        2.2042902186512947e-02 -7.4614191055297852e-01</leafValues></_>
    <_>
      <internalNodes>
        0 -1 96094 -5.8757108636200428e-03</internalNodes>
      <leafValues>
        -3.2599512487649918e-02 4.2464545369148254e-01</leafValues></_>
    <_>
      <internalNodes>
        0 -1 97132 -1.3074553571641445e-03</internalNodes>
      <leafValues>
        2.4593766778707504e-02 -7.2569710016250610e-01</leafValues></_>
    <_>
      <internalNodes>
        0 -1 139569 1.5224161744117737e-01</internalNodes>
      <leafValues>
        -5.0665382295846939e-02 2.9246085882186890e-01</leafValues></_>
    <_>
      <internalNodes>
        0 -1 159967 -1.2361567933112383e-03</internalNodes>
      <leafValues>
        3.1727540493011475e-01 -4.6076856553554535e-02</leafValues></_>
    <_>
      <internalNodes>
        0 -1 143595 -1.9957548007369041e-02</internalNodes>
      <leafValues>
        -3.1138578057289124e-01 4.2978387326002121e-02</leafValues></_>
    <_>
      <internalNodes>
        0 -1 148026 -1.7878536600619555e-03</internalNodes>
      <leafValues>
        2.7177178859710693e-01 -5.0664465874433517e-02</leafValues></_>
    <_>
      <internalNodes>
        0 -1 79787 -3.4201584756374359e-02</internalNodes>
      <leafValues>
        3.9081591367721558e-01 -3.5689350217580795e-02</leafValues></_>
    <_>
      <internalNodes>
        0 -1 98124 -6.8184785777702928e-04</internalNodes>
      <leafValues>
        -2.0002453029155731e-01 7.5331442058086395e-02</leafValues></_>
    <_>
      <internalNodes>
        0 -1 126349 1.1314805597066879e-03</internalNodes>
      <leafValues>
        5.3887743502855301e-02 -2.5751581788063049e-01</leafValues></_>
    <_>
      <internalNodes>
        0 -1 121016 8.2599166780710220e-03</internalNodes>
      <leafValues>
        2.4886874482035637e-02 -5.1342737674713135e-01</leafValues></_>
    <_>
      <internalNodes>
        0 -1 81759 6.6179215908050537e-02</internalNodes>
      <leafValues>
        2.9864758253097534e-02 -4.2019039392471313e-01</leafValues></_>
    <_>
      <internalNodes>
        0 -1 48205 -3.3313576132059097e-03</internalNodes>
      <leafValues>
        2.7876850962638855e-01 -5.0100725144147873e-02</leafValues></_>
    <_>
      <internalNodes>
        0 -1 59210 -7.2823715163394809e-04</internalNodes>
      <leafValues>
        -1.7826096713542938e-01 7.7742174267768860e-02</leafValues></_>
    <_>
      <internalNodes>
        0 -1 9067 -5.4753452539443970e-02</internalNodes>
      <leafValues>
        -3.0051907896995544e-01 4.3110039085149765e-02</leafValues></_>
    <_>
      <internalNodes>
        0 -1 78822 -3.0938234180212021e-02</internalNodes>
      <leafValues>
        2.3400121927261353e-01 -6.2854617834091187e-02</leafValues></_>
    <_>
      <internalNodes>
        0 -1 73582 3.8003451190888882e-03</internalNodes>
      <leafValues>
        8.5427187383174896e-02 -1.5748289227485657e-01</leafValues></_>
    <_>
      <internalNodes>
        0 -1 13329 -2.9670491814613342e-02</internalNodes>
      <leafValues>
        9.2887032032012939e-01 -1.3928448781371117e-02</leafValues></_>
    <_>
      <internalNodes>
        0 -1 84776 -1.9730318337678909e-02</internalNodes>
      <leafValues>
        -1.2156062573194504e-01 1.1801314353942871e-01</leafValues></_>
    <_>
      <internalNodes>
        0 -1 133724 -8.6245518177747726e-03</internalNodes>
      <leafValues>
        8.4373161196708679e-02 -1.5992707014083862e-01</leafValues></_>
    <_>
      <internalNodes>
        0 -1 10733 -1.2551065534353256e-02</internalNodes>
      <leafValues>
        1.4408756792545319e-01 -9.6290148794651031e-02</leafValues></_>
    <_>
      <internalNodes>
        0 -1 13015 -4.7384994104504585e-03</internalNodes>
      <leafValues>
        -6.9542914628982544e-02 1.9429650902748108e-01</leafValues></_>
    <_>
      <internalNodes>
        0 -1 98040 5.9226170182228088e-02</internalNodes>
      <leafValues>
        4.0461424738168716e-02 -3.7244489789009094e-01</leafValues></_>
    <_>
      <internalNodes>
        0 -1 97097 3.6756825284101069e-04</internalNodes>
      <leafValues>
        7.7836379408836365e-02 -1.8337255716323853e-01</leafValues></_>
    <_>
      <internalNodes>
        0 -1 154869 -6.1990320682525635e-04</internalNodes>
      <leafValues>
        1.2162861227989197e-01 -1.0767314583063126e-01</leafValues></_>
    <_>
      <internalNodes>
        0 -1 13044 3.1224947422742844e-02</internalNodes>
      <leafValues>
        -1.8929520621895790e-02 7.4474358558654785e-01</leafValues></_>
    <_>
      <internalNodes>
        0 -1 138653 -5.7641714811325073e-03</internalNodes>
      <leafValues>
        2.5853833556175232e-01 -4.1262838989496231e-02</leafValues></_>
    <_>
      <internalNodes>
        0 -1 143462 -1.5145644545555115e-02</internalNodes>
      <leafValues>
        -3.4878611564636230e-01 3.6351490765810013e-02</leafValues></_>
    <_>
      <internalNodes>
        0 -1 118267 1.6024734359234571e-03</internalNodes>
      <leafValues>
        -7.9475119709968567e-02 1.6692152619361877e-01</leafValues></_>
    <_>
      <internalNodes>
        0 -1 104012 2.3732241243124008e-04</internalNodes>
      <leafValues>
        8.0589711666107178e-02 -1.5517480671405792e-01</leafValues></_>
    <_>
      <internalNodes>
        0 -1 22452 -2.2064197808504105e-02</internalNodes>
      <leafValues>
        1.1496674269437790e-01 -1.0958216339349747e-01</leafValues></_>
    <_>
      <internalNodes>
        0 -1 65395 4.0576928853988647e-01</internalNodes>
      <leafValues>
        -1.5209196135401726e-02 8.2621920108795166e-01</leafValues></_>
    <_>
      <internalNodes>
        0 -1 125170 -1.5855230391025543e-02</internalNodes>
      <leafValues>
        2.1152196824550629e-01 -5.2688520401716232e-02</leafValues></_>
    <_>
      <internalNodes>
        0 -1 105543 1.4310220256447792e-02</internalNodes>
      <leafValues>
        4.6095672994852066e-02 -2.7801403403282166e-01</leafValues></_>
    <_>
      <internalNodes>
        0 -1 67060 1.3918644189834595e-01</internalNodes>
      <leafValues>
        -1.7363006249070168e-02 7.5992953777313232e-01</leafValues></_>
    <_>
      <internalNodes>
        0 -1 148202 -2.9434422031044960e-03</internalNodes>
      <leafValues>
        2.2430026531219482e-01 -5.7234998792409897e-02</leafValues></_>
    <_>
      <internalNodes>
        0 -1 34430 -3.8256174884736538e-03</internalNodes>
      <leafValues>
        -4.7310557961463928e-01 2.9181912541389465e-02</leafValues></_>
    <_>
      <internalNodes>
        0 -1 61944 -5.3850119002163410e-04</internalNodes>
      <leafValues>
        1.2037366628646851e-01 -1.0831691324710846e-01</leafValues></_>
    <_>
      <internalNodes>
        0 -1 1630 -4.2517026886343956e-03</internalNodes>
      <leafValues>
        -2.8041896224021912e-01 4.1712153702974319e-02</leafValues></_>
    <_>
      <internalNodes>
        0 -1 36284 2.9120324179530144e-03</internalNodes>
      <leafValues>
        -6.1785399913787842e-02 1.9864796102046967e-01</leafValues></_>
    <_>
      <internalNodes>
        0 -1 159933 6.1121396720409393e-03</internalNodes>
      <leafValues>
        -7.1844913065433502e-02 1.6766582429409027e-01</leafValues></_>
    <_>
      <internalNodes>
        0 -1 101751 3.7229233421385288e-03</internalNodes>
      <leafValues>
        2.4401808157563210e-02 -6.0382372140884399e-01</leafValues></_>
    <_>
      <internalNodes>
        0 -1 134628 -1.2308893929002807e-05</internalNodes>
      <leafValues>
        1.1886663734912872e-01 -9.7789406776428223e-02</leafValues></_>
    <_>
      <internalNodes>
        0 -1 42263 -9.7777426708489656e-04</internalNodes>
      <leafValues>
        2.5616732239723206e-01 -4.2889308184385300e-02</leafValues></_>
    <_>
      <internalNodes>
        0 -1 5573 6.0363180935382843e-02</internalNodes>
      <leafValues>
        1.6160935163497925e-02 -6.9195640087127686e-01</leafValues></_>
    <_>
      <internalNodes>
        0 -1 97097 -1.8177626188844442e-03</internalNodes>
      <leafValues>
        -4.8416659235954285e-01 2.4187674745917320e-02</leafValues></_>
    <_>
      <internalNodes>
        0 -1 101755 -1.4154755626805127e-04</internalNodes>
      <leafValues>
        -1.7780141904950142e-02 7.1892458200454712e-01</leafValues></_>
    <_>
      <internalNodes>
        0 -1 11341 2.7279314398765564e-01</internalNodes>
      <leafValues>
        -2.8466949239373207e-02 4.1095548868179321e-01</leafValues></_>
    <_>
      <internalNodes>
        0 -1 37809 9.6234977245330811e-03</internalNodes>
      <leafValues>
        4.0989186614751816e-02 -3.2880502939224243e-01</leafValues></_>
    <_>
      <internalNodes>
        0 -1 59750 4.9515813589096069e-03</internalNodes>
      <leafValues>
        -2.8432946652173996e-02 4.2308583855628967e-01</leafValues></_>
    <_>
      <internalNodes>
        0 -1 106353 6.8268485367298126e-02</internalNodes>
      <leafValues>
        1.7042210325598717e-02 -7.4284905195236206e-01</leafValues></_>
    <_>
      <internalNodes>
        0 -1 152851 -7.1891206316649914e-03</internalNodes>
      <leafValues>
        1.0589085519313812e-01 -1.0519385337829590e-01</leafValues></_>
    <_>
      <internalNodes>
        0 -1 59224 -3.4788814373314381e-03</internalNodes>
      <leafValues>
        -2.5431305170059204e-01 4.8444248735904694e-02</leafValues></_>
    <_>
      <internalNodes>
        0 -1 48534 2.4988034274429083e-03</internalNodes>
      <leafValues>
        -7.5113251805305481e-02 1.5943053364753723e-01</leafValues></_>
    <_>
      <internalNodes>
        0 -1 145479 3.4524150192737579e-02</internalNodes>
      <leafValues>
        -1.6811437904834747e-02 7.2827547788619995e-01</leafValues></_>
    <_>
      <internalNodes>
        0 -1 162074 5.3231150377541780e-04</internalNodes>
      <leafValues>
        4.6942751854658127e-02 -2.6028281450271606e-01</leafValues></_>
    <_>
      <internalNodes>
        0 -1 79844 -3.1343147158622742e-02</internalNodes>
      <leafValues>
        2.6985734701156616e-01 -4.7442749142646790e-02</leafValues></_>
    <_>
      <internalNodes>
        0 -1 12238 -5.9005063958466053e-03</internalNodes>
      <leafValues>
        -6.9462490081787109e-01 1.9155753776431084e-02</leafValues></_>
    <_>
      <internalNodes>
        0 -1 155796 -3.8834539009258151e-04</internalNodes>
      <leafValues>
        1.4178778231143951e-01 -8.5755802690982819e-02</leafValues></_>
    <_>
      <internalNodes>
        0 -1 158319 4.6818442642688751e-03</internalNodes>
      <leafValues>
        2.2763254120945930e-02 -5.2901935577392578e-01</leafValues></_>
    <_>
      <internalNodes>
        0 -1 19846 -7.0070242509245872e-03</internalNodes>
      <leafValues>
        -3.8495096564292908e-01 2.7418345212936401e-02</leafValues></_>
    <_>
      <internalNodes>
        0 -1 98204 -2.2597566246986389e-02</internalNodes>
      <leafValues>
        -3.6262434720993042e-01 3.0382152646780014e-02</leafValues></_>
    <_>
      <internalNodes>
        0 -1 155272 -1.1489483527839184e-02</internalNodes>
      <leafValues>
        -6.3518899679183960e-01 1.6605138778686523e-02</leafValues></_>
    <_>
      <internalNodes>
        0 -1 154673 1.5766728902235627e-03</internalNodes>
      <leafValues>
        -7.8784689307212830e-02 1.5118360519409180e-01</leafValues></_>
    <_>
      <internalNodes>
        0 -1 141632 -5.1311489194631577e-02</internalNodes>
      <leafValues>
        -9.7969204187393188e-01 1.3104967772960663e-02</leafValues></_>
    <_>
      <internalNodes>
        0 -1 146398 -1.5806993469595909e-02</internalNodes>
      <leafValues>
        4.3987792730331421e-01 -2.7505302801728249e-02</leafValues></_>
    <_>
      <internalNodes>
        0 -1 94288 -5.6171689182519913e-02</internalNodes>
      <leafValues>
        -2.0678906142711639e-01 7.0287860929965973e-02</leafValues></_>
    <_>
      <internalNodes>
        0 -1 155112 -3.8171257823705673e-02</internalNodes>
      <leafValues>
        1.0708999633789063e-01 -1.2876945734024048e-01</leafValues></_>
    <_>
      <internalNodes>
        0 -1 107297 -7.8617118299007416e-02</internalNodes>
      <leafValues>
        -3.5526443272829056e-02 3.8131657242774963e-01</leafValues></_>
    <_>
      <internalNodes>
        0 -1 127200 -3.9001128170639277e-03</internalNodes>
      <leafValues>
        9.3508258461952209e-02 -1.4134120941162109e-01</leafValues></_>
    <_>
      <internalNodes>
        0 -1 132799 2.1771917119622231e-02</internalNodes>
      <leafValues>
        -2.8320418670773506e-02 5.0794142484664917e-01</leafValues></_>
    <_>
      <internalNodes>
        0 -1 118672 -5.6968061253428459e-03</internalNodes>
      <leafValues>
        2.0858265459537506e-01 -5.3540375083684921e-02</leafValues></_>
    <_>
      <internalNodes>
        0 -1 126630 -1.1129248887300491e-03</internalNodes>
      <leafValues>
        1.2816232442855835e-01 -8.7872870266437531e-02</leafValues></_>
    <_>
      <internalNodes>
        0 -1 55002 -3.4337840974330902e-02</internalNodes>
      <leafValues>
        8.4114915132522583e-01 -1.4102817513048649e-02</leafValues></_>
    <_>
      <internalNodes>
        0 -1 158108 -6.2790489755570889e-04</internalNodes>
      <leafValues>
        1.6869336366653442e-01 -6.6327318549156189e-02</leafValues></_>
    <_>
      <internalNodes>
        0 -1 156348 1.6632396727800369e-03</internalNodes>
      <leafValues>
        8.9555867016315460e-02 -1.4573684334754944e-01</leafValues></_>
    <_>
      <internalNodes>
        0 -1 159209 -1.3758643763139844e-03</internalNodes>
      <leafValues>
        -2.0694862306118011e-01 6.1434067785739899e-02</leafValues></_>
    <_>
      <internalNodes>
        0 -1 154033 3.8333479315042496e-02</internalNodes>
      <leafValues>
        -3.8755889981985092e-02 3.2099232077598572e-01</leafValues></_></weakClassifiers></stage20>
</opencv_storage>
