<?xml version="1.0"?>
<opencv_storage>
<stage25>
  <maxWeakCount>100</maxWeakCount>
  <stageThreshold>-9.2234373092651367e-01</stageThreshold>
  <weakClassifiers>
    <_>
      <internalNodes>
        0 -1 124743 -1.4462337829172611e-02</internalNodes>
      <leafValues>
        7.3509931564331055e-01 1.5450644493103027e-01</leafValues></_>
    <_>
      <internalNodes>
        0 -1 118640 1.1554239317774773e-02</internalNodes>
      <leafValues>
        -5.2327297627925873e-02 5.9074854850769043e-01</leafValues></_>
    <_>
      <internalNodes>
        0 -1 127872 -1.4995636418461800e-02</internalNodes>
      <leafValues>
        -2.2436253726482391e-01 1.4329434931278229e-01</leafValues></_>
    <_>
      <internalNodes>
        0 -1 9684 1.5565279126167297e-01</internalNodes>
      <leafValues>
        -5.6259825825691223e-02 4.0067738294601440e-01</leafValues></_>
    <_>
      <internalNodes>
        0 -1 118416 8.3523280918598175e-03</internalNodes>
      <leafValues>
        -9.3505233526229858e-02 2.6677301526069641e-01</leafValues></_>
    <_>
      <internalNodes>
        0 -1 111859 1.5934832394123077e-02</internalNodes>
      <leafValues>
        2.8416203334927559e-02 -6.3348817825317383e-01</leafValues></_>
    <_>
      <internalNodes>
        0 -1 152497 -3.1201813835650682e-03</internalNodes>
      <leafValues>
        -1.4325805008411407e-02 6.2025290727615356e-01</leafValues></_>
    <_>
      <internalNodes>
        0 -1 10305 2.1822538226842880e-02</internalNodes>
      <leafValues>
        -5.0070568919181824e-02 4.8626145720481873e-01</leafValues></_>
    <_>
      <internalNodes>
        0 -1 57795 -3.7298798561096191e-02</internalNodes>
      <leafValues>
        1.2811414897441864e-01 -2.0674121379852295e-01</leafValues></_>
    <_>
      <internalNodes>
        0 -1 102204 -3.9146570488810539e-03</internalNodes>
      <leafValues>
        -1.0420643538236618e-01 1.5448783338069916e-01</leafValues></_>
    <_>
      <internalNodes>
        0 -1 139168 -5.6913532316684723e-02</internalNodes>
      <leafValues>
        5.7911449670791626e-01 -4.0388051420450211e-02</leafValues></_>
    <_>
      <internalNodes>
        0 -1 155138 2.0189827773720026e-03</internalNodes>
      <leafValues>
        -3.2066278159618378e-02 3.9754906296730042e-01</leafValues></_>
    <_>
      <internalNodes>
        0 -1 141624 -7.4811768718063831e-04</internalNodes>
      <leafValues>
        -2.6335284113883972e-01 6.3074842095375061e-02</leafValues></_>
    <_>
      <internalNodes>
        0 -1 141388 5.6564575061202049e-03</internalNodes>
      <leafValues>
        -3.8397658616304398e-02 4.1643384099006653e-01</leafValues></_>
    <_>
      <internalNodes>
        0 -1 110810 -4.9219746142625809e-03</internalNodes>
      <leafValues>
        -2.9145994782447815e-01 6.1526872217655182e-02</leafValues></_>
    <_>
      <internalNodes>
        0 -1 103160 2.2626342251896858e-03</internalNodes>
      <leafValues>
        -3.7389483302831650e-02 3.2862311601638794e-01</leafValues></_>
    <_>
      <internalNodes>
        0 -1 92592 -7.8338533639907837e-03</internalNodes>
      <leafValues>
        1.6768924891948700e-02 -6.6275548934936523e-01</leafValues></_>
    <_>
      <internalNodes>
        0 -1 48490 -2.1053436212241650e-03</internalNodes>
      <leafValues>
        2.5237765908241272e-01 -6.1273325234651566e-02</leafValues></_>
    <_>
      <internalNodes>
        0 -1 48188 1.2981941836187616e-05</internalNodes>
      <leafValues>
        -1.2978656589984894e-01 1.2963707745075226e-01</leafValues></_>
    <_>
      <internalNodes>
        0 -1 57995 2.1338336169719696e-02</internalNodes>
      <leafValues>
        -3.3131364732980728e-02 4.7881010174751282e-01</leafValues></_>
    <_>
      <internalNodes>
        0 -1 155231 -4.0481280302628875e-04</internalNodes>
      <leafValues>
        -1.6657790541648865e-01 9.7384884953498840e-02</leafValues></_>
    <_>
      <internalNodes>
        0 -1 133 5.8761640684679151e-04</internalNodes>
      <leafValues>
        -1.5148349106311798e-01 1.0960824042558670e-01</leafValues></_>
    <_>
      <internalNodes>
        0 -1 129 -4.3116334825754166e-02</internalNodes>
      <leafValues>
        3.9047408103942871e-01 -4.3770961463451385e-02</leafValues></_>
    <_>
      <internalNodes>
        0 -1 55813 -1.8495853990316391e-02</internalNodes>
      <leafValues>
        -3.6909494549036026e-02 3.9565780758857727e-01</leafValues></_>
    <_>
      <internalNodes>
        0 -1 58022 1.7494652420282364e-02</internalNodes>
      <leafValues>
        -7.2124972939491272e-02 2.2744563221931458e-01</leafValues></_>
    <_>
      <internalNodes>
        0 -1 83566 2.3090682923793793e-02</internalNodes>
      <leafValues>
        3.7924207746982574e-02 -4.9904537200927734e-01</leafValues></_>
    <_>
      <internalNodes>
        0 -1 55324 -1.8129177391529083e-01</internalNodes>
      <leafValues>
        6.7255663871765137e-01 -1.8695080652832985e-02</leafValues></_>
    <_>
      <internalNodes>
        0 -1 96840 3.6666125059127808e-02</internalNodes>
      <leafValues>
        1.9475547596812248e-02 -8.4770905971527100e-01</leafValues></_>
    <_>
      <internalNodes>
        0 -1 158493 -2.0388578996062279e-02</internalNodes>
      <leafValues>
        2.1822458505630493e-01 -6.0139749199151993e-02</leafValues></_>
    <_>
      <internalNodes>
        0 -1 94831 -1.4674707315862179e-02</internalNodes>
      <leafValues>
        -3.6321938037872314e-02 3.3565616607666016e-01</leafValues></_>
    <_>
      <internalNodes>
        0 -1 85546 -2.2062789648771286e-03</internalNodes>
      <leafValues>
        -2.6028576493263245e-01 5.1871176809072495e-02</leafValues></_>
    <_>
      <internalNodes>
        0 -1 74647 -2.1024860441684723e-02</internalNodes>
      <leafValues>
        5.4119173437356949e-02 -2.5382277369499207e-01</leafValues></_>
    <_>
      <internalNodes>
        0 -1 80466 -4.8730347771197557e-04</internalNodes>
      <leafValues>
        -2.6235628128051758e-01 5.4080802947282791e-02</leafValues></_>
    <_>
      <internalNodes>
        0 -1 101276 1.1954944580793381e-02</internalNodes>
      <leafValues>
        2.2358875721693039e-02 -5.5428713560104370e-01</leafValues></_>
    <_>
      <internalNodes>
        0 -1 143625 2.3853150196373463e-03</internalNodes>
      <leafValues>
        -3.8639150559902191e-02 3.4556141495704651e-01</leafValues></_>
    <_>
      <internalNodes>
        0 -1 132798 -8.0407242057844996e-04</internalNodes>
      <leafValues>
        1.4146421849727631e-01 -9.7461439669132233e-02</leafValues></_>
    <_>
      <internalNodes>
        0 -1 151139 7.7088538091629744e-04</internalNodes>
      <leafValues>
        -9.4405643641948700e-02 1.5391683578491211e-01</leafValues></_>
    <_>
      <internalNodes>
        0 -1 104838 9.5309689640998840e-03</internalNodes>
      <leafValues>
        5.3136885166168213e-02 -2.7319380640983582e-01</leafValues></_>
    <_>
      <internalNodes>
        0 -1 88122 -2.0762942731380463e-03</internalNodes>
      <leafValues>
        -9.3710035085678101e-02 1.5324845910072327e-01</leafValues></_>
    <_>
      <internalNodes>
        0 -1 113190 -1.0490429122000933e-03</internalNodes>
      <leafValues>
        9.6170596778392792e-02 -1.4765164256095886e-01</leafValues></_>
    <_>
      <internalNodes>
        0 -1 14629 2.9415439814329147e-02</internalNodes>
      <leafValues>
        4.7431025654077530e-02 -2.7773553133010864e-01</leafValues></_>
    <_>
      <internalNodes>
        0 -1 47848 -7.8561604022979736e-03</internalNodes>
      <leafValues>
        6.2992012500762939e-01 -2.2108990699052811e-02</leafValues></_>
    <_>
      <internalNodes>
        0 -1 2136 -4.6273013576865196e-03</internalNodes>
      <leafValues>
        -6.4096145331859589e-02 2.0487403869628906e-01</leafValues></_>
    <_>
      <internalNodes>
        0 -1 137621 -6.4499437576159835e-04</internalNodes>
      <leafValues>
        1.8885981291532516e-02 -6.8583065271377563e-01</leafValues></_>
    <_>
      <internalNodes>
        0 -1 69561 -2.8789483476430178e-03</internalNodes>
      <leafValues>
        4.0592491626739502e-01 -3.4442674368619919e-02</leafValues></_>
    <_>
      <internalNodes>
        0 -1 78356 -4.5552432537078857e-02</internalNodes>
      <leafValues>
        -6.4198732376098633e-01 2.2227354347705841e-02</leafValues></_>
    <_>
      <internalNodes>
        0 -1 111031 1.3898110017180443e-02</internalNodes>
      <leafValues>
        -2.2605223581194878e-02 5.9939205646514893e-01</leafValues></_>
    <_>
      <internalNodes>
        0 -1 153623 -1.6204122221097350e-03</internalNodes>
      <leafValues>
        1.3374285399913788e-01 -9.2127710580825806e-02</leafValues></_>
    <_>
      <internalNodes>
        0 -1 153090 -5.2153874188661575e-02</internalNodes>
      <leafValues>
        4.1970691084861755e-01 -3.0276654288172722e-02</leafValues></_>
    <_>
      <internalNodes>
        0 -1 16310 7.0475379470735788e-04</internalNodes>
      <leafValues>
        -7.2893731296062469e-02 1.8188531696796417e-01</leafValues></_>
    <_>
      <internalNodes>
        0 -1 47046 -2.7950256480835378e-04</internalNodes>
      <leafValues>
        -1.9496585428714752e-01 6.9833576679229736e-02</leafValues></_>
    <_>
      <internalNodes>
        0 -1 155424 -9.0537127107381821e-03</internalNodes>
      <leafValues>
        -1.5970465540885925e-01 8.5675321519374847e-02</leafValues></_>
    <_>
      <internalNodes>
        0 -1 78740 -5.9611946344375610e-02</internalNodes>
      <leafValues>
        -3.1505364924669266e-02 3.8800132274627686e-01</leafValues></_>
    <_>
      <internalNodes>
        0 -1 100587 1.0392615571618080e-02</internalNodes>
      <leafValues>
        2.8895769268274307e-02 -5.1021230220794678e-01</leafValues></_>
    <_>
      <internalNodes>
        0 -1 25727 -3.4173999447375536e-03</internalNodes>
      <leafValues>
        1.9025413319468498e-02 -6.5757590532302856e-01</leafValues></_>
    <_>
      <internalNodes>
        0 -1 119136 9.3181186821311712e-04</internalNodes>
      <leafValues>
        6.2329642474651337e-02 -1.8813349306583405e-01</leafValues></_>
    <_>
      <internalNodes>
        0 -1 126162 2.2093730047345161e-02</internalNodes>
      <leafValues>
        -4.1706047952175140e-02 3.0951324105262756e-01</leafValues></_>
    <_>
      <internalNodes>
        0 -1 149397 6.4251414733007550e-04</internalNodes>
      <leafValues>
        -5.8511540293693542e-02 2.1237502992153168e-01</leafValues></_>
    <_>
      <internalNodes>
        0 -1 50704 1.3410457968711853e-01</internalNodes>
      <leafValues>
        -1.5870045870542526e-02 8.7735402584075928e-01</leafValues></_>
    <_>
      <internalNodes>
        0 -1 13476 3.7647783756256104e-03</internalNodes>
      <leafValues>
        2.8172150254249573e-02 -5.1027166843414307e-01</leafValues></_>
    <_>
      <internalNodes>
        0 -1 114194 1.1936993359995540e-05</internalNodes>
      <leafValues>
        -1.0445727407932281e-01 1.1566048115491867e-01</leafValues></_>
    <_>
      <internalNodes>
        0 -1 139067 -4.8570143990218639e-03</internalNodes>
      <leafValues>
        -2.7398821711540222e-01 4.6770658344030380e-02</leafValues></_>
    <_>
      <internalNodes>
        0 -1 139000 -2.5388646463397890e-05</internalNodes>
      <leafValues>
        1.1730547249317169e-01 -1.1319014430046082e-01</leafValues></_>
    <_>
      <internalNodes>
        0 -1 25025 -3.7645311094820499e-03</internalNodes>
      <leafValues>
        3.1085234880447388e-01 -4.0938787162303925e-02</leafValues></_>
    <_>
      <internalNodes>
        0 -1 25023 -6.1443466693162918e-03</internalNodes>
      <leafValues>
        -5.2712881565093994e-01 3.2020699232816696e-02</leafValues></_>
    <_>
      <internalNodes>
        0 -1 47521 -1.3674397021532059e-02</internalNodes>
      <leafValues>
        6.7208653688430786e-01 -1.9940072670578957e-02</leafValues></_>
    <_>
      <internalNodes>
        0 -1 87390 -8.0939754843711853e-03</internalNodes>
      <leafValues>
        -1.6868820413947105e-02 5.7558411359786987e-01</leafValues></_>
    <_>
      <internalNodes>
        0 -1 87267 7.4047064408659935e-03</internalNodes>
      <leafValues>
        -1.4964444935321808e-01 9.5988333225250244e-02</leafValues></_>
    <_>
      <internalNodes>
        0 -1 68168 -9.6479672938585281e-03</internalNodes>
      <leafValues>
        6.4156450331211090e-02 -2.5547242164611816e-01</leafValues></_>
    <_>
      <internalNodes>
        0 -1 140377 2.1173162385821342e-03</internalNodes>
      <leafValues>
        -2.1912708878517151e-02 5.3640389442443848e-01</leafValues></_>
    <_>
      <internalNodes>
        0 -1 154296 2.0959714427590370e-02</internalNodes>
      <leafValues>
        -2.5993850082159042e-02 4.9937048554420471e-01</leafValues></_>
    <_>
      <internalNodes>
        0 -1 151697 7.2492486797273159e-03</internalNodes>
      <leafValues>
        2.8252568095922470e-02 -4.7668215632438660e-01</leafValues></_>
    <_>
      <internalNodes>
        0 -1 161745 2.9403637163341045e-03</internalNodes>
      <leafValues>
        1.4436392113566399e-02 -7.4955981969833374e-01</leafValues></_>
    <_>
      <internalNodes>
        0 -1 85385 -4.8862285912036896e-03</internalNodes>
      <leafValues>
        2.3464059829711914e-01 -5.2172482013702393e-02</leafValues></_>
    <_>
      <internalNodes>
        0 -1 125049 8.7559956591576338e-04</internalNodes>
      <leafValues>
        5.1128569990396500e-02 -2.5464004278182983e-01</leafValues></_>
    <_>
      <internalNodes>
        0 -1 56438 -2.5019710883498192e-02</internalNodes>
      <leafValues>
        -2.5986903905868530e-01 4.4904895126819611e-02</leafValues></_>
    <_>
      <internalNodes>
        0 -1 69833 9.1124866157770157e-03</internalNodes>
      <leafValues>
        -1.8713563680648804e-02 7.0991271734237671e-01</leafValues></_>
    <_>
      <internalNodes>
        0 -1 24990 -3.6139287054538727e-02</internalNodes>
      <leafValues>
        -8.8447481393814087e-01 1.6703974455595016e-02</leafValues></_>
    <_>
      <internalNodes>
        0 -1 79828 7.2690539062023163e-02</internalNodes>
      <leafValues>
        -2.8742959722876549e-02 4.5317110419273376e-01</leafValues></_>
    <_>
      <internalNodes>
        0 -1 143743 2.3028857540339231e-03</internalNodes>
      <leafValues>
        5.1101889461278915e-02 -2.4418653547763824e-01</leafValues></_>
    <_>
      <internalNodes>
        0 -1 148250 -1.3766483170911670e-03</internalNodes>
      <leafValues>
        1.6989062726497650e-01 -8.2822859287261963e-02</leafValues></_>
    <_>
      <internalNodes>
        0 -1 127575 -5.9666544198989868e-02</internalNodes>
      <leafValues>
        -3.9903482794761658e-01 3.3881265670061111e-02</leafValues></_>
    <_>
      <internalNodes>
        0 -1 155108 2.3978095850907266e-04</internalNodes>
      <leafValues>
        -9.2578545212745667e-02 1.3035546243190765e-01</leafValues></_>
    <_>
      <internalNodes>
        0 -1 114884 -3.2736537978053093e-03</internalNodes>
      <leafValues>
        -2.3106288909912109e-01 5.4193552583456039e-02</leafValues></_>
    <_>
      <internalNodes>
        0 -1 115285 -1.3233642093837261e-03</internalNodes>
      <leafValues>
        1.6490420699119568e-01 -7.1129992604255676e-02</leafValues></_>
    <_>
      <internalNodes>
        0 -1 85992 -1.0903275106102228e-03</internalNodes>
      <leafValues>
        1.3455297052860260e-01 -9.2843189835548401e-02</leafValues></_>
    <_>
      <internalNodes>
        0 -1 151859 -4.4763623736798763e-04</internalNodes>
      <leafValues>
        -2.1429529786109924e-01 6.0938112437725067e-02</leafValues></_>
    <_>
      <internalNodes>
        0 -1 148076 -1.1664136312901974e-02</internalNodes>
      <leafValues>
        2.1747785806655884e-01 -5.6986518204212189e-02</leafValues></_>
    <_>
      <internalNodes>
        0 -1 96790 3.3340114168822765e-03</internalNodes>
      <leafValues>
        1.6040060669183731e-02 -8.3640170097351074e-01</leafValues></_>
    <_>
      <internalNodes>
        0 -1 132686 4.6107292175292969e-02</internalNodes>
      <leafValues>
        -1.8112014979124069e-02 8.2091200351715088e-01</leafValues></_>
    <_>
      <internalNodes>
        0 -1 138957 1.2602563947439194e-02</internalNodes>
      <leafValues>
        3.2094519585371017e-02 -4.0445026755332947e-01</leafValues></_>
    <_>
      <internalNodes>
        0 -1 106325 -5.1446408033370972e-03</internalNodes>
      <leafValues>
        1.6590628027915955e-01 -7.0598758757114410e-02</leafValues></_>
    <_>
      <internalNodes>
        0 -1 119634 1.0135782940778881e-04</internalNodes>
      <leafValues>
        -1.1395325511693954e-01 1.2366534024477005e-01</leafValues></_>
    <_>
      <internalNodes>
        0 -1 18123 -2.3087676614522934e-02</internalNodes>
      <leafValues>
        2.7776607871055603e-01 -4.1678383946418762e-02</leafValues></_>
    <_>
      <internalNodes>
        0 -1 23619 -1.7995262169279158e-04</internalNodes>
      <leafValues>
        -1.7655384540557861e-01 8.0194130539894104e-02</leafValues></_>
    <_>
      <internalNodes>
        0 -1 68926 -1.7231935635209084e-03</internalNodes>
      <leafValues>
        1.3534751534461975e-01 -9.4348132610321045e-02</leafValues></_>
    <_>
      <internalNodes>
        0 -1 40066 2.7428857982158661e-02</internalNodes>
      <leafValues>
        7.5116105377674103e-02 -1.7529723048210144e-01</leafValues></_>
    <_>
      <internalNodes>
        0 -1 45546 -1.8804039573296905e-03</internalNodes>
      <leafValues>
        -5.1030230522155762e-01 2.4722948670387268e-02</leafValues></_>
    <_>
      <internalNodes>
        0 -1 126081 1.1265829205513000e-02</internalNodes>
      <leafValues>
        -3.4513439983129501e-02 3.6298149824142456e-01</leafValues></_>
    <_>
      <internalNodes>
        0 -1 21315 -2.0160120911896229e-03</internalNodes>
      <leafValues>
        1.4800478518009186e-01 -8.7468124926090240e-02</leafValues></_></weakClassifiers></stage25>
</opencv_storage>
