<?xml version="1.0"?>
<opencv_storage>
<stage16>
  <maxWeakCount>92</maxWeakCount>
  <stageThreshold>-9.0192681550979614e-01</stageThreshold>
  <weakClassifiers>
    <_>
      <internalNodes>
        0 -1 55836 -1.0697264969348907e-01</internalNodes>
      <leafValues>
        9.6059635281562805e-02 6.6861462593078613e-01</leafValues></_>
    <_>
      <internalNodes>
        0 -1 102706 -2.2095334716141224e-03</internalNodes>
      <leafValues>
        6.9331651926040649e-01 -7.4892334640026093e-02</leafValues></_>
    <_>
      <internalNodes>
        0 -1 118271 -1.1462685652077198e-03</internalNodes>
      <leafValues>
        -8.7762318551540375e-02 6.0555797815322876e-01</leafValues></_>
    <_>
      <internalNodes>
        0 -1 143674 -1.6105715185403824e-03</internalNodes>
      <leafValues>
        2.1282133460044861e-01 -1.2959393858909607e-01</leafValues></_>
    <_>
      <internalNodes>
        0 -1 94329 1.5205065719783306e-02</internalNodes>
      <leafValues>
        -1.5826538205146790e-02 9.0462952852249146e-01</leafValues></_>
    <_>
      <internalNodes>
        0 -1 106597 -4.0592355653643608e-03</internalNodes>
      <leafValues>
        2.1530333161354065e-01 -1.3181409239768982e-01</leafValues></_>
    <_>
      <internalNodes>
        0 -1 57433 -8.5728980600833893e-02</internalNodes>
      <leafValues>
        -6.4055699110031128e-01 4.0418792515993118e-02</leafValues></_>
    <_>
      <internalNodes>
        0 -1 35243 1.2862527742981911e-02</internalNodes>
      <leafValues>
        -7.0599630475044250e-02 3.9848688244819641e-01</leafValues></_>
    <_>
      <internalNodes>
        0 -1 143510 4.7710109502077103e-03</internalNodes>
      <leafValues>
        7.0700466632843018e-02 -3.6435049772262573e-01</leafValues></_>
    <_>
      <internalNodes>
        0 -1 29165 -1.6777518391609192e-01</internalNodes>
      <leafValues>
        -8.5081446170806885e-01 2.5069696828722954e-02</leafValues></_>
    <_>
      <internalNodes>
        0 -1 62076 8.3195650950074196e-04</internalNodes>
      <leafValues>
        -8.6331933736801147e-02 2.2461657226085663e-01</leafValues></_>
    <_>
      <internalNodes>
        0 -1 143975 2.0993477664887905e-03</internalNodes>
      <leafValues>
        6.9162748754024506e-02 -2.6655700802803040e-01</leafValues></_>
    <_>
      <internalNodes>
        0 -1 98197 3.3210441470146179e-03</internalNodes>
      <leafValues>
        -1.1143589764833450e-01 1.7348085343837738e-01</leafValues></_>
    <_>
      <internalNodes>
        0 -1 120250 -1.0812655091285706e-02</internalNodes>
      <leafValues>
        1.4139081537723541e-01 -1.3598436117172241e-01</leafValues></_>
    <_>
      <internalNodes>
        0 -1 40194 -5.0059307366609573e-02</internalNodes>
      <leafValues>
        3.5271164029836655e-02 -4.9367594718933105e-01</leafValues></_>
    <_>
      <internalNodes>
        0 -1 144198 -3.8437801413238049e-03</internalNodes>
      <leafValues>
        -5.0034321844577789e-02 5.1808011531829834e-01</leafValues></_>
    <_>
      <internalNodes>
        0 -1 94381 -5.6884270161390305e-03</internalNodes>
      <leafValues>
        -6.2012302875518799e-01 3.6495104432106018e-02</leafValues></_>
    <_>
      <internalNodes>
        0 -1 146678 4.1476823389530182e-03</internalNodes>
      <leafValues>
        -4.6880360692739487e-02 3.9603781700134277e-01</leafValues></_>
    <_>
      <internalNodes>
        0 -1 138119 8.2872640341520309e-03</internalNodes>
      <leafValues>
        -5.2232030779123306e-02 3.4868001937866211e-01</leafValues></_>
    <_>
      <internalNodes>
        0 -1 49003 -2.4702745577087626e-05</internalNodes>
      <leafValues>
        1.4505901932716370e-01 -1.3187648355960846e-01</leafValues></_>
    <_>
      <internalNodes>
        0 -1 25223 -7.3581351898610592e-03</internalNodes>
      <leafValues>
        -2.1718224883079529e-01 7.9982295632362366e-02</leafValues></_>
    <_>
      <internalNodes>
        0 -1 59121 6.8535298109054565e-02</internalNodes>
      <leafValues>
        -3.9529267698526382e-02 4.2837673425674438e-01</leafValues></_>
    <_>
      <internalNodes>
        0 -1 79825 4.7732992097735405e-03</internalNodes>
      <leafValues>
        1.1221081763505936e-01 -1.6073545813560486e-01</leafValues></_>
    <_>
      <internalNodes>
        0 -1 97298 1.7807507887482643e-02</internalNodes>
      <leafValues>
        6.9546408951282501e-02 -3.1586936116218567e-01</leafValues></_>
    <_>
      <internalNodes>
        0 -1 8860 1.3262532651424408e-02</internalNodes>
      <leafValues>
        1.3136097230017185e-02 -8.3248168230056763e-01</leafValues></_>
    <_>
      <internalNodes>
        0 -1 138653 -7.2141066193580627e-03</internalNodes>
      <leafValues>
        3.3651947975158691e-01 -5.1509682089090347e-02</leafValues></_>
    <_>
      <internalNodes>
        0 -1 126152 -5.3876060992479324e-03</internalNodes>
      <leafValues>
        2.1113851666450500e-01 -8.6310908198356628e-02</leafValues></_>
    <_>
      <internalNodes>
        0 -1 126061 -1.9792091846466064e-01</internalNodes>
      <leafValues>
        -6.8417137861251831e-01 1.8132664263248444e-02</leafValues></_>
    <_>
      <internalNodes>
        0 -1 161529 2.0824174862354994e-03</internalNodes>
      <leafValues>
        2.0919235423207283e-02 -5.9518218040466309e-01</leafValues></_>
    <_>
      <internalNodes>
        0 -1 146400 -1.2667661394516472e-05</internalNodes>
      <leafValues>
        1.2979587912559509e-01 -1.1329510062932968e-01</leafValues></_>
    <_>
      <internalNodes>
        0 -1 10076 2.1867902949452400e-02</internalNodes>
      <leafValues>
        -3.2946459949016571e-02 4.3646547198295593e-01</leafValues></_>
    <_>
      <internalNodes>
        0 -1 111866 -9.8179641645401716e-04</internalNodes>
      <leafValues>
        -2.2429438307881355e-02 5.9625923633575439e-01</leafValues></_>
    <_>
      <internalNodes>
        0 -1 161857 3.1939307227730751e-03</internalNodes>
      <leafValues>
        3.2665014266967773e-02 -4.2543330788612366e-01</leafValues></_>
    <_>
      <internalNodes>
        0 -1 59208 -2.4649603292346001e-03</internalNodes>
      <leafValues>
        -4.2993452399969101e-02 3.5458844900131226e-01</leafValues></_>
    <_>
      <internalNodes>
        0 -1 60421 -8.6109788389876485e-04</internalNodes>
      <leafValues>
        2.9262429103255272e-02 -6.0555392503738403e-01</leafValues></_>
    <_>
      <internalNodes>
        0 -1 22174 -1.0425297077745199e-03</internalNodes>
      <leafValues>
        1.7648817598819733e-01 -9.6813693642616272e-02</leafValues></_>
    <_>
      <internalNodes>
        0 -1 157135 1.7024677246809006e-02</internalNodes>
      <leafValues>
        2.0424699410796165e-02 -8.5345673561096191e-01</leafValues></_>
    <_>
      <internalNodes>
        0 -1 64619 2.1021628379821777e-01</internalNodes>
      <leafValues>
        2.0414082333445549e-02 -5.8085674047470093e-01</leafValues></_>
    <_>
      <internalNodes>
        0 -1 88424 -2.2203600965440273e-03</internalNodes>
      <leafValues>
        1.5514124929904938e-01 -1.0523094981908798e-01</leafValues></_>
    <_>
      <internalNodes>
        0 -1 57416 2.4005986750125885e-02</internalNodes>
      <leafValues>
        -4.0551465004682541e-02 3.6919778585433960e-01</leafValues></_>
    <_>
      <internalNodes>
        0 -1 133785 -1.9788654753938317e-04</internalNodes>
      <leafValues>
        1.1453103274106979e-01 -1.2757655978202820e-01</leafValues></_>
    <_>
      <internalNodes>
        0 -1 132315 -4.5803007669746876e-03</internalNodes>
      <leafValues>
        -7.6073992252349854e-01 1.5532826073467731e-02</leafValues></_>
    <_>
      <internalNodes>
        0 -1 119971 -3.8008548319339752e-02</internalNodes>
      <leafValues>
        -4.4889327138662338e-02 3.3855977654457092e-01</leafValues></_>
    <_>
      <internalNodes>
        0 -1 155749 -5.9590954333543777e-03</internalNodes>
      <leafValues>
        -1.6485187411308289e-01 9.1879203915596008e-02</leafValues></_>
    <_>
      <internalNodes>
        0 -1 79362 -6.2967599369585514e-03</internalNodes>
      <leafValues>
        4.6401351690292358e-01 -3.0016984790563583e-02</leafValues></_>
    <_>
      <internalNodes>
        0 -1 64974 4.0002902969717979e-03</internalNodes>
      <leafValues>
        -4.5857168734073639e-02 3.3235546946525574e-01</leafValues></_>
    <_>
      <internalNodes>
        0 -1 126625 -4.2450278997421265e-03</internalNodes>
      <leafValues>
        -8.8391721248626709e-01 1.5167793259024620e-02</leafValues></_>
    <_>
      <internalNodes>
        0 -1 85904 -1.1302236467599869e-02</internalNodes>
      <leafValues>
        -3.0873352661728859e-02 5.0594663619995117e-01</leafValues></_>
    <_>
      <internalNodes>
        0 -1 27162 -1.6651156544685364e-01</internalNodes>
      <leafValues>
        5.1750328391790390e-02 -4.1275221109390259e-01</leafValues></_>
    <_>
      <internalNodes>
        0 -1 13015 -4.3922429904341698e-03</internalNodes>
      <leafValues>
        -7.1622997522354126e-02 2.3600819706916809e-01</leafValues></_>
    <_>
      <internalNodes>
        0 -1 9833 1.9023992121219635e-02</internalNodes>
      <leafValues>
        -3.3668696880340576e-02 4.5023867487907410e-01</leafValues></_>
    <_>
      <internalNodes>
        0 -1 68614 4.1138632223010063e-03</internalNodes>
      <leafValues>
        7.7222220599651337e-02 -1.9803354144096375e-01</leafValues></_>
    <_>
      <internalNodes>
        0 -1 47188 1.1213909834623337e-02</internalNodes>
      <leafValues>
        -2.0368510857224464e-02 7.7430558204650879e-01</leafValues></_>
    <_>
      <internalNodes>
        0 -1 138340 -5.0008362159132957e-03</internalNodes>
      <leafValues>
        2.8771664947271347e-02 -5.6203836202621460e-01</leafValues></_>
    <_>
      <internalNodes>
        0 -1 98739 -2.4365418357774615e-04</internalNodes>
      <leafValues>
        -1.9986124709248543e-02 7.8684753179550171e-01</leafValues></_>
    <_>
      <internalNodes>
        0 -1 39452 -1.7516121268272400e-01</internalNodes>
      <leafValues>
        2.4296121671795845e-02 -6.9205999374389648e-01</leafValues></_>
    <_>
      <internalNodes>
        0 -1 159673 -1.5998113667592406e-03</internalNodes>
      <leafValues>
        -4.0824275463819504e-02 3.6425814032554626e-01</leafValues></_>
    <_>
      <internalNodes>
        0 -1 61125 -1.6883177682757378e-02</internalNodes>
      <leafValues>
        2.7882363647222519e-02 -5.4168885946273804e-01</leafValues></_>
    <_>
      <internalNodes>
        0 -1 159674 2.5175006157951429e-05</internalNodes>
      <leafValues>
        -1.0866812616586685e-01 1.2332478165626526e-01</leafValues></_>
    <_>
      <internalNodes>
        0 -1 157449 -3.9881514385342598e-04</internalNodes>
      <leafValues>
        -2.1505203843116760e-01 5.9738013893365860e-02</leafValues></_>
    <_>
      <internalNodes>
        0 -1 161092 -8.7577389786019921e-04</internalNodes>
      <leafValues>
        -2.9500678181648254e-01 4.4570941478013992e-02</leafValues></_>
    <_>
      <internalNodes>
        0 -1 138470 6.8679517135024071e-03</internalNodes>
      <leafValues>
        -4.0674898773431778e-02 3.3760023117065430e-01</leafValues></_>
    <_>
      <internalNodes>
        0 -1 155788 2.3948698071762919e-05</internalNodes>
      <leafValues>
        -1.1543426662683487e-01 1.2008854746818542e-01</leafValues></_>
    <_>
      <internalNodes>
        0 -1 78232 -1.8600432667881250e-03</internalNodes>
      <leafValues>
        -3.6567521095275879e-01 3.6510508507490158e-02</leafValues></_>
    <_>
      <internalNodes>
        0 -1 54264 9.6368361264467239e-03</internalNodes>
      <leafValues>
        -2.0717773586511612e-02 7.2179150581359863e-01</leafValues></_>
    <_>
      <internalNodes>
        0 -1 14904 -1.4096698164939880e-01</internalNodes>
      <leafValues>
        7.2895842790603638e-01 -1.2788233347237110e-02</leafValues></_>
    <_>
      <internalNodes>
        0 -1 122961 -1.5498849097639322e-03</internalNodes>
      <leafValues>
        1.3746491074562073e-01 -1.0254072397947311e-01</leafValues></_>
    <_>
      <internalNodes>
        0 -1 141870 9.9812922999262810e-03</internalNodes>
      <leafValues>
        -1.0305063426494598e-01 1.4679828286170959e-01</leafValues></_>
    <_>
      <internalNodes>
        0 -1 162238 1.9631441682577133e-03</internalNodes>
      <leafValues>
        7.7000461518764496e-02 -1.9008325040340424e-01</leafValues></_>
    <_>
      <internalNodes>
        0 -1 158644 9.7571849822998047e-02</internalNodes>
      <leafValues>
        -1.7970271408557892e-02 7.7010750770568848e-01</leafValues></_>
    <_>
      <internalNodes>
        0 -1 55807 6.9786906242370605e-03</internalNodes>
      <leafValues>
        -1.8559256568551064e-02 6.1931568384170532e-01</leafValues></_>
    <_>
      <internalNodes>
        0 -1 118354 -6.0816556215286255e-03</internalNodes>
      <leafValues>
        -3.2702833414077759e-01 4.9548998475074768e-02</leafValues></_>
    <_>
      <internalNodes>
        0 -1 7442 1.0046187788248062e-02</internalNodes>
      <leafValues>
        5.2114430814981461e-02 -2.9210600256919861e-01</leafValues></_>
    <_>
      <internalNodes>
        0 -1 7329 -2.4028885364532471e-01</internalNodes>
      <leafValues>
        -3.9382401108741760e-01 3.9680939167737961e-02</leafValues></_>
    <_>
      <internalNodes>
        0 -1 75770 -7.2249528020620346e-03</internalNodes>
      <leafValues>
        6.2321823835372925e-01 -2.3690884932875633e-02</leafValues></_>
    <_>
      <internalNodes>
        0 -1 96932 -1.6098573803901672e-02</internalNodes>
      <leafValues>
        2.8072488307952881e-01 -5.1556274294853210e-02</leafValues></_>
    <_>
      <internalNodes>
        0 -1 1333 -5.4567297920584679e-03</internalNodes>
      <leafValues>
        -4.7925803065299988e-01 3.3509198576211929e-02</leafValues></_>
    <_>
      <internalNodes>
        0 -1 70717 1.2921043889946304e-05</internalNodes>
      <leafValues>
        -1.1763346195220947e-01 1.2098804116249084e-01</leafValues></_>
    <_>
      <internalNodes>
        0 -1 87295 1.6838483512401581e-02</internalNodes>
      <leafValues>
        -9.2961251735687256e-02 1.4132025837898254e-01</leafValues></_>
    <_>
      <internalNodes>
        0 -1 47682 -2.8240843676030636e-03</internalNodes>
      <leafValues>
        1.7501345276832581e-01 -1.0542077571153641e-01</leafValues></_>
    <_>
      <internalNodes>
        0 -1 38008 -1.5253417193889618e-02</internalNodes>
      <leafValues>
        -6.5122894942760468e-02 2.2189512848854065e-01</leafValues></_>
    <_>
      <internalNodes>
        0 -1 24118 -2.7669437229633331e-02</internalNodes>
      <leafValues>
        2.8765974566340446e-02 -5.1897931098937988e-01</leafValues></_>
    <_>
      <internalNodes>
        0 -1 126079 -5.5967383086681366e-03</internalNodes>
      <leafValues>
        -2.5624861940741539e-02 6.4677685499191284e-01</leafValues></_>
    <_>
      <internalNodes>
        0 -1 157502 6.8445480428636074e-04</internalNodes>
      <leafValues>
        -6.0271114110946655e-02 2.5503867864608765e-01</leafValues></_>
    <_>
      <internalNodes>
        0 -1 156153 7.4860295280814171e-03</internalNodes>
      <leafValues>
        3.3134792000055313e-02 -4.7243049740791321e-01</leafValues></_>
    <_>
      <internalNodes>
        0 -1 159681 5.5339592508971691e-03</internalNodes>
      <leafValues>
        2.6114277541637421e-02 -4.9902918934822083e-01</leafValues></_>
    <_>
      <internalNodes>
        0 -1 138943 2.5633021723479033e-03</internalNodes>
      <leafValues>
        -8.2879401743412018e-02 1.6445147991180420e-01</leafValues></_>
    <_>
      <internalNodes>
        0 -1 148129 -4.2485939338803291e-03</internalNodes>
      <leafValues>
        3.4876433014869690e-01 -4.6227864921092987e-02</leafValues></_>
    <_>
      <internalNodes>
        0 -1 151670 -4.1923755779862404e-03</internalNodes>
      <leafValues>
        -3.3121046423912048e-01 4.8450622707605362e-02</leafValues></_>
    <_>
      <internalNodes>
        0 -1 158617 -5.0016872584819794e-02</internalNodes>
      <leafValues>
        4.8727476596832275e-01 -3.2694213092327118e-02</leafValues></_>
    <_>
      <internalNodes>
        0 -1 56551 -1.5959990024566650e-01</internalNodes>
      <leafValues>
        -8.0504482984542847e-01 2.2263905033469200e-02</leafValues></_>
    <_>
      <internalNodes>
        0 -1 68050 2.0169839262962341e-02</internalNodes>
      <leafValues>
        -2.9302950948476791e-02 5.3798514604568481e-01</leafValues></_></weakClassifiers></stage16>
</opencv_storage>
