<?xml version="1.0"?>
<opencv_storage>
<stage31>
  <maxWeakCount>100</maxWeakCount>
  <stageThreshold>-7.7622920274734497e-01</stageThreshold>
  <weakClassifiers>
    <_>
      <internalNodes>
        0 -1 125825 1.7558349296450615e-02</internalNodes>
      <leafValues>
        6.9974258542060852e-02 5.9287363290786743e-01</leafValues></_>
    <_>
      <internalNodes>
        0 -1 19222 2.2676017135381699e-02</internalNodes>
      <leafValues>
        -5.8795340359210968e-02 6.9558864831924438e-01</leafValues></_>
    <_>
      <internalNodes>
        0 -1 37511 -7.0588625967502594e-03</internalNodes>
      <leafValues>
        -3.6207395792007446e-01 5.7017553597688675e-02</leafValues></_>
    <_>
      <internalNodes>
        0 -1 54768 -2.5480842590332031e-01</internalNodes>
      <leafValues>
        7.6903122663497925e-01 -3.3717375248670578e-02</leafValues></_>
    <_>
      <internalNodes>
        0 -1 143751 -2.4131385143846273e-03</internalNodes>
      <leafValues>
        3.1075656414031982e-01 -6.8140268325805664e-02</leafValues></_>
    <_>
      <internalNodes>
        0 -1 139115 -9.8098628222942352e-03</internalNodes>
      <leafValues>
        -5.4154407978057861e-01 5.0168611109256744e-02</leafValues></_>
    <_>
      <internalNodes>
        0 -1 48978 -1.1731365229934454e-03</internalNodes>
      <leafValues>
        1.9461928308010101e-01 -9.2015624046325684e-02</leafValues></_>
    <_>
      <internalNodes>
        0 -1 148026 -2.3462050594389439e-03</internalNodes>
      <leafValues>
        3.5080599784851074e-01 -6.9027811288833618e-02</leafValues></_>
    <_>
      <internalNodes>
        0 -1 31300 -4.9560949206352234e-02</internalNodes>
      <leafValues>
        -1.3475628197193146e-01 1.4971876144409180e-01</leafValues></_>
    <_>
      <internalNodes>
        0 -1 161188 1.3021761551499367e-03</internalNodes>
      <leafValues>
        -8.2860492169857025e-02 2.3833484947681427e-01</leafValues></_>
    <_>
      <internalNodes>
        0 -1 123906 -4.9236915074288845e-03</internalNodes>
      <leafValues>
        2.8500456362962723e-02 -7.1177721023559570e-01</leafValues></_>
    <_>
      <internalNodes>
        0 -1 112808 2.8290238697081804e-03</internalNodes>
      <leafValues>
        1.0097730904817581e-02 -6.4226728677749634e-01</leafValues></_>
    <_>
      <internalNodes>
        0 -1 2511 -4.0689811110496521e-02</internalNodes>
      <leafValues>
        3.4222517162561417e-02 -4.0640279650688171e-01</leafValues></_>
    <_>
      <internalNodes>
        0 -1 37554 3.3387849107384682e-03</internalNodes>
      <leafValues>
        6.3841857016086578e-02 -2.5714305043220520e-01</leafValues></_>
    <_>
      <internalNodes>
        0 -1 103615 -5.9424480423331261e-03</internalNodes>
      <leafValues>
        -4.6498037874698639e-02 3.0879455804824829e-01</leafValues></_>
    <_>
      <internalNodes>
        0 -1 157613 -5.0652313977479935e-02</internalNodes>
      <leafValues>
        4.9893873929977417e-01 -2.7049785479903221e-02</leafValues></_>
    <_>
      <internalNodes>
        0 -1 133516 -4.8903804272413254e-03</internalNodes>
      <leafValues>
        3.6717754602432251e-01 -3.8497734814882278e-02</leafValues></_>
    <_>
      <internalNodes>
        0 -1 162225 -1.2190013658255339e-03</internalNodes>
      <leafValues>
        -1.6581113636493683e-01 9.2005185782909393e-02</leafValues></_>
    <_>
      <internalNodes>
        0 -1 6399 1.9347667694091797e-02</internalNodes>
      <leafValues>
        2.2832013666629791e-02 -5.7582402229309082e-01</leafValues></_>
    <_>
      <internalNodes>
        0 -1 103549 -2.1819528192281723e-02</internalNodes>
      <leafValues>
        1.0291201621294022e-01 -1.3352277874946594e-01</leafValues></_>
    <_>
      <internalNodes>
        0 -1 145373 1.6929632984101772e-03</internalNodes>
      <leafValues>
        8.2313895225524902e-02 -1.6302779316902161e-01</leafValues></_>
    <_>
      <internalNodes>
        0 -1 109133 3.0585250351577997e-03</internalNodes>
      <leafValues>
        -1.9003115594387054e-02 6.6347324848175049e-01</leafValues></_>
    <_>
      <internalNodes>
        0 -1 101278 2.8152793645858765e-02</internalNodes>
      <leafValues>
        2.6450084522366524e-02 -5.2969461679458618e-01</leafValues></_>
    <_>
      <internalNodes>
        0 -1 109930 5.3674798458814621e-02</internalNodes>
      <leafValues>
        -1.4075425453484058e-02 6.4286351203918457e-01</leafValues></_>
    <_>
      <internalNodes>
        0 -1 86420 -1.1373491957783699e-02</internalNodes>
      <leafValues>
        -6.9637036323547363e-01 1.4010242186486721e-02</leafValues></_>
    <_>
      <internalNodes>
        0 -1 153736 2.5254059582948685e-03</internalNodes>
      <leafValues>
        -2.7645688503980637e-02 4.7733819484710693e-01</leafValues></_>
    <_>
      <internalNodes>
        0 -1 24739 -3.9531770162284374e-03</internalNodes>
      <leafValues>
        5.6090794503688812e-02 -2.7833718061447144e-01</leafValues></_>
    <_>
      <internalNodes>
        0 -1 25274 1.9532851874828339e-03</internalNodes>
      <leafValues>
        5.1181212067604065e-02 -2.8967323899269104e-01</leafValues></_>
    <_>
      <internalNodes>
        0 -1 12263 1.9198541995137930e-03</internalNodes>
      <leafValues>
        -8.2288026809692383e-02 1.7049232125282288e-01</leafValues></_>
    <_>
      <internalNodes>
        0 -1 118977 -1.7103331629186869e-03</internalNodes>
      <leafValues>
        -4.0960806608200073e-01 3.2997623085975647e-02</leafValues></_>
    <_>
      <internalNodes>
        0 -1 13306 -1.1037691496312618e-02</internalNodes>
      <leafValues>
        -6.2948775291442871e-01 2.2922709584236145e-02</leafValues></_>
    <_>
      <internalNodes>
        0 -1 114153 -1.0302660986781120e-02</internalNodes>
      <leafValues>
        -1.9317834079265594e-01 6.4788110554218292e-02</leafValues></_>
    <_>
      <internalNodes>
        0 -1 121559 9.8560288548469543e-02</internalNodes>
      <leafValues>
        1.5285902656614780e-02 -8.2805293798446655e-01</leafValues></_>
    <_>
      <internalNodes>
        0 -1 160208 1.1896770447492599e-03</internalNodes>
      <leafValues>
        6.4257614314556122e-02 -1.8169848620891571e-01</leafValues></_>
    <_>
      <internalNodes>
        0 -1 58441 -1.8038117885589600e-01</internalNodes>
      <leafValues>
        -7.8891879320144653e-01 1.6184849664568901e-02</leafValues></_>
    <_>
      <internalNodes>
        0 -1 89580 -5.1752706058323383e-03</internalNodes>
      <leafValues>
        -4.1505187749862671e-02 3.2827499508857727e-01</leafValues></_>
    <_>
      <internalNodes>
        0 -1 148250 -2.3449501022696495e-03</internalNodes>
      <leafValues>
        1.9793824851512909e-01 -6.8214282393455505e-02</leafValues></_>
    <_>
      <internalNodes>
        0 -1 117561 -1.8549561500549316e-02</internalNodes>
      <leafValues>
        4.6087083220481873e-01 -2.8597744181752205e-02</leafValues></_>
    <_>
      <internalNodes>
        0 -1 88995 -3.7912614643573761e-02</internalNodes>
      <leafValues>
        3.6056840419769287e-01 -4.0821086615324020e-02</leafValues></_>
    <_>
      <internalNodes>
        0 -1 46666 -3.2428368926048279e-02</internalNodes>
      <leafValues>
        4.8033976554870605e-01 -2.7230584993958473e-02</leafValues></_>
    <_>
      <internalNodes>
        0 -1 13350 2.7463482692837715e-02</internalNodes>
      <leafValues>
        -1.4368474483489990e-02 8.1538599729537964e-01</leafValues></_>
    <_>
      <internalNodes>
        0 -1 114361 1.4502092963084579e-03</internalNodes>
      <leafValues>
        3.9550412446260452e-02 -4.2563655972480774e-01</leafValues></_>
    <_>
      <internalNodes>
        0 -1 57722 -7.6161237666383386e-04</internalNodes>
      <leafValues>
        -1.4184023439884186e-01 9.2077367007732391e-02</leafValues></_>
    <_>
      <internalNodes>
        0 -1 130595 1.3517788611352444e-03</internalNodes>
      <leafValues>
        -6.2943004071712494e-02 2.2171124815940857e-01</leafValues></_>
    <_>
      <internalNodes>
        0 -1 84725 2.4906783364713192e-03</internalNodes>
      <leafValues>
        -9.1785103082656860e-02 1.3936445116996765e-01</leafValues></_>
    <_>
      <internalNodes>
        0 -1 30200 2.6637069880962372e-02</internalNodes>
      <leafValues>
        1.2006649374961853e-01 -1.1068300157785416e-01</leafValues></_>
    <_>
      <internalNodes>
        0 -1 136543 1.1448605218902230e-03</internalNodes>
      <leafValues>
        -1.0845872014760971e-01 1.3820235431194305e-01</leafValues></_>
    <_>
      <internalNodes>
        0 -1 120254 -1.0740282014012337e-02</internalNodes>
      <leafValues>
        1.0339707136154175e-01 -1.4148345589637756e-01</leafValues></_>
    <_>
      <internalNodes>
        0 -1 96649 1.0896915197372437e-01</internalNodes>
      <leafValues>
        -4.0205024182796478e-02 3.5440427064895630e-01</leafValues></_>
    <_>
      <internalNodes>
        0 -1 66449 -1.0074816644191742e-02</internalNodes>
      <leafValues>
        1.8316102027893066e-01 -6.4561828970909119e-02</leafValues></_>
    <_>
      <internalNodes>
        0 -1 53584 -2.7537827845662832e-03</internalNodes>
      <leafValues>
        2.2555658593773842e-02 -5.6617617607116699e-01</leafValues></_>
    <_>
      <internalNodes>
        0 -1 160960 2.9561611881945282e-05</internalNodes>
      <leafValues>
        -1.0309629887342453e-01 1.1981200426816940e-01</leafValues></_>
    <_>
      <internalNodes>
        0 -1 154205 -1.0288181947544217e-03</internalNodes>
      <leafValues>
        1.0009614378213882e-01 -1.4779463410377502e-01</leafValues></_>
    <_>
      <internalNodes>
        0 -1 56965 -3.2956902869045734e-03</internalNodes>
      <leafValues>
        -1.9906532764434814e-01 6.5285995602607727e-02</leafValues></_>
    <_>
      <internalNodes>
        0 -1 135565 -4.3665068224072456e-03</internalNodes>
      <leafValues>
        -2.6529749855399132e-02 4.5921364426612854e-01</leafValues></_>
    <_>
      <internalNodes>
        0 -1 37219 8.4038358181715012e-04</internalNodes>
      <leafValues>
        -6.8356044590473175e-02 1.8420065939426422e-01</leafValues></_>
    <_>
      <internalNodes>
        0 -1 138025 -1.7229789867997169e-02</internalNodes>
      <leafValues>
        -1.2920568883419037e-01 9.6791200339794159e-02</leafValues></_>
    <_>
      <internalNodes>
        0 -1 68580 7.9510584473609924e-03</internalNodes>
      <leafValues>
        -2.1656317636370659e-02 5.6294029951095581e-01</leafValues></_>
    <_>
      <internalNodes>
        0 -1 9213 3.4870235249400139e-03</internalNodes>
      <leafValues>
        -1.0437071323394775e-01 1.2888251245021820e-01</leafValues></_>
    <_>
      <internalNodes>
        0 -1 97102 -3.0196360312402248e-03</internalNodes>
      <leafValues>
        -5.8212858438491821e-01 2.3601595312356949e-02</leafValues></_>
    <_>
      <internalNodes>
        0 -1 120396 -3.7734042853116989e-03</internalNodes>
      <leafValues>
        2.1172164380550385e-01 -6.1396848410367966e-02</leafValues></_>
    <_>
      <internalNodes>
        0 -1 133148 -5.0502058002166450e-05</internalNodes>
      <leafValues>
        1.2465387582778931e-01 -1.0211025923490524e-01</leafValues></_>
    <_>
      <internalNodes>
        0 -1 113665 -9.4240903854370117e-03</internalNodes>
      <leafValues>
        -2.5387570261955261e-01 4.8319976776838303e-02</leafValues></_>
    <_>
      <internalNodes>
        0 -1 91231 -2.9236227273941040e-03</internalNodes>
      <leafValues>
        -7.5797140598297119e-01 1.4640952460467815e-02</leafValues></_>
    <_>
      <internalNodes>
        0 -1 155138 2.4141992907971144e-03</internalNodes>
      <leafValues>
        -3.6689970642328262e-02 3.4421297907829285e-01</leafValues></_>
    <_>
      <internalNodes>
        0 -1 107451 -1.6471941024065018e-02</internalNodes>
      <leafValues>
        -6.9010861217975616e-02 1.7441087961196899e-01</leafValues></_>
    <_>
      <internalNodes>
        0 -1 112974 -3.5622775554656982e-02</internalNodes>
      <leafValues>
        4.1149672120809555e-02 -3.0042955279350281e-01</leafValues></_>
    <_>
      <internalNodes>
        0 -1 109576 -7.1909993886947632e-02</internalNodes>
      <leafValues>
        4.5373469591140747e-01 -3.1319186091423035e-02</leafValues></_>
    <_>
      <internalNodes>
        0 -1 86734 9.5639824867248535e-03</internalNodes>
      <leafValues>
        -1.6031507402658463e-02 6.3443952798843384e-01</leafValues></_>
    <_>
      <internalNodes>
        0 -1 155802 -4.8875808715820313e-03</internalNodes>
      <leafValues>
        -4.3268063664436340e-01 3.0629457905888557e-02</leafValues></_>
    <_>
      <internalNodes>
        0 -1 158479 2.9001560062170029e-02</internalNodes>
      <leafValues>
        -2.0734885707497597e-02 6.2226194143295288e-01</leafValues></_>
    <_>
      <internalNodes>
        0 -1 143625 -2.2547265980392694e-03</internalNodes>
      <leafValues>
        3.8230612874031067e-01 -2.9334796592593193e-02</leafValues></_>
    <_>
      <internalNodes>
        0 -1 69561 -2.9211477376520634e-03</internalNodes>
      <leafValues>
        3.9408040046691895e-01 -3.0297597870230675e-02</leafValues></_>
    <_>
      <internalNodes>
        0 -1 33406 -2.3816019296646118e-01</internalNodes>
      <leafValues>
        -9.5031613111495972e-01 1.3850992545485497e-02</leafValues></_>
    <_>
      <internalNodes>
        0 -1 115860 9.4756232574582100e-03</internalNodes>
      <leafValues>
        1.8864186480641365e-02 -5.0870412588119507e-01</leafValues></_>
    <_>
      <internalNodes>
        0 -1 152913 -8.1603456055745482e-04</internalNodes>
      <leafValues>
        1.6901345551013947e-01 -7.3325008153915405e-02</leafValues></_>
    <_>
      <internalNodes>
        0 -1 37962 -4.3993198778480291e-04</internalNodes>
      <leafValues>
        -2.4515274167060852e-01 5.3585436195135117e-02</leafValues></_>
    <_>
      <internalNodes>
        0 -1 13378 -1.8148256465792656e-02</internalNodes>
      <leafValues>
        7.3141092061996460e-01 -1.7797825857996941e-02</leafValues></_>
    <_>
      <internalNodes>
        0 -1 12804 -6.2660139519721270e-04</internalNodes>
      <leafValues>
        -2.7807906270027161e-01 4.7510970383882523e-02</leafValues></_>
    <_>
      <internalNodes>
        0 -1 7444 -1.9172737374901772e-03</internalNodes>
      <leafValues>
        1.8411701917648315e-01 -7.1343392133712769e-02</leafValues></_>
    <_>
      <internalNodes>
        0 -1 98542 2.2441331297159195e-02</internalNodes>
      <leafValues>
        2.2852400317788124e-02 -5.4028600454330444e-01</leafValues></_>
    <_>
      <internalNodes>
        0 -1 159357 -2.9842398362234235e-04</internalNodes>
      <leafValues>
        -1.7955793440341949e-01 6.6429607570171356e-02</leafValues></_>
    <_>
      <internalNodes>
        0 -1 153693 -3.6740779876708984e-02</internalNodes>
      <leafValues>
        2.7693235874176025e-01 -5.5070448666810989e-02</leafValues></_>
    <_>
      <internalNodes>
        0 -1 105708 7.3825158178806305e-03</internalNodes>
      <leafValues>
        -7.7684178948402405e-02 1.5853850543498993e-01</leafValues></_>
    <_>
      <internalNodes>
        0 -1 81893 -4.7466292977333069e-02</internalNodes>
      <leafValues>
        5.1542107015848160e-02 -2.7570280432701111e-01</leafValues></_>
    <_>
      <internalNodes>
        0 -1 98415 3.9715734310448170e-03</internalNodes>
      <leafValues>
        4.1501004248857498e-02 -2.9897040128707886e-01</leafValues></_>
    <_>
      <internalNodes>
        0 -1 84139 -3.3088624477386475e-03</internalNodes>
      <leafValues>
        -8.1713008880615234e-01 1.4762583188712597e-02</leafValues></_>
    <_>
      <internalNodes>
        0 -1 157371 -5.0785561325028539e-04</internalNodes>
      <leafValues>
        1.3192965090274811e-01 -9.3343406915664673e-02</leafValues></_>
    <_>
      <internalNodes>
        0 -1 154970 -2.1735671907663345e-03</internalNodes>
      <leafValues>
        1.8052357435226440e-01 -8.7118625640869141e-02</leafValues></_>
    <_>
      <internalNodes>
        0 -1 162315 -3.5841744393110275e-03</internalNodes>
      <leafValues>
        -3.1640475988388062e-01 4.5338388532400131e-02</leafValues></_>
    <_>
      <internalNodes>
        0 -1 159755 1.9421856850385666e-03</internalNodes>
      <leafValues>
        -2.7445033192634583e-02 5.2737104892730713e-01</leafValues></_>
    <_>
      <internalNodes>
        0 -1 122894 1.2029780074954033e-02</internalNodes>
      <leafValues>
        7.0639535784721375e-02 -1.9220453500747681e-01</leafValues></_>
    <_>
      <internalNodes>
        0 -1 161957 -3.6487635225057602e-04</internalNodes>
      <leafValues>
        1.3853044807910919e-01 -9.0388841927051544e-02</leafValues></_>
    <_>
      <internalNodes>
        0 -1 157943 7.7389972284436226e-04</internalNodes>
      <leafValues>
        -4.6534243971109390e-02 2.4693535268306732e-01</leafValues></_>
    <_>
      <internalNodes>
        0 -1 161467 1.8581384792923927e-03</internalNodes>
      <leafValues>
        2.7397178113460541e-02 -4.6602955460548401e-01</leafValues></_>
    <_>
      <internalNodes>
        0 -1 129053 4.0187422186136246e-02</internalNodes>
      <leafValues>
        4.1560128331184387e-02 -2.8587338328361511e-01</leafValues></_>
    <_>
      <internalNodes>
        0 -1 85781 1.0127629502676427e-04</internalNodes>
      <leafValues>
        9.7692944109439850e-02 -1.2215764075517654e-01</leafValues></_>
    <_>
      <internalNodes>
        0 -1 84765 -5.2504026098176837e-04</internalNodes>
      <leafValues>
        -1.6432248055934906e-01 7.0870913565158844e-02</leafValues></_>
    <_>
      <internalNodes>
        0 -1 18383 -5.8769498020410538e-02</internalNodes>
      <leafValues>
        2.3191973567008972e-01 -5.1013350486755371e-02</leafValues></_>
    <_>
      <internalNodes>
        0 -1 90605 -4.6393543016165495e-04</internalNodes>
      <leafValues>
        -1.3362389802932739e-01 8.9643187820911407e-02</leafValues></_></weakClassifiers></stage31>
</opencv_storage>
