<?xml version="1.0"?>
<opencv_storage>
<stage22>
  <maxWeakCount>100</maxWeakCount>
  <stageThreshold>-9.6054613590240479e-01</stageThreshold>
  <weakClassifiers>
    <_>
      <internalNodes>
        0 -1 118289 1.6398347914218903e-02</internalNodes>
      <leafValues>
        1.6660892963409424e-01 7.7109825611114502e-01</leafValues></_>
    <_>
      <internalNodes>
        0 -1 109930 4.4593334197998047e-02</internalNodes>
      <leafValues>
        -3.7715237587690353e-02 7.4952524900436401e-01</leafValues></_>
    <_>
      <internalNodes>
        0 -1 23786 -4.3250527232885361e-03</internalNodes>
      <leafValues>
        -1.3022936880588531e-01 4.4081065058708191e-01</leafValues></_>
    <_>
      <internalNodes>
        0 -1 158254 1.8838574178516865e-03</internalNodes>
      <leafValues>
        -3.1730677932500839e-02 4.4091367721557617e-01</leafValues></_>
    <_>
      <internalNodes>
        0 -1 111350 3.5303954500705004e-03</internalNodes>
      <leafValues>
        -1.6034784913063049e-01 1.3423225283622742e-01</leafValues></_>
    <_>
      <internalNodes>
        0 -1 119895 7.2611207142472267e-03</internalNodes>
      <leafValues>
        4.0048032999038696e-02 -5.0713038444519043e-01</leafValues></_>
    <_>
      <internalNodes>
        0 -1 42387 8.1083402037620544e-03</internalNodes>
      <leafValues>
        -1.3021642342209816e-02 6.0410833358764648e-01</leafValues></_>
    <_>
      <internalNodes>
        0 -1 105131 -8.1764087080955505e-03</internalNodes>
      <leafValues>
        1.8894149363040924e-01 -1.2045785039663315e-01</leafValues></_>
    <_>
      <internalNodes>
        0 -1 98303 7.6885246671736240e-03</internalNodes>
      <leafValues>
        4.8078048974275589e-02 -3.9292088150978088e-01</leafValues></_>
    <_>
      <internalNodes>
        0 -1 85010 1.1008545756340027e-02</internalNodes>
      <leafValues>
        2.4185018613934517e-02 -6.7199587821960449e-01</leafValues></_>
    <_>
      <internalNodes>
        0 -1 72836 2.0109753310680389e-01</internalNodes>
      <leafValues>
        2.5136634707450867e-02 -5.2170407772064209e-01</leafValues></_>
    <_>
      <internalNodes>
        0 -1 67440 1.8151704221963882e-02</internalNodes>
      <leafValues>
        -7.6558433473110199e-02 2.0934535562992096e-01</leafValues></_>
    <_>
      <internalNodes>
        0 -1 126436 -2.4530386552214622e-02</internalNodes>
      <leafValues>
        6.7511297762393951e-02 -2.3482656478881836e-01</leafValues></_>
    <_>
      <internalNodes>
        0 -1 107676 -7.7361404895782471e-02</internalNodes>
      <leafValues>
        -9.6777483820915222e-02 2.1271941065788269e-01</leafValues></_>
    <_>
      <internalNodes>
        0 -1 48487 1.4290441758930683e-03</internalNodes>
      <leafValues>
        -7.5392276048660278e-02 2.0422188937664032e-01</leafValues></_>
    <_>
      <internalNodes>
        0 -1 36528 -3.4366005659103394e-01</internalNodes>
      <leafValues>
        8.1216889619827271e-01 -2.2145690396428108e-02</leafValues></_>
    <_>
      <internalNodes>
        0 -1 124200 1.0754001326858997e-02</internalNodes>
      <leafValues>
        3.8121566176414490e-02 -5.0325125455856323e-01</leafValues></_>
    <_>
      <internalNodes>
        0 -1 104118 -2.0238073542714119e-02</internalNodes>
      <leafValues>
        -3.1985774636268616e-01 4.3006706982851028e-02</leafValues></_>
    <_>
      <internalNodes>
        0 -1 24104 -2.7026834432035685e-03</internalNodes>
      <leafValues>
        -1.6376620158553123e-02 6.7424535751342773e-01</leafValues></_>
    <_>
      <internalNodes>
        0 -1 106849 4.8576422035694122e-02</internalNodes>
      <leafValues>
        -1.7823340371251106e-02 6.8679648637771606e-01</leafValues></_>
    <_>
      <internalNodes>
        0 -1 49785 -1.9892394542694092e-01</internalNodes>
      <leafValues>
        4.2827140539884567e-02 -3.3876350522041321e-01</leafValues></_>
    <_>
      <internalNodes>
        0 -1 103615 -5.1694903522729874e-03</internalNodes>
      <leafValues>
        -4.0656510740518570e-02 3.7284699082374573e-01</leafValues></_>
    <_>
      <internalNodes>
        0 -1 133512 -4.3536974117159843e-03</internalNodes>
      <leafValues>
        4.2844623327255249e-01 -3.1158698722720146e-02</leafValues></_>
    <_>
      <internalNodes>
        0 -1 10010 -9.9269859492778778e-04</internalNodes>
      <leafValues>
        2.6916857808828354e-02 -4.9640905857086182e-01</leafValues></_>
    <_>
      <internalNodes>
        0 -1 76923 -2.9465802945196629e-03</internalNodes>
      <leafValues>
        -2.5688834488391876e-02 5.4487431049346924e-01</leafValues></_>
    <_>
      <internalNodes>
        0 -1 78815 -2.8924860060214996e-02</internalNodes>
      <leafValues>
        7.8967005014419556e-01 -1.3306067325174809e-02</leafValues></_>
    <_>
      <internalNodes>
        0 -1 125168 2.8410928323864937e-02</internalNodes>
      <leafValues>
        2.2955287247896194e-02 -6.7982846498489380e-01</leafValues></_>
    <_>
      <internalNodes>
        0 -1 87603 -2.1492607891559601e-02</internalNodes>
      <leafValues>
        -3.9091894030570984e-01 3.0287250876426697e-02</leafValues></_>
    <_>
      <internalNodes>
        0 -1 124677 -9.0787478256970644e-04</internalNodes>
      <leafValues>
        1.9389232620596886e-02 -6.7662811279296875e-01</leafValues></_>
    <_>
      <internalNodes>
        0 -1 18121 -2.0486909896135330e-02</internalNodes>
      <leafValues>
        2.9473680257797241e-01 -4.5104444026947021e-02</leafValues></_>
    <_>
      <internalNodes>
        0 -1 11666 -4.1572693735361099e-02</internalNodes>
      <leafValues>
        -7.5857207179069519e-02 1.8516007065773010e-01</leafValues></_>
    <_>
      <internalNodes>
        0 -1 120136 -2.0789558067917824e-02</internalNodes>
      <leafValues>
        1.4196196198463440e-01 -1.0555726289749146e-01</leafValues></_>
    <_>
      <internalNodes>
        0 -1 101755 -4.3904865160584450e-03</internalNodes>
      <leafValues>
        -3.1336970627307892e-02 4.3084502220153809e-01</leafValues></_>
    <_>
      <internalNodes>
        0 -1 131880 3.4782629460096359e-02</internalNodes>
      <leafValues>
        -3.0567264184355736e-02 4.8017328977584839e-01</leafValues></_>
    <_>
      <internalNodes>
        0 -1 136168 1.9862740300595760e-03</internalNodes>
      <leafValues>
        5.8324325829744339e-02 -2.5667044520378113e-01</leafValues></_>
    <_>
      <internalNodes>
        0 -1 159707 2.2513282019644976e-03</internalNodes>
      <leafValues>
        -5.5180314928293228e-02 2.5215911865234375e-01</leafValues></_>
    <_>
      <internalNodes>
        0 -1 161109 4.3886168859899044e-03</internalNodes>
      <leafValues>
        3.7423700094223022e-02 -3.5672891139984131e-01</leafValues></_>
    <_>
      <internalNodes>
        0 -1 7457 5.5034470278769732e-04</internalNodes>
      <leafValues>
        -1.1456060409545898e-01 1.0572961717844009e-01</leafValues></_>
    <_>
      <internalNodes>
        0 -1 149636 2.8605898842215538e-03</internalNodes>
      <leafValues>
        -3.1011143699288368e-02 3.6068353056907654e-01</leafValues></_>
    <_>
      <internalNodes>
        0 -1 118979 3.6858152598142624e-03</internalNodes>
      <leafValues>
        -7.0247501134872437e-02 1.8638339638710022e-01</leafValues></_>
    <_>
      <internalNodes>
        0 -1 30676 1.5958189964294434e-01</internalNodes>
      <leafValues>
        -1.7099821940064430e-02 6.7582356929779053e-01</leafValues></_>
    <_>
      <internalNodes>
        0 -1 11129 3.7797079421579838e-03</internalNodes>
      <leafValues>
        7.7283389866352081e-02 -1.5596157312393188e-01</leafValues></_>
    <_>
      <internalNodes>
        0 -1 24101 2.0716902799904346e-03</internalNodes>
      <leafValues>
        -8.1091195344924927e-02 1.5891559422016144e-01</leafValues></_>
    <_>
      <internalNodes>
        0 -1 154608 5.0386160612106323e-02</internalNodes>
      <leafValues>
        -1.8321458250284195e-02 6.9009917974472046e-01</leafValues></_>
    <_>
      <internalNodes>
        0 -1 113082 9.2565063387155533e-03</internalNodes>
      <leafValues>
        1.9663477316498756e-02 -7.4772071838378906e-01</leafValues></_>
    <_>
      <internalNodes>
        0 -1 93695 1.6712490469217300e-02</internalNodes>
      <leafValues>
        2.9602527618408203e-02 -3.4013855457305908e-01</leafValues></_>
    <_>
      <internalNodes>
        0 -1 96443 -2.5348663330078125e-02</internalNodes>
      <leafValues>
        6.9940614700317383e-01 -1.7591761425137520e-02</leafValues></_>
    <_>
      <internalNodes>
        0 -1 78585 -2.0453536510467529e-01</internalNodes>
      <leafValues>
        -8.3888608217239380e-01 1.5361290425062180e-02</leafValues></_>
    <_>
      <internalNodes>
        0 -1 133594 1.6176850767806172e-03</internalNodes>
      <leafValues>
        3.0058793723583221e-02 -3.8992354273796082e-01</leafValues></_>
    <_>
      <internalNodes>
        0 -1 79628 -8.3870580419898033e-04</internalNodes>
      <leafValues>
        2.2870218381285667e-02 -4.7786024212837219e-01</leafValues></_>
    <_>
      <internalNodes>
        0 -1 24488 -1.7816513776779175e-02</internalNodes>
      <leafValues>
        3.2106333971023560e-01 -3.6610972136259079e-02</leafValues></_>
    <_>
      <internalNodes>
        0 -1 157597 5.7706324150785804e-04</internalNodes>
      <leafValues>
        5.3156595677137375e-02 -2.1871963143348694e-01</leafValues></_>
    <_>
      <internalNodes>
        0 -1 64978 -1.0233053006231785e-02</internalNodes>
      <leafValues>
        6.6331869363784790e-01 -1.8939800560474396e-02</leafValues></_>
    <_>
      <internalNodes>
        0 -1 18803 1.9266153685748577e-03</internalNodes>
      <leafValues>
        2.1832983940839767e-02 -6.0246920585632324e-01</leafValues></_>
    <_>
      <internalNodes>
        0 -1 159725 2.6183945592492819e-03</internalNodes>
      <leafValues>
        -4.8309165984392166e-02 2.4910046160221100e-01</leafValues></_>
    <_>
      <internalNodes>
        0 -1 107262 -1.8193462491035461e-01</internalNodes>
      <leafValues>
        -8.0214366316795349e-02 1.3732449710369110e-01</leafValues></_>
    <_>
      <internalNodes>
        0 -1 55002 -3.7271298468112946e-02</internalNodes>
      <leafValues>
        8.9448064565658569e-01 -1.5506879426538944e-02</leafValues></_>
    <_>
      <internalNodes>
        0 -1 125102 3.2176633831113577e-03</internalNodes>
      <leafValues>
        3.6529436707496643e-02 -3.7518781423568726e-01</leafValues></_>
    <_>
      <internalNodes>
        0 -1 27548 -9.6441298723220825e-02</internalNodes>
      <leafValues>
        2.3647744208574295e-02 -4.4570946693420410e-01</leafValues></_>
    <_>
      <internalNodes>
        0 -1 52186 -7.0703085511922836e-03</internalNodes>
      <leafValues>
        -2.7218066155910492e-02 4.0688514709472656e-01</leafValues></_>
    <_>
      <internalNodes>
        0 -1 17279 3.6206826567649841e-02</internalNodes>
      <leafValues>
        -2.3399770259857178e-02 5.8076232671737671e-01</leafValues></_>
    <_>
      <internalNodes>
        0 -1 59736 -1.2250603176653385e-03</internalNodes>
      <leafValues>
        1.7591255903244019e-01 -6.5054580569267273e-02</leafValues></_>
    <_>
      <internalNodes>
        0 -1 59295 3.2327026128768921e-02</internalNodes>
      <leafValues>
        2.7768271043896675e-02 -4.5842918753623962e-01</leafValues></_>
    <_>
      <internalNodes>
        0 -1 60134 8.7526524439454079e-03</internalNodes>
      <leafValues>
        2.1010093390941620e-02 -5.3163069486618042e-01</leafValues></_>
    <_>
      <internalNodes>
        0 -1 22155 -2.6848701963899657e-05</internalNodes>
      <leafValues>
        1.0190920531749725e-01 -1.1241534352302551e-01</leafValues></_>
    <_>
      <internalNodes>
        0 -1 58914 2.4986544158309698e-03</internalNodes>
      <leafValues>
        -5.9850573539733887e-02 1.8188096582889557e-01</leafValues></_>
    <_>
      <internalNodes>
        0 -1 7417 -2.3315816652029753e-03</internalNodes>
      <leafValues>
        -3.8212993741035461e-01 2.9746387153863907e-02</leafValues></_>
    <_>
      <internalNodes>
        0 -1 135878 -3.7693749181926250e-03</internalNodes>
      <leafValues>
        1.3355766236782074e-01 -8.4159299731254578e-02</leafValues></_>
    <_>
      <internalNodes>
        0 -1 137629 2.1715594921261072e-03</internalNodes>
      <leafValues>
        -7.2502344846725464e-02 1.5329603850841522e-01</leafValues></_>
    <_>
      <internalNodes>
        0 -1 137309 -1.6556929796934128e-02</internalNodes>
      <leafValues>
        1.6213501989841461e-01 -1.0684353858232498e-01</leafValues></_>
    <_>
      <internalNodes>
        0 -1 120781 3.0905550345778465e-02</internalNodes>
      <leafValues>
        1.3247851282358170e-02 -9.4770634174346924e-01</leafValues></_>
    <_>
      <internalNodes>
        0 -1 162310 -5.0305714830756187e-03</internalNodes>
      <leafValues>
        -2.9008933901786804e-01 3.8819037377834320e-02</leafValues></_>
    <_>
      <internalNodes>
        0 -1 43651 -1.1523637175559998e-01</internalNodes>
      <leafValues>
        -1.8901190161705017e-01 5.6747633963823318e-02</leafValues></_>
    <_>
      <internalNodes>
        0 -1 152698 -1.0970941744744778e-02</internalNodes>
      <leafValues>
        2.5534510612487793e-01 -5.0666891038417816e-02</leafValues></_>
    <_>
      <internalNodes>
        0 -1 144382 -2.2388715296983719e-02</internalNodes>
      <leafValues>
        -1.6682784259319305e-01 7.5555264949798584e-02</leafValues></_>
    <_>
      <internalNodes>
        0 -1 131853 -1.2619886547327042e-02</internalNodes>
      <leafValues>
        3.4341874718666077e-01 -3.3799011260271072e-02</leafValues></_>
    <_>
      <internalNodes>
        0 -1 8617 7.4701261473819613e-04</internalNodes>
      <leafValues>
        9.1754406690597534e-02 -1.2149056047201157e-01</leafValues></_>
    <_>
      <internalNodes>
        0 -1 68832 -6.1774672940373421e-04</internalNodes>
      <leafValues>
        -8.0583378672599792e-02 1.4596256613731384e-01</leafValues></_>
    <_>
      <internalNodes>
        0 -1 68959 -3.3112470991909504e-03</internalNodes>
      <leafValues>
        1.3321354985237122e-01 -1.0408367961645126e-01</leafValues></_>
    <_>
      <internalNodes>
        0 -1 111866 -1.2127929367125034e-03</internalNodes>
      <leafValues>
        -2.6056069880723953e-02 4.1932320594787598e-01</leafValues></_>
    <_>
      <internalNodes>
        0 -1 155641 -1.2160399928689003e-02</internalNodes>
      <leafValues>
        2.8851261362433434e-02 -4.2780569195747375e-01</leafValues></_>
    <_>
      <internalNodes>
        0 -1 135115 -7.0082899183034897e-03</internalNodes>
      <leafValues>
        -4.1547581553459167e-02 3.9173784852027893e-01</leafValues></_>
    <_>
      <internalNodes>
        0 -1 11938 -9.1703310608863831e-03</internalNodes>
      <leafValues>
        -4.0882605314254761e-01 2.9445312917232513e-02</leafValues></_>
    <_>
      <internalNodes>
        0 -1 98655 -3.6077838740311563e-04</internalNodes>
      <leafValues>
        1.2627048417925835e-02 -8.3062952756881714e-01</leafValues></_>
    <_>
      <internalNodes>
        0 -1 138858 4.4173682108521461e-03</internalNodes>
      <leafValues>
        3.1831838190555573e-02 -3.3733403682708740e-01</leafValues></_>
    <_>
      <internalNodes>
        0 -1 139034 -2.9603955335915089e-03</internalNodes>
      <leafValues>
        1.6929292678833008e-01 -7.1220755577087402e-02</leafValues></_>
    <_>
      <internalNodes>
        0 -1 121197 -5.3893309086561203e-03</internalNodes>
      <leafValues>
        -3.0940657854080200e-01 4.1945401579141617e-02</leafValues></_>
    <_>
      <internalNodes>
        0 -1 98001 1.5474379062652588e-02</internalNodes>
      <leafValues>
        -2.6075588539242744e-02 4.9626702070236206e-01</leafValues></_>
    <_>
      <internalNodes>
        0 -1 53627 -4.3701770482584834e-04</internalNodes>
      <leafValues>
        1.2468432635068893e-01 -9.1314338147640228e-02</leafValues></_>
    <_>
      <internalNodes>
        0 -1 37903 -8.5450679762288928e-04</internalNodes>
      <leafValues>
        -1.6495338082313538e-01 6.7546904087066650e-02</leafValues></_>
    <_>
      <internalNodes>
        0 -1 155089 1.3308296911418438e-03</internalNodes>
      <leafValues>
        -3.9521325379610062e-02 3.0890488624572754e-01</leafValues></_>
    <_>
      <internalNodes>
        0 -1 12840 1.6108778072521091e-04</internalNodes>
      <leafValues>
        -1.0302235931158066e-01 1.1048050969839096e-01</leafValues></_>
    <_>
      <internalNodes>
        0 -1 143702 -4.9679856747388840e-03</internalNodes>
      <leafValues>
        -3.1745845079421997e-01 3.7219066172838211e-02</leafValues></_>
    <_>
      <internalNodes>
        0 -1 10019 -3.4893050324171782e-03</internalNodes>
      <leafValues>
        -2.6708263158798218e-01 4.3322224169969559e-02</leafValues></_>
    <_>
      <internalNodes>
        0 -1 6751 2.9719501733779907e-02</internalNodes>
      <leafValues>
        -3.0035380274057388e-02 3.9440903067588806e-01</leafValues></_>
    <_>
      <internalNodes>
        0 -1 76593 -1.1698865273501724e-04</internalNodes>
      <leafValues>
        1.0429698228836060e-01 -1.0634285211563110e-01</leafValues></_>
    <_>
      <internalNodes>
        0 -1 151679 2.6128438767045736e-03</internalNodes>
      <leafValues>
        -7.4291221797466278e-02 1.5390376746654510e-01</leafValues></_>
    <_>
      <internalNodes>
        0 -1 152732 1.2743206694722176e-02</internalNodes>
      <leafValues>
        3.1487833708524704e-02 -4.3122068047523499e-01</leafValues></_>
    <_>
      <internalNodes>
        0 -1 22638 -1.9754123687744141e-01</internalNodes>
      <leafValues>
        4.1046929359436035e-01 -3.4452214837074280e-02</leafValues></_>
    <_>
      <internalNodes>
        0 -1 133290 1.1683274060487747e-03</internalNodes>
      <leafValues>
        -8.4141328930854797e-02 1.4878033101558685e-01</leafValues></_></weakClassifiers></stage22>
</opencv_storage>
