<?xml version="1.0"?>
<opencv_storage>
<stage13>
  <maxWeakCount>51</maxWeakCount>
  <stageThreshold>-1.0911554098129272e+00</stageThreshold>
  <weakClassifiers>
    <_>
      <internalNodes>
        0 -1 151959 -1.2131530046463013e-01</internalNodes>
      <leafValues>
        -2.7098321914672852e-01 7.7838826179504395e-01</leafValues></_>
    <_>
      <internalNodes>
        0 -1 76992 -6.0886308550834656e-02</internalNodes>
      <leafValues>
        -3.3968634903430939e-02 7.1254515647888184e-01</leafValues></_>
    <_>
      <internalNodes>
        0 -1 155618 -1.6241287812590599e-03</internalNodes>
      <leafValues>
        4.8695188760757446e-01 -1.0574603080749512e-01</leafValues></_>
    <_>
      <internalNodes>
        0 -1 132435 -1.4473129995167255e-03</internalNodes>
      <leafValues>
        2.4210576713085175e-01 -1.7606206238269806e-01</leafValues></_>
    <_>
      <internalNodes>
        0 -1 148144 2.8556403703987598e-03</internalNodes>
      <leafValues>
        -1.7289097607135773e-01 2.8315359354019165e-01</leafValues></_>
    <_>
      <internalNodes>
        0 -1 127783 -3.2419450581073761e-02</internalNodes>
      <leafValues>
        -1.5351572632789612e-01 2.5949561595916748e-01</leafValues></_>
    <_>
      <internalNodes>
        0 -1 158356 -2.4837497621774673e-02</internalNodes>
      <leafValues>
        4.2937323451042175e-01 -1.0763201862573624e-01</leafValues></_>
    <_>
      <internalNodes>
        0 -1 22181 -1.9667301326990128e-02</internalNodes>
      <leafValues>
        5.3724646568298340e-02 -7.0222371816635132e-01</leafValues></_>
    <_>
      <internalNodes>
        0 -1 37203 -4.5688450336456299e-03</internalNodes>
      <leafValues>
        -7.9845421016216278e-02 4.0447273850440979e-01</leafValues></_>
    <_>
      <internalNodes>
        0 -1 50379 -3.7241256237030029e-01</internalNodes>
      <leafValues>
        -6.6414618492126465e-01 4.1875682771205902e-02</leafValues></_>
    <_>
      <internalNodes>
        0 -1 114928 3.9364363998174667e-02</internalNodes>
      <leafValues>
        -7.4594460427761078e-02 4.5999783277511597e-01</leafValues></_>
    <_>
      <internalNodes>
        0 -1 53308 -4.3282848782837391e-03</internalNodes>
      <leafValues>
        2.1321883797645569e-01 -1.3326177000999451e-01</leafValues></_>
    <_>
      <internalNodes>
        0 -1 120978 1.0869683697819710e-02</internalNodes>
      <leafValues>
        4.0883794426918030e-02 -5.0978040695190430e-01</leafValues></_>
    <_>
      <internalNodes>
        0 -1 11416 -5.5820006877183914e-02</internalNodes>
      <leafValues>
        2.9905799031257629e-01 -7.3927417397499084e-02</leafValues></_>
    <_>
      <internalNodes>
        0 -1 118426 1.0398700833320618e-02</internalNodes>
      <leafValues>
        -1.1081367731094360e-01 2.4100911617279053e-01</leafValues></_>
    <_>
      <internalNodes>
        0 -1 118646 -1.2134646065533161e-02</internalNodes>
      <leafValues>
        -4.5685529708862305e-01 5.2774023264646530e-02</leafValues></_>
    <_>
      <internalNodes>
        0 -1 89263 -3.4234442282468081e-03</internalNodes>
      <leafValues>
        -4.5682672411203384e-02 5.7908910512924194e-01</leafValues></_>
    <_>
      <internalNodes>
        0 -1 69781 1.3927791733294725e-03</internalNodes>
      <leafValues>
        -1.4905200898647308e-01 2.0646581053733826e-01</leafValues></_>
    <_>
      <internalNodes>
        0 -1 42559 6.3830189406871796e-02</internalNodes>
      <leafValues>
        -1.0971423983573914e-01 2.0394995808601379e-01</leafValues></_>
    <_>
      <internalNodes>
        0 -1 4410 -2.3322193883359432e-03</internalNodes>
      <leafValues>
        2.1913664042949677e-01 -1.0806385427713394e-01</leafValues></_>
    <_>
      <internalNodes>
        0 -1 11080 2.0234007388353348e-02</internalNodes>
      <leafValues>
        -3.8832273334264755e-02 6.3734310865402222e-01</leafValues></_>
    <_>
      <internalNodes>
        0 -1 157386 -1.0610490106046200e-02</internalNodes>
      <leafValues>
        -3.8336429744958878e-02 4.5522725582122803e-01</leafValues></_>
    <_>
      <internalNodes>
        0 -1 126770 -2.9481559991836548e-02</internalNodes>
      <leafValues>
        4.5749790966510773e-02 -5.7941889762878418e-01</leafValues></_>
    <_>
      <internalNodes>
        0 -1 79091 -1.8693911843001842e-03</internalNodes>
      <leafValues>
        -2.8535814955830574e-02 7.5916463136672974e-01</leafValues></_>
    <_>
      <internalNodes>
        0 -1 98784 4.4452756643295288e-02</internalNodes>
      <leafValues>
        3.2121457159519196e-02 -7.2049140930175781e-01</leafValues></_>
    <_>
      <internalNodes>
        0 -1 104016 1.4215225819498301e-03</internalNodes>
      <leafValues>
        4.1958216577768326e-02 -4.7101068496704102e-01</leafValues></_>
    <_>
      <internalNodes>
        0 -1 159736 -1.1913663001905661e-05</internalNodes>
      <leafValues>
        1.5620447695255280e-01 -1.2663528323173523e-01</leafValues></_>
    <_>
      <internalNodes>
        0 -1 139053 -4.2106583714485168e-02</internalNodes>
      <leafValues>
        -2.2014300525188446e-01 1.0050787031650543e-01</leafValues></_>
    <_>
      <internalNodes>
        0 -1 21917 -2.7778934687376022e-02</internalNodes>
      <leafValues>
        4.6800491213798523e-01 -5.6690204888582230e-02</leafValues></_>
    <_>
      <internalNodes>
        0 -1 148066 1.2733608018606901e-03</internalNodes>
      <leafValues>
        -1.2148531526327133e-01 1.7113694548606873e-01</leafValues></_>
    <_>
      <internalNodes>
        0 -1 46272 5.0208564847707748e-02</internalNodes>
      <leafValues>
        -4.0072273463010788e-02 5.0115257501602173e-01</leafValues></_>
    <_>
      <internalNodes>
        0 -1 152734 1.4328443445265293e-02</internalNodes>
      <leafValues>
        4.0912024676799774e-02 -6.1000031232833862e-01</leafValues></_>
    <_>
      <internalNodes>
        0 -1 13136 -6.0990486294031143e-02</internalNodes>
      <leafValues>
        8.4142518043518066e-01 -3.1722202897071838e-02</leafValues></_>
    <_>
      <internalNodes>
        0 -1 126209 -1.9590873271226883e-03</internalNodes>
      <leafValues>
        1.1407289654016495e-01 -1.8019621074199677e-01</leafValues></_>
    <_>
      <internalNodes>
        0 -1 90811 -6.1207287013530731e-02</internalNodes>
      <leafValues>
        5.6019324064254761e-01 -3.7265166640281677e-02</leafValues></_>
    <_>
      <internalNodes>
        0 -1 111856 -1.3047341490164399e-03</internalNodes>
      <leafValues>
        -2.6671987026929855e-02 6.8885862827301025e-01</leafValues></_>
    <_>
      <internalNodes>
        0 -1 8814 -2.0578515250235796e-03</internalNodes>
      <leafValues>
        -3.8356167078018188e-01 5.3809735924005508e-02</leafValues></_>
    <_>
      <internalNodes>
        0 -1 1092 1.8733696639537811e-01</internalNodes>
      <leafValues>
        -4.8169340938329697e-02 4.2981541156768799e-01</leafValues></_>
    <_>
      <internalNodes>
        0 -1 133414 5.7462714612483978e-03</internalNodes>
      <leafValues>
        -6.2660105526447296e-02 3.2844895124435425e-01</leafValues></_>
    <_>
      <internalNodes>
        0 -1 96437 -4.4177537783980370e-03</internalNodes>
      <leafValues>
        -6.3326036930084229e-01 3.4732658416032791e-02</leafValues></_>
    <_>
      <internalNodes>
        0 -1 22275 3.6504920572042465e-03</internalNodes>
      <leafValues>
        -1.1652462929487228e-01 1.8488547205924988e-01</leafValues></_>
    <_>
      <internalNodes>
        0 -1 105140 7.1564973331987858e-03</internalNodes>
      <leafValues>
        -9.8174892365932465e-02 2.1502791345119476e-01</leafValues></_>
    <_>
      <internalNodes>
        0 -1 152146 -3.7730322219431400e-03</internalNodes>
      <leafValues>
        1.8359334766864777e-01 -1.0613786429166794e-01</leafValues></_>
    <_>
      <internalNodes>
        0 -1 157616 1.2356186052784324e-03</internalNodes>
      <leafValues>
        -1.1917087435722351e-01 1.7549452185630798e-01</leafValues></_>
    <_>
      <internalNodes>
        0 -1 78227 -1.6555248294025660e-03</internalNodes>
      <leafValues>
        -4.4924840331077576e-01 5.1179721951484680e-02</leafValues></_>
    <_>
      <internalNodes>
        0 -1 56271 -1.4406403526663780e-02</internalNodes>
      <leafValues>
        2.9846179485321045e-01 -6.8004958331584930e-02</leafValues></_>
    <_>
      <internalNodes>
        0 -1 142394 5.2555021829903126e-04</internalNodes>
      <leafValues>
        7.3915541172027588e-02 -3.0391940474510193e-01</leafValues></_>
    <_>
      <internalNodes>
        0 -1 157550 -1.1923684505745769e-03</internalNodes>
      <leafValues>
        1.8868713080883026e-01 -1.1039126664400101e-01</leafValues></_>
    <_>
      <internalNodes>
        0 -1 2196 -9.8738305270671844e-02</internalNodes>
      <leafValues>
        -1.3168452680110931e-01 1.8546713888645172e-01</leafValues></_>
    <_>
      <internalNodes>
        0 -1 863 -1.6675239801406860e-01</internalNodes>
      <leafValues>
        2.3737516999244690e-01 -1.1938963830471039e-01</leafValues></_>
    <_>
      <internalNodes>
        0 -1 11173 2.1104320883750916e-02</internalNodes>
      <leafValues>
        -3.5890731960535049e-02 5.1079440116882324e-01</leafValues></_></weakClassifiers></stage13>
</opencv_storage>
