<?xml version="1.0"?>
<opencv_storage>
<cascade>
  <stageType>BOOST</stageType>
  <featureType>HAAR</featureType>
  <height>24</height>
  <width>24</width>
  <stageParams>
    <boostType>GAB</boostType>
    <minHitRate>9.9500000476837158e-01</minHitRate>
    <maxFalseAlarm>5.0000000000000000e-01</maxFalseAlarm>
    <weightTrimRate>9.4999999999999996e-01</weightTrimRate>
    <maxDepth>1</maxDepth>
    <maxWeakCount>100</maxWeakCount></stageParams>
  <featureParams>
    <maxCatCount>0</maxCatCount>
    <featSize>1</featSize>
    <mode>BASIC</mode></featureParams>
  <stageNum>19</stageNum>
  <stages>
    <!-- stage 0 -->
    <_>
      <maxWeakCount>1</maxWeakCount>
      <stageThreshold>9.1387557983398438e-01</stageThreshold>
      <weakClassifiers>
        <_>
          <internalNodes>
            0 -1 10 -1.7885118722915649e-02</internalNodes>
          <leafValues>
            9.1387557983398438e-01 -1.</leafValues></_></weakClassifiers></_>
    <!-- stage 1 -->
    <_>
      <maxWeakCount>2</maxWeakCount>
      <stageThreshold>3.2551981508731842e-02</stageThreshold>
      <weakClassifiers>
        <_>
          <internalNodes>
            0 -1 75 -7.4150874279439449e-03</internalNodes>
          <leafValues>
            8.2159626483917236e-01 -8.6206895112991333e-01</leafValues></_>
        <_>
          <internalNodes>
            0 -1 40 -2.1481923758983612e-02</internalNodes>
          <leafValues>
            8.9462095499038696e-01 -5.5884128808975220e-01</leafValues></_></weakClassifiers></_>
    <!-- stage 2 -->
    <_>
      <maxWeakCount>1</maxWeakCount>
      <stageThreshold>7.6211452484130859e-01</stageThreshold>
      <weakClassifiers>
        <_>
          <internalNodes>
            0 -1 4 -3.4278506040573120e-01</internalNodes>
          <leafValues>
            -1. 7.6211452484130859e-01</leafValues></_></weakClassifiers></_>
    <!-- stage 3 -->
    <_>
      <maxWeakCount>4</maxWeakCount>
      <stageThreshold>-2.5414526462554932e-01</stageThreshold>
      <weakClassifiers>
        <_>
          <internalNodes>
            0 -1 65 -1.5894602239131927e-01</internalNodes>
          <leafValues>
            7.9629629850387573e-01 -8.5714286565780640e-01</leafValues></_>
        <_>
          <internalNodes>
            0 -1 8 2.8186507523059845e-02</internalNodes>
          <leafValues>
            -6.1264443397521973e-01 7.2032731771469116e-01</leafValues></_>
        <_>
          <internalNodes>
            0 -1 63 -4.6127516776323318e-02</internalNodes>
          <leafValues>
            5.4393845796585083e-01 -9.1734921932220459e-01</leafValues></_>
        <_>
          <internalNodes>
            0 -1 47 -9.7022566478699446e-04</internalNodes>
          <leafValues>
            6.7170357704162598e-01 -6.4922755956649780e-01</leafValues></_></weakClassifiers></_>
    <!-- stage 4 -->
    <_>
      <maxWeakCount>5</maxWeakCount>
      <stageThreshold>-3.9437010884284973e-01</stageThreshold>
      <weakClassifiers>
        <_>
          <internalNodes>
            0 -1 56 1.6108092386275530e-03</internalNodes>
          <leafValues>
            -5.6321841478347778e-01 6.9953054189682007e-01</leafValues></_>
        <_>
          <internalNodes>
            0 -1 83 1.0822072625160217e-02</internalNodes>
          <leafValues>
            -6.7277848720550537e-01 6.6403192281723022e-01</leafValues></_>
        <_>
          <internalNodes>
            0 -1 32 4.2841243557631969e-03</internalNodes>
          <leafValues>
            -6.3124209642410278e-01 6.4114987850189209e-01</leafValues></_>
        <_>
          <internalNodes>
            0 -1 46 -1.6374301631003618e-03</internalNodes>
          <leafValues>
            7.8184145689010620e-01 -5.2178078889846802e-01</leafValues></_>
        <_>
          <internalNodes>
            0 -1 86 -9.5275968313217163e-02</internalNodes>
          <leafValues>
            8.1217837333679199e-01 -5.7172155380249023e-01</leafValues></_></weakClassifiers></_>
    <!-- stage 5 -->
    <_>
      <maxWeakCount>6</maxWeakCount>
      <stageThreshold>-7.0487475395202637e-01</stageThreshold>
      <weakClassifiers>
        <_>
          <internalNodes>
            0 -1 30 1.5059589641168714e-03</internalNodes>
          <leafValues>
            6.7567569017410278e-01 -6.4102566242218018e-01</leafValues></_>
        <_>
          <internalNodes>
            0 -1 43 1.2230807915329933e-03</internalNodes>
          <leafValues>
            -5.8268493413925171e-01 7.7383500337600708e-01</leafValues></_>
        <_>
          <internalNodes>
            0 -1 69 -2.9307226650416851e-03</internalNodes>
          <leafValues>
            8.0926549434661865e-01 -3.8939252495765686e-01</leafValues></_>
        <_>
          <internalNodes>
            0 -1 61 -4.4535793364048004e-02</internalNodes>
          <leafValues>
            7.9661208391189575e-01 -4.4111490249633789e-01</leafValues></_>
        <_>
          <internalNodes>
            0 -1 57 -6.5068854019045830e-04</internalNodes>
          <leafValues>
            8.6517447233200073e-01 -4.2420282959938049e-01</leafValues></_>
        <_>
          <internalNodes>
            0 -1 35 -7.2404439561069012e-03</internalNodes>
          <leafValues>
            4.5684474706649780e-01 -9.3559783697128296e-01</leafValues></_></weakClassifiers></_>
    <!-- stage 6 -->
    <_>
      <maxWeakCount>4</maxWeakCount>
      <stageThreshold>-2.2575759887695313e-01</stageThreshold>
      <weakClassifiers>
        <_>
          <internalNodes>
            0 -1 6 5.9309462085366249e-03</internalNodes>
          <leafValues>
            -6.6292136907577515e-01 7.5355452299118042e-01</leafValues></_>
        <_>
          <internalNodes>
            0 -1 38 -2.5824825279414654e-03</internalNodes>
          <leafValues>
            5.3726536035537720e-01 -8.0171591043472290e-01</leafValues></_>
        <_>
          <internalNodes>
            0 -1 73 -3.4886952489614487e-03</internalNodes>
          <leafValues>
            7.2945928573608398e-01 -6.4616769552230835e-01</leafValues></_>
        <_>
          <internalNodes>
            0 -1 7 -8.8771013543009758e-04</internalNodes>
          <leafValues>
            5.4606616497039795e-01 -6.5723770856857300e-01</leafValues></_></weakClassifiers></_>
    <!-- stage 7 -->
    <_>
      <maxWeakCount>5</maxWeakCount>
      <stageThreshold>-4.5352536439895630e-01</stageThreshold>
      <weakClassifiers>
        <_>
          <internalNodes>
            0 -1 9 1.2668982148170471e-02</internalNodes>
          <leafValues>
            -5.9036141633987427e-01 6.8663597106933594e-01</leafValues></_>
        <_>
          <internalNodes>
            0 -1 45 -6.0851238667964935e-03</internalNodes>
          <leafValues>
            6.2522262334823608e-01 -5.7205587625503540e-01</leafValues></_>
        <_>
          <internalNodes>
            0 -1 33 6.8080099299550056e-04</internalNodes>
          <leafValues>
            -5.1883035898208618e-01 7.1493512392044067e-01</leafValues></_>
        <_>
          <internalNodes>
            0 -1 42 9.7467249725013971e-04</internalNodes>
          <leafValues>
            -3.9428013563156128e-01 8.9784371852874756e-01</leafValues></_>
        <_>
          <internalNodes>
            0 -1 74 -7.2978837415575981e-03</internalNodes>
          <leafValues>
            4.6129682660102844e-01 -8.5227346420288086e-01</leafValues></_></weakClassifiers></_>
    <!-- stage 8 -->
    <_>
      <maxWeakCount>5</maxWeakCount>
      <stageThreshold>-4.9167028069496155e-01</stageThreshold>
      <weakClassifiers>
        <_>
          <internalNodes>
            0 -1 28 -3.1541228294372559e-02</internalNodes>
          <leafValues>
            7.4093264341354370e-01 -4.0186914801597595e-01</leafValues></_>
        <_>
          <internalNodes>
            0 -1 70 -1.3441809453070164e-02</internalNodes>
          <leafValues>
            8.1059706211090088e-01 -3.6262345314025879e-01</leafValues></_>
        <_>
          <internalNodes>
            0 -1 18 4.6752259135246277e-02</internalNodes>
          <leafValues>
            -5.7778316736221313e-01 6.1205333471298218e-01</leafValues></_>
        <_>
          <internalNodes>
            0 -1 68 -1.0264750744681805e-04</internalNodes>
          <leafValues>
            4.6318197250366211e-01 -7.2201561927795410e-01</leafValues></_>
        <_>
          <internalNodes>
            0 -1 77 -2.0416593179106712e-03</internalNodes>
          <leafValues>
            4.2981931567192078e-01 -6.9259965419769287e-01</leafValues></_></weakClassifiers></_>
    <!-- stage 9 -->
    <_>
      <maxWeakCount>5</maxWeakCount>
      <stageThreshold>-6.7188215255737305e-01</stageThreshold>
      <weakClassifiers>
        <_>
          <internalNodes>
            0 -1 37 -4.5361589640378952e-02</internalNodes>
          <leafValues>
            -8.6956518888473511e-01 5.5118107795715332e-01</leafValues></_>
        <_>
          <internalNodes>
            0 -1 48 5.8749588206410408e-03</internalNodes>
          <leafValues>
            -4.4273373484611511e-01 6.1610645055770874e-01</leafValues></_>
        <_>
          <internalNodes>
            0 -1 89 1.1565349996089935e-03</internalNodes>
          <leafValues>
            -7.5164949893951416e-01 4.3613937497138977e-01</leafValues></_>
        <_>
          <internalNodes>
            0 -1 34 -5.0693657249212265e-04</internalNodes>
          <leafValues>
            3.9155125617980957e-01 -7.1762579679489136e-01</leafValues></_>
        <_>
          <internalNodes>
            0 -1 66 -1.0429391404613853e-03</internalNodes>
          <leafValues>
            6.8894571065902710e-01 -4.4166728854179382e-01</leafValues></_></weakClassifiers></_>
    <!-- stage 10 -->
    <_>
      <maxWeakCount>4</maxWeakCount>
      <stageThreshold>-9.0760749578475952e-01</stageThreshold>
      <weakClassifiers>
        <_>
          <internalNodes>
            0 -1 85 -3.5217655822634697e-03</internalNodes>
          <leafValues>
            8.9403975009918213e-01 -2.3489932715892792e-01</leafValues></_>
        <_>
          <internalNodes>
            0 -1 52 -1.6634282656013966e-04</internalNodes>
          <leafValues>
            5.8517634868621826e-01 -4.9511030316352844e-01</leafValues></_>
        <_>
          <internalNodes>
            0 -1 36 -5.3216400556266308e-03</internalNodes>
          <leafValues>
            5.0485342741012573e-01 -5.4801976680755615e-01</leafValues></_>
        <_>
          <internalNodes>
            0 -1 23 -4.3467100476846099e-04</internalNodes>
          <leafValues>
            3.7042191624641418e-01 -8.2573759555816650e-01</leafValues></_></weakClassifiers></_>
    <!-- stage 11 -->
    <_>
      <maxWeakCount>7</maxWeakCount>
      <stageThreshold>-8.5700637102127075e-01</stageThreshold>
      <weakClassifiers>
        <_>
          <internalNodes>
            0 -1 53 -5.1807449199259281e-04</internalNodes>
          <leafValues>
            6.7487686872482300e-01 -3.8144329190254211e-01</leafValues></_>
        <_>
          <internalNodes>
            0 -1 39 -2.1354728378355503e-03</internalNodes>
          <leafValues>
            6.1081528663635254e-01 -4.1644364595413208e-01</leafValues></_>
        <_>
          <internalNodes>
            0 -1 20 -1.6978564858436584e-01</internalNodes>
          <leafValues>
            6.9081127643585205e-01 -3.4087067842483521e-01</leafValues></_>
        <_>
          <internalNodes>
            0 -1 71 -1.6756329685449600e-02</internalNodes>
          <leafValues>
            6.0883182287216187e-01 -4.8221930861473083e-01</leafValues></_>
        <_>
          <internalNodes>
            0 -1 22 -6.5024249488487840e-04</internalNodes>
          <leafValues>
            4.0982139110565186e-01 -8.1597602367401123e-01</leafValues></_>
        <_>
          <internalNodes>
            0 -1 60 1.2776280753314495e-02</internalNodes>
          <leafValues>
            -3.5447996854782104e-01 8.5115134716033936e-01</leafValues></_>
        <_>
          <internalNodes>
            0 -1 44 -2.7204053476452827e-03</internalNodes>
          <leafValues>
            8.1384593248367310e-01 -3.4769102931022644e-01</leafValues></_></weakClassifiers></_>
    <!-- stage 12 -->
    <_>
      <maxWeakCount>7</maxWeakCount>
      <stageThreshold>-4.5544570684432983e-01</stageThreshold>
      <weakClassifiers>
        <_>
          <internalNodes>
            0 -1 19 6.5209539607167244e-03</internalNodes>
          <leafValues>
            -1.7037037014961243e-01 7.4545454978942871e-01</leafValues></_>
        <_>
          <internalNodes>
            0 -1 84 -3.2973631750792265e-03</internalNodes>
          <leafValues>
            8.2288885116577148e-01 -2.5960835814476013e-01</leafValues></_>
        <_>
          <internalNodes>
            0 -1 79 1.2513908743858337e-01</internalNodes>
          <leafValues>
            -3.6954152584075928e-01 5.2959322929382324e-01</leafValues></_>
        <_>
          <internalNodes>
            0 -1 49 -2.5743977166712284e-03</internalNodes>
          <leafValues>
            6.1841577291488647e-01 -4.2607256770133972e-01</leafValues></_>
        <_>
          <internalNodes>
            0 -1 90 -4.5696063898503780e-04</internalNodes>
          <leafValues>
            5.8708631992340088e-01 -4.2330905795097351e-01</leafValues></_>
        <_>
          <internalNodes>
            0 -1 59 -1.2619629502296448e-02</internalNodes>
          <leafValues>
            -3.5607102513313293e-01 7.5498485565185547e-01</leafValues></_>
        <_>
          <internalNodes>
            0 -1 41 -9.0353386476635933e-03</internalNodes>
          <leafValues>
            6.5039241313934326e-01 -3.8809430599212646e-01</leafValues></_></weakClassifiers></_>
    <!-- stage 13 -->
    <_>
      <maxWeakCount>6</maxWeakCount>
      <stageThreshold>-6.2132960557937622e-01</stageThreshold>
      <weakClassifiers>
        <_>
          <internalNodes>
            0 -1 64 -7.3724808171391487e-03</internalNodes>
          <leafValues>
            7.6047903299331665e-01 -2.0300751924514771e-01</leafValues></_>
        <_>
          <internalNodes>
            0 -1 72 -3.2506175339221954e-03</internalNodes>
          <leafValues>
            6.0021346807479858e-01 -3.9768335223197937e-01</leafValues></_>
        <_>
          <internalNodes>
            0 -1 93 9.1770407743752003e-04</internalNodes>
          <leafValues>
            -3.1893435120582581e-01 8.2381886243820190e-01</leafValues></_>
        <_>
          <internalNodes>
            0 -1 31 -1.4153458178043365e-03</internalNodes>
          <leafValues>
            4.2490309476852417e-01 -5.9820836782455444e-01</leafValues></_>
        <_>
          <internalNodes>
            0 -1 94 -1.7157446593046188e-02</internalNodes>
          <leafValues>
            3.4942492842674255e-01 -6.9879323244094849e-01</leafValues></_>
        <_>
          <internalNodes>
            0 -1 15 -6.6613540984690189e-03</internalNodes>
          <leafValues>
            7.3149907588958740e-01 -4.1640752553939819e-01</leafValues></_></weakClassifiers></_>
    <!-- stage 14 -->
    <_>
      <maxWeakCount>5</maxWeakCount>
      <stageThreshold>-5.3842443227767944e-01</stageThreshold>
      <weakClassifiers>
        <_>
          <internalNodes>
            0 -1 5 3.4297496080398560e-02</internalNodes>
          <leafValues>
            5.2307695150375366e-01 -8.9999997615814209e-01</leafValues></_>
        <_>
          <internalNodes>
            0 -1 26 5.6618144735693932e-03</internalNodes>
          <leafValues>
            -3.4111502766609192e-01 7.9856318235397339e-01</leafValues></_>
        <_>
          <internalNodes>
            0 -1 58 -9.9368439987301826e-04</internalNodes>
          <leafValues>
            4.7931021451950073e-01 -5.0448483228683472e-01</leafValues></_>
        <_>
          <internalNodes>
            0 -1 87 -4.8665511421859264e-03</internalNodes>
          <leafValues>
            7.8862196207046509e-01 -3.3618271350860596e-01</leafValues></_>
        <_>
          <internalNodes>
            0 -1 62 3.3519705757498741e-03</internalNodes>
          <leafValues>
            -5.6524157524108887e-01 5.3126919269561768e-01</leafValues></_></weakClassifiers></_>
    <!-- stage 15 -->
    <_>
      <maxWeakCount>7</maxWeakCount>
      <stageThreshold>-2.3083208501338959e-01</stageThreshold>
      <weakClassifiers>
        <_>
          <internalNodes>
            0 -1 51 -4.2924106121063232e-02</internalNodes>
          <leafValues>
            -9.4736844301223755e-01 5.1908397674560547e-01</leafValues></_>
        <_>
          <internalNodes>
            0 -1 55 -7.0039452984929085e-03</internalNodes>
          <leafValues>
            4.6721979975700378e-01 -5.1805502176284790e-01</leafValues></_>
        <_>
          <internalNodes>
            0 -1 50 1.9447551667690277e-01</internalNodes>
          <leafValues>
            -4.8821276426315308e-01 7.0723456144332886e-01</leafValues></_>
        <_>
          <internalNodes>
            0 -1 13 4.6792267821729183e-03</internalNodes>
          <leafValues>
            4.0017995238304138e-01 -6.0128647089004517e-01</leafValues></_>
        <_>
          <internalNodes>
            0 -1 0 -2.3450266569852829e-02</internalNodes>
          <leafValues>
            6.0844898223876953e-01 -4.8798039555549622e-01</leafValues></_>
        <_>
          <internalNodes>
            0 -1 16 -6.5782866440713406e-03</internalNodes>
          <leafValues>
            8.5146504640579224e-01 -2.9503440856933594e-01</leafValues></_>
        <_>
          <internalNodes>
            0 -1 27 -1.3274339959025383e-02</internalNodes>
          <leafValues>
            9.0790992975234985e-01 -3.4608823060989380e-01</leafValues></_></weakClassifiers></_>
    <!-- stage 16 -->
    <_>
      <maxWeakCount>6</maxWeakCount>
      <stageThreshold>-2.4837350845336914e-01</stageThreshold>
      <weakClassifiers>
        <_>
          <internalNodes>
            0 -1 25 -2.2323842346668243e-01</internalNodes>
          <leafValues>
            -8.1395345926284790e-01 5.2529180049896240e-01</leafValues></_>
        <_>
          <internalNodes>
            0 -1 81 -7.7819288708269596e-04</internalNodes>
          <leafValues>
            7.7454316616058350e-01 -2.7071419358253479e-01</leafValues></_>
        <_>
          <internalNodes>
            0 -1 88 -1.7547594616189599e-03</internalNodes>
          <leafValues>
            8.4142041206359863e-01 -2.7328568696975708e-01</leafValues></_>
        <_>
          <internalNodes>
            0 -1 92 6.0751708224415779e-04</internalNodes>
          <leafValues>
            -4.9013361334800720e-01 4.8260954022407532e-01</leafValues></_>
        <_>
          <internalNodes>
            0 -1 91 -1.1017175856977701e-03</internalNodes>
          <leafValues>
            6.8794018030166626e-01 -3.9837366342544556e-01</leafValues></_>
        <_>
          <internalNodes>
            0 -1 80 -8.1236730329692364e-04</internalNodes>
          <leafValues>
            8.2829910516738892e-01 -3.1390133500099182e-01</leafValues></_></weakClassifiers></_>
    <!-- stage 17 -->
    <_>
      <maxWeakCount>6</maxWeakCount>
      <stageThreshold>-2.4155695736408234e-01</stageThreshold>
      <weakClassifiers>
        <_>
          <internalNodes>
            0 -1 24 7.4678016826510429e-03</internalNodes>
          <leafValues>
            -3.8636362552642822e-01 6.3207548856735229e-01</leafValues></_>
        <_>
          <internalNodes>
            0 -1 76 -7.2743860073387623e-04</internalNodes>
          <leafValues>
            5.5507439374923706e-01 -4.1909605264663696e-01</leafValues></_>
        <_>
          <internalNodes>
            0 -1 2 -8.1514497287571430e-04</internalNodes>
          <leafValues>
            4.8225405812263489e-01 -4.8349633812904358e-01</leafValues></_>
        <_>
          <internalNodes>
            0 -1 67 -3.3843747223727405e-04</internalNodes>
          <leafValues>
            2.8030461072921753e-01 -7.4874860048294067e-01</leafValues></_>
        <_>
          <internalNodes>
            0 -1 82 1.2530189706012607e-03</internalNodes>
          <leafValues>
            -3.4394043684005737e-01 7.0055967569351196e-01</leafValues></_>
        <_>
          <internalNodes>
            0 -1 11 -1.9962236285209656e-02</internalNodes>
          <leafValues>
            -9.5190429687500000e-01 2.2558215260505676e-01</leafValues></_></weakClassifiers></_>
    <!-- stage 18 -->
    <_>
      <maxWeakCount>9</maxWeakCount>
      <stageThreshold>-8.4297603368759155e-01</stageThreshold>
      <weakClassifiers>
        <_>
          <internalNodes>
            0 -1 17 -6.0261622071266174e-02</internalNodes>
          <leafValues>
            5.8474576473236084e-01 -5.9375000000000000e-01</leafValues></_>
        <_>
          <internalNodes>
            0 -1 54 -9.4260023906826973e-03</internalNodes>
          <leafValues>
            6.8710583448410034e-01 -3.2627236843109131e-01</leafValues></_>
        <_>
          <internalNodes>
            0 -1 1 2.1523796021938324e-03</internalNodes>
          <leafValues>
            -3.8048553466796875e-01 6.1744761466979980e-01</leafValues></_>
        <_>
          <internalNodes>
            0 -1 21 4.3101441115140915e-03</internalNodes>
          <leafValues>
            -4.9668788909912109e-01 5.3436630964279175e-01</leafValues></_>
        <_>
          <internalNodes>
            0 -1 12 -2.5751817971467972e-02</internalNodes>
          <leafValues>
            2.6656624674797058e-01 -8.1514179706573486e-01</leafValues></_>
        <_>
          <internalNodes>
            0 -1 78 -6.6774212755262852e-03</internalNodes>
          <leafValues>
            1. -2.6017266511917114e-01</leafValues></_>
        <_>
          <internalNodes>
            0 -1 3 -6.7480967845767736e-04</internalNodes>
          <leafValues>
            5.3447419404983521e-01 -3.9068433642387390e-01</leafValues></_>
        <_>
          <internalNodes>
            0 -1 14 -2.3701643571257591e-02</internalNodes>
          <leafValues>
            6.7032146453857422e-01 -2.7884584665298462e-01</leafValues></_>
        <_>
          <internalNodes>
            0 -1 29 1.2294545304030180e-03</internalNodes>
          <leafValues>
            -3.0573529005050659e-01 8.8167184591293335e-01</leafValues></_></weakClassifiers></_></stages>
  <features>
    <_>
      <rects>
        <_>
          0 9 20 4 -1.</_>
        <_>
          0 9 10 2 2.</_>
        <_>
          10 11 10 2 2.</_></rects>
      <tilted>0</tilted></_>
    <_>
      <rects>
        <_>
          0 14 8 6 -1.</_>
        <_>
          0 14 4 3 2.</_>
        <_>
          4 17 4 3 2.</_></rects>
      <tilted>0</tilted></_>
    <_>
      <rects>
        <_>
          0 22 18 2 -1.</_>
        <_>
          0 22 9 1 2.</_>
        <_>
          9 23 9 1 2.</_></rects>
      <tilted>0</tilted></_>
    <_>
      <rects>
        <_>
          2 7 7 2 -1.</_>
        <_>
          2 8 7 1 2.</_></rects>
      <tilted>0</tilted></_>
    <_>
      <rects>
        <_>
          2 11 12 12 -1.</_>
        <_>
          6 11 4 12 2.</_></rects>
      <tilted>0</tilted></_>
    <_>
      <rects>
        <_>
          2 13 6 11 -1.</_>
        <_>
          5 13 3 11 2.</_></rects>
      <tilted>0</tilted></_>
    <_>
      <rects>
        <_>
          2 13 12 4 -1.</_>
        <_>
          2 13 6 2 2.</_>
        <_>
          8 15 6 2 2.</_></rects>
      <tilted>0</tilted></_>
    <_>
      <rects>
        <_>
          3 10 8 2 -1.</_>
        <_>
          7 10 4 2 2.</_></rects>
      <tilted>0</tilted></_>
    <_>
      <rects>
        <_>
          3 11 10 10 -1.</_>
        <_>
          3 11 5 5 2.</_>
        <_>
          8 16 5 5 2.</_></rects>
      <tilted>0</tilted></_>
    <_>
      <rects>
        <_>
          4 12 10 6 -1.</_>
        <_>
          4 12 5 3 2.</_>
        <_>
          9 15 5 3 2.</_></rects>
      <tilted>0</tilted></_>
    <_>
      <rects>
        <_>
          4 13 12 2 -1.</_>
        <_>
          10 13 6 2 2.</_></rects>
      <tilted>0</tilted></_>
    <_>
      <rects>
        <_>
          5 5 14 2 -1.</_>
        <_>
          12 5 7 2 2.</_></rects>
      <tilted>0</tilted></_>
    <_>
      <rects>
        <_>
          6 13 10 3 -1.</_>
        <_>
          11 13 5 3 2.</_></rects>
      <tilted>0</tilted></_>
    <_>
      <rects>
        <_>
          6 16 12 8 -1.</_>
        <_>
          6 16 6 4 2.</_>
        <_>
          12 20 6 4 2.</_></rects>
      <tilted>0</tilted></_>
    <_>
      <rects>
        <_>
          7 3 8 8 -1.</_>
        <_>
          7 3 4 4 2.</_>
        <_>
          11 7 4 4 2.</_></rects>
      <tilted>0</tilted></_>
    <_>
      <rects>
        <_>
          7 4 3 6 -1.</_>
        <_>
          7 7 3 3 2.</_></rects>
      <tilted>0</tilted></_>
    <_>
      <rects>
        <_>
          7 10 4 2 -1.</_>
        <_>
          9 10 2 2 2.</_></rects>
      <tilted>0</tilted></_>
    <_>
      <rects>
        <_>
          7 11 6 7 -1.</_>
        <_>
          9 11 2 7 2.</_></rects>
      <tilted>0</tilted></_>
    <_>
      <rects>
        <_>
          7 11 14 10 -1.</_>
        <_>
          7 16 14 5 2.</_></rects>
      <tilted>0</tilted></_>
    <_>
      <rects>
        <_>
          7 13 6 4 -1.</_>
        <_>
          7 13 3 2 2.</_>
        <_>
          10 15 3 2 2.</_></rects>
      <tilted>0</tilted></_>
    <_>
      <rects>
        <_>
          8 1 11 12 -1.</_>
        <_>
          8 7 11 6 2.</_></rects>
      <tilted>0</tilted></_>
    <_>
      <rects>
        <_>
          8 2 4 22 -1.</_>
        <_>
          8 2 2 11 2.</_>
        <_>
          10 13 2 11 2.</_></rects>
      <tilted>0</tilted></_>
    <_>
      <rects>
        <_>
          8 9 6 6 -1.</_>
        <_>
          8 9 3 3 2.</_>
        <_>
          11 12 3 3 2.</_></rects>
      <tilted>0</tilted></_>
    <_>
      <rects>
        <_>
          8 9 5 2 -1.</_>
        <_>
          8 10 5 1 2.</_></rects>
      <tilted>0</tilted></_>
    <_>
      <rects>
        <_>
          8 10 4 14 -1.</_>
        <_>
          8 10 2 7 2.</_>
        <_>
          10 17 2 7 2.</_></rects>
      <tilted>0</tilted></_>
    <_>
      <rects>
        <_>
          8 10 9 12 -1.</_>
        <_>
          8 14 9 4 2.</_></rects>
      <tilted>0</tilted></_>
    <_>
      <rects>
        <_>
          8 11 4 6 -1.</_>
        <_>
          8 11 2 3 2.</_>
        <_>
          10 14 2 3 2.</_></rects>
      <tilted>0</tilted></_>
    <_>
      <rects>
        <_>
          8 13 14 1 -1.</_>
        <_>
          15 13 7 1 2.</_></rects>
      <tilted>0</tilted></_>
    <_>
      <rects>
        <_>
          9 4 8 18 -1.</_>
        <_>
          9 4 4 9 2.</_>
        <_>
          13 13 4 9 2.</_></rects>
      <tilted>0</tilted></_>
    <_>
      <rects>
        <_>
          9 5 2 6 -1.</_>
        <_>
          9 5 1 3 2.</_>
        <_>
          10 8 1 3 2.</_></rects>
      <tilted>0</tilted></_>
    <_>
      <rects>
        <_>
          9 7 6 3 -1.</_>
        <_>
          12 7 3 3 2.</_></rects>
      <tilted>0</tilted></_>
    <_>
      <rects>
        <_>
          9 8 2 4 -1.</_>
        <_>
          9 10 2 2 2.</_></rects>
      <tilted>0</tilted></_>
    <_>
      <rects>
        <_>
          9 12 4 4 -1.</_>
        <_>
          9 14 4 2 2.</_></rects>
      <tilted>0</tilted></_>
    <_>
      <rects>
        <_>
          9 13 2 2 -1.</_>
        <_>
          9 14 2 1 2.</_></rects>
      <tilted>0</tilted></_>
    <_>
      <rects>
        <_>
          10 0 2 9 -1.</_>
        <_>
          11 0 1 9 2.</_></rects>
      <tilted>0</tilted></_>
    <_>
      <rects>
        <_>
          10 1 4 23 -1.</_>
        <_>
          12 1 2 23 2.</_></rects>
      <tilted>0</tilted></_>
    <_>
      <rects>
        <_>
          10 2 2 14 -1.</_>
        <_>
          11 2 1 14 2.</_></rects>
      <tilted>0</tilted></_>
    <_>
      <rects>
        <_>
          10 5 4 16 -1.</_>
        <_>
          10 13 4 8 2.</_></rects>
      <tilted>0</tilted></_>
    <_>
      <rects>
        <_>
          10 9 5 4 -1.</_>
        <_>
          10 11 5 2 2.</_></rects>
      <tilted>0</tilted></_>
    <_>
      <rects>
        <_>
          10 18 6 6 -1.</_>
        <_>
          10 18 3 3 2.</_>
        <_>
          13 21 3 3 2.</_></rects>
      <tilted>0</tilted></_>
    <_>
      <rects>
        <_>
          10 20 6 4 -1.</_>
        <_>
          13 20 3 4 2.</_></rects>
      <tilted>0</tilted></_>
    <_>
      <rects>
        <_>
          10 23 8 1 -1.</_>
        <_>
          14 23 4 1 2.</_></rects>
      <tilted>0</tilted></_>
    <_>
      <rects>
        <_>
          11 14 2 4 -1.</_>
        <_>
          11 14 1 2 2.</_>
        <_>
          12 16 1 2 2.</_></rects>
      <tilted>0</tilted></_>
    <_>
      <rects>
        <_>
          11 15 3 2 -1.</_>
        <_>
          11 16 3 1 2.</_></rects>
      <tilted>0</tilted></_>
    <_>
      <rects>
        <_>
          11 17 4 4 -1.</_>
        <_>
          11 17 2 2 2.</_>
        <_>
          13 19 2 2 2.</_></rects>
      <tilted>0</tilted></_>
    <_>
      <rects>
        <_>
          11 20 4 3 -1.</_>
        <_>
          13 20 2 3 2.</_></rects>
      <tilted>0</tilted></_>
    <_>
      <rects>
        <_>
          11 22 8 2 -1.</_>
        <_>
          11 23 8 1 2.</_></rects>
      <tilted>0</tilted></_>
    <_>
      <rects>
        <_>
          11 22 9 2 -1.</_>
        <_>
          11 23 9 1 2.</_></rects>
      <tilted>0</tilted></_>
    <_>
      <rects>
        <_>
          12 6 10 4 -1.</_>
        <_>
          12 6 5 2 2.</_>
        <_>
          17 8 5 2 2.</_></rects>
      <tilted>0</tilted></_>
    <_>
      <rects>
        <_>
          12 8 6 4 -1.</_>
        <_>
          12 8 3 2 2.</_>
        <_>
          15 10 3 2 2.</_></rects>
      <tilted>0</tilted></_>
    <_>
      <rects>
        <_>
          12 8 12 16 -1.</_>
        <_>
          18 8 6 16 2.</_></rects>
      <tilted>0</tilted></_>
    <_>
      <rects>
        <_>
          12 9 12 10 -1.</_>
        <_>
          12 14 12 5 2.</_></rects>
      <tilted>0</tilted></_>
    <_>
      <rects>
        <_>
          12 11 1 2 -1.</_>
        <_>
          12 12 1 1 2.</_></rects>
      <tilted>0</tilted></_>
    <_>
      <rects>
        <_>
          12 11 3 2 -1.</_>
        <_>
          12 12 3 1 2.</_></rects>
      <tilted>0</tilted></_>
    <_>
      <rects>
        <_>
          12 12 4 8 -1.</_>
        <_>
          12 12 2 4 2.</_>
        <_>
          14 16 2 4 2.</_></rects>
      <tilted>0</tilted></_>
    <_>
      <rects>
        <_>
          12 12 4 8 -1.</_>
        <_>
          14 12 2 8 2.</_></rects>
      <tilted>0</tilted></_>
    <_>
      <rects>
        <_>
          12 14 2 4 -1.</_>
        <_>
          12 16 2 2 2.</_></rects>
      <tilted>0</tilted></_>
    <_>
      <rects>
        <_>
          12 18 2 4 -1.</_>
        <_>
          12 18 1 2 2.</_>
        <_>
          13 20 1 2 2.</_></rects>
      <tilted>0</tilted></_>
    <_>
      <rects>
        <_>
          12 22 7 2 -1.</_>
        <_>
          12 23 7 1 2.</_></rects>
      <tilted>0</tilted></_>
    <_>
      <rects>
        <_>
          12 23 9 1 -1.</_>
        <_>
          15 23 3 1 2.</_></rects>
      <tilted>0</tilted></_>
    <_>
      <rects>
        <_>
          12 23 10 1 -1.</_>
        <_>
          17 23 5 1 2.</_></rects>
      <tilted>0</tilted></_>
    <_>
      <rects>
        <_>
          13 0 2 14 -1.</_>
        <_>
          13 7 2 7 2.</_></rects>
      <tilted>0</tilted></_>
    <_>
      <rects>
        <_>
          13 2 4 8 -1.</_>
        <_>
          15 2 2 8 2.</_></rects>
      <tilted>0</tilted></_>
    <_>
      <rects>
        <_>
          13 2 7 16 -1.</_>
        <_>
          13 10 7 8 2.</_></rects>
      <tilted>0</tilted></_>
    <_>
      <rects>
        <_>
          13 3 1 8 -1.</_>
        <_>
          13 7 1 4 2.</_></rects>
      <tilted>0</tilted></_>
    <_>
      <rects>
        <_>
          13 6 9 14 -1.</_>
        <_>
          16 6 3 14 2.</_></rects>
      <tilted>0</tilted></_>
    <_>
      <rects>
        <_>
          13 8 4 2 -1.</_>
        <_>
          13 8 2 1 2.</_>
        <_>
          15 9 2 1 2.</_></rects>
      <tilted>0</tilted></_>
    <_>
      <rects>
        <_>
          13 10 1 4 -1.</_>
        <_>
          13 12 1 2 2.</_></rects>
      <tilted>0</tilted></_>
    <_>
      <rects>
        <_>
          13 11 1 2 -1.</_>
        <_>
          13 12 1 1 2.</_></rects>
      <tilted>0</tilted></_>
    <_>
      <rects>
        <_>
          13 14 4 4 -1.</_>
        <_>
          13 14 2 2 2.</_>
        <_>
          15 16 2 2 2.</_></rects>
      <tilted>0</tilted></_>
    <_>
      <rects>
        <_>
          13 16 4 7 -1.</_>
        <_>
          15 16 2 7 2.</_></rects>
      <tilted>0</tilted></_>
    <_>
      <rects>
        <_>
          13 17 4 7 -1.</_>
        <_>
          15 17 2 7 2.</_></rects>
      <tilted>0</tilted></_>
    <_>
      <rects>
        <_>
          13 20 6 4 -1.</_>
        <_>
          13 22 6 2 2.</_></rects>
      <tilted>0</tilted></_>
    <_>
      <rects>
        <_>
          13 20 7 4 -1.</_>
        <_>
          13 22 7 2 2.</_></rects>
      <tilted>0</tilted></_>
    <_>
      <rects>
        <_>
          14 6 1 6 -1.</_>
        <_>
          14 8 1 2 2.</_></rects>
      <tilted>0</tilted></_>
    <_>
      <rects>
        <_>
          14 6 4 6 -1.</_>
        <_>
          14 9 4 3 2.</_></rects>
      <tilted>0</tilted></_>
    <_>
      <rects>
        <_>
          14 7 1 2 -1.</_>
        <_>
          14 8 1 1 2.</_></rects>
      <tilted>0</tilted></_>
    <_>
      <rects>
        <_>
          14 8 4 2 -1.</_>
        <_>
          14 9 4 1 2.</_></rects>
      <tilted>0</tilted></_>
    <_>
      <rects>
        <_>
          14 10 6 4 -1.</_>
        <_>
          14 10 3 2 2.</_>
        <_>
          17 12 3 2 2.</_></rects>
      <tilted>0</tilted></_>
    <_>
      <rects>
        <_>
          14 11 10 13 -1.</_>
        <_>
          19 11 5 13 2.</_></rects>
      <tilted>0</tilted></_>
    <_>
      <rects>
        <_>
          14 12 2 2 -1.</_>
        <_>
          14 13 2 1 2.</_></rects>
      <tilted>0</tilted></_>
    <_>
      <rects>
        <_>
          14 12 8 2 -1.</_>
        <_>
          14 12 4 1 2.</_>
        <_>
          18 13 4 1 2.</_></rects>
      <tilted>0</tilted></_>
    <_>
      <rects>
        <_>
          14 15 2 8 -1.</_>
        <_>
          14 15 1 4 2.</_>
        <_>
          15 19 1 4 2.</_></rects>
      <tilted>0</tilted></_>
    <_>
      <rects>
        <_>
          14 15 8 3 -1.</_>
        <_>
          18 15 4 3 2.</_></rects>
      <tilted>0</tilted></_>
    <_>
      <rects>
        <_>
          14 18 1 6 -1.</_>
        <_>
          14 21 1 3 2.</_></rects>
      <tilted>0</tilted></_>
    <_>
      <rects>
        <_>
          14 18 2 6 -1.</_>
        <_>
          14 21 2 3 2.</_></rects>
      <tilted>0</tilted></_>
    <_>
      <rects>
        <_>
          15 1 5 22 -1.</_>
        <_>
          15 12 5 11 2.</_></rects>
      <tilted>0</tilted></_>
    <_>
      <rects>
        <_>
          16 11 1 10 -1.</_>
        <_>
          16 16 1 5 2.</_></rects>
      <tilted>0</tilted></_>
    <_>
      <rects>
        <_>
          16 12 1 6 -1.</_>
        <_>
          16 15 1 3 2.</_></rects>
      <tilted>0</tilted></_>
    <_>
      <rects>
        <_>
          16 16 8 5 -1.</_>
        <_>
          20 16 4 5 2.</_></rects>
      <tilted>0</tilted></_>
    <_>
      <rects>
        <_>
          17 6 2 2 -1.</_>
        <_>
          17 7 2 1 2.</_></rects>
      <tilted>0</tilted></_>
    <_>
      <rects>
        <_>
          17 6 4 2 -1.</_>
        <_>
          17 7 4 1 2.</_></rects>
      <tilted>0</tilted></_>
    <_>
      <rects>
        <_>
          17 10 2 2 -1.</_>
        <_>
          18 10 1 2 2.</_></rects>
      <tilted>0</tilted></_>
    <_>
      <rects>
        <_>
          17 14 4 2 -1.</_>
        <_>
          17 14 2 1 2.</_>
        <_>
          19 15 2 1 2.</_></rects>
      <tilted>0</tilted></_>
    <_>
      <rects>
        <_>
          23 15 1 9 -1.</_>
        <_>
          23 18 1 3 2.</_></rects>
      <tilted>0</tilted></_></features></cascade>
</opencv_storage>
