<?xml version="1.0"?>
<opencv_storage>
<stage17>
  <maxWeakCount>6</maxWeakCount>
  <stageThreshold>-2.4155695736408234e-01</stageThreshold>
  <weakClassifiers>
    <_>
      <internalNodes>
        0 -1 95708 7.4678016826510429e-03</internalNodes>
      <leafValues>
        -3.8636362552642822e-01 6.3207548856735229e-01</leafValues></_>
    <_>
      <internalNodes>
        0 -1 136483 -7.2743860073387623e-04</internalNodes>
      <leafValues>
        5.5507439374923706e-01 -4.1909605264663696e-01</leafValues></_>
    <_>
      <internalNodes>
        0 -1 13346 -8.1514497287571430e-04</internalNodes>
      <leafValues>
        4.8225405812263489e-01 -4.8349633812904358e-01</leafValues></_>
    <_>
      <internalNodes>
        0 -1 131808 -3.3843747223727405e-04</internalNodes>
      <leafValues>
        2.8030461072921753e-01 -7.4874860048294067e-01</leafValues></_>
    <_>
      <internalNodes>
        0 -1 138474 1.2530189706012607e-03</internalNodes>
      <leafValues>
        -3.4394043684005737e-01 7.0055967569351196e-01</leafValues></_>
    <_>
      <internalNodes>
        0 -1 64639 -1.9962236285209656e-02</internalNodes>
      <leafValues>
        -9.5190429687500000e-01 2.2558215260505676e-01</leafValues></_></weakClassifiers></stage17>
</opencv_storage>
