<?xml version="1.0"?>
<opencv_storage>
<stage8>
  <maxWeakCount>10</maxWeakCount>
  <stageThreshold>-2.0070257186889648e+00</stageThreshold>
  <weakClassifiers>
    <_>
      <internalNodes>
        0 -1 103673 -4.8578623682260513e-02</internalNodes>
      <leafValues>
        5.1827955245971680e-01 -8.2303065061569214e-01</leafValues></_>
    <_>
      <internalNodes>
        0 -1 60889 -1.0995873808860779e-01</internalNodes>
      <leafValues>
        3.3709594607353210e-01 -5.8039522171020508e-01</leafValues></_>
    <_>
      <internalNodes>
        0 -1 125758 5.2896831184625626e-03</internalNodes>
      <leafValues>
        -3.6942446231842041e-01 5.4268187284469604e-01</leafValues></_>
    <_>
      <internalNodes>
        0 -1 75711 2.8791474178433418e-03</internalNodes>
      <leafValues>
        -1.8298633396625519e-01 7.4813061952590942e-01</leafValues></_>
    <_>
      <internalNodes>
        0 -1 126407 2.9180712997913361e-02</internalNodes>
      <leafValues>
        -1.4924049377441406e-01 8.5839277505874634e-01</leafValues></_>
    <_>
      <internalNodes>
        0 -1 11382 6.0912258923053741e-02</internalNodes>
      <leafValues>
        1.7252644896507263e-01 -8.3204841613769531e-01</leafValues></_>
    <_>
      <internalNodes>
        0 -1 103702 -8.3600161597132683e-03</internalNodes>
      <leafValues>
        8.6098372936248779e-01 -1.2363698333501816e-01</leafValues></_>
    <_>
      <internalNodes>
        0 -1 86068 -1.1670766025781631e-01</internalNodes>
      <leafValues>
        4.9138391017913818e-01 -2.5579434633255005e-01</leafValues></_>
    <_>
      <internalNodes>
        0 -1 161402 7.7433220576494932e-04</internalNodes>
      <leafValues>
        1.3552714884281158e-01 -8.2385742664337158e-01</leafValues></_>
    <_>
      <internalNodes>
        0 -1 161402 -4.4018856715410948e-04</internalNodes>
      <leafValues>
        -5.9644460678100586e-01 1.6942913830280304e-01</leafValues></_></weakClassifiers></stage8>
</opencv_storage>
