<?xml version="1.0"?>
<opencv_storage>
<stage0>
  <maxWeakCount>41</maxWeakCount>
  <stageThreshold>-1.7133678197860718e+00</stageThreshold>
  <weakClassifiers>
    <_>
      <internalNodes>
        0 -1 126124 -9.5175988972187042e-03</internalNodes>
      <leafValues>
        5.5136436223983765e-01 -4.6885696053504944e-01</leafValues></_>
    <_>
      <internalNodes>
        0 -1 61002 -3.9821353554725647e-01</internalNodes>
      <leafValues>
        -4.6559044718742371e-01 3.0585667490959167e-01</leafValues></_>
    <_>
      <internalNodes>
        0 -1 45787 2.0795900374650955e-02</internalNodes>
      <leafValues>
        -2.7080971002578735e-01 4.3160599470138550e-01</leafValues></_>
    <_>
      <internalNodes>
        0 -1 132118 -3.9287162944674492e-03</internalNodes>
      <leafValues>
        4.6266227960586548e-01 -1.7565456032752991e-01</leafValues></_>
    <_>
      <internalNodes>
        0 -1 111911 9.9721662700176239e-03</internalNodes>
      <leafValues>
        -1.6083425283432007e-01 4.8880395293235779e-01</leafValues></_>
    <_>
      <internalNodes>
        0 -1 125168 5.4941819980740547e-03</internalNodes>
      <leafValues>
        -1.7262268066406250e-01 3.7824693322181702e-01</leafValues></_>
    <_>
      <internalNodes>
        0 -1 119513 1.5990663319826126e-02</internalNodes>
      <leafValues>
        -1.0871841758489609e-01 3.4360286593437195e-01</leafValues></_>
    <_>
      <internalNodes>
        0 -1 161566 3.3395246136933565e-03</internalNodes>
      <leafValues>
        8.4766983985900879e-02 -4.8580923676490784e-01</leafValues></_>
    <_>
      <internalNodes>
        0 -1 36 -9.4093531370162964e-03</internalNodes>
      <leafValues>
        -4.5023778080940247e-01 9.6260190010070801e-02</leafValues></_>
    <_>
      <internalNodes>
        0 -1 143545 -1.1427954304963350e-03</internalNodes>
      <leafValues>
        1.8740972876548767e-01 -2.0667479932308197e-01</leafValues></_>
    <_>
      <internalNodes>
        0 -1 17768 -2.8167694807052612e-01</internalNodes>
      <leafValues>
        -7.9161685705184937e-01 5.9617396444082260e-02</leafValues></_>
    <_>
      <internalNodes>
        0 -1 141094 -1.3059958815574646e-02</internalNodes>
      <leafValues>
        7.3931080102920532e-01 -5.6225553154945374e-02</leafValues></_>
    <_>
      <internalNodes>
        0 -1 76891 -2.4824902415275574e-02</internalNodes>
      <leafValues>
        6.9007062911987305e-01 -4.8395235091447830e-02</leafValues></_>
    <_>
      <internalNodes>
        0 -1 162169 -7.1825906634330750e-02</internalNodes>
      <leafValues>
        -3.6373174190521240e-01 1.0881210118532181e-01</leafValues></_>
    <_>
      <internalNodes>
        0 -1 67452 1.5350867062807083e-02</internalNodes>
      <leafValues>
        -1.3811689615249634e-01 2.6613810658454895e-01</leafValues></_>
    <_>
      <internalNodes>
        0 -1 78782 1.2918518856167793e-02</internalNodes>
      <leafValues>
        -6.9062352180480957e-02 5.0058132410049438e-01</leafValues></_>
    <_>
      <internalNodes>
        0 -1 11484 -6.7254330497235060e-04</internalNodes>
      <leafValues>
        -4.2890626192092896e-01 7.9003490507602692e-02</leafValues></_>
    <_>
      <internalNodes>
        0 -1 151212 6.1813322827219963e-03</internalNodes>
      <leafValues>
        -1.3171362876892090e-01 2.5617828965187073e-01</leafValues></_>
    <_>
      <internalNodes>
        0 -1 123281 -2.7566054463386536e-01</internalNodes>
      <leafValues>
        -8.5534870624542236e-01 3.3100180327892303e-02</leafValues></_>
    <_>
      <internalNodes>
        0 -1 58581 -1.4280760660767555e-02</internalNodes>
      <leafValues>
        5.2962505817413330e-01 -5.7536229491233826e-02</leafValues></_>
    <_>
      <internalNodes>
        0 -1 94899 -2.2352887317538261e-02</internalNodes>
      <leafValues>
        2.6088505983352661e-01 -9.5564067363739014e-02</leafValues></_>
    <_>
      <internalNodes>
        0 -1 144139 -3.4771594218909740e-03</internalNodes>
      <leafValues>
        -2.8405413031578064e-02 7.9649889469146729e-01</leafValues></_>
    <_>
      <internalNodes>
        0 -1 4990 2.1731760352849960e-03</internalNodes>
      <leafValues>
        6.4275205135345459e-02 -4.1160944104194641e-01</leafValues></_>
    <_>
      <internalNodes>
        0 -1 65050 2.7907469775527716e-03</internalNodes>
      <leafValues>
        -1.4724667370319366e-01 1.8761007487773895e-01</leafValues></_>
    <_>
      <internalNodes>
        0 -1 40199 -5.4906539618968964e-02</internalNodes>
      <leafValues>
        4.2415838688611984e-02 -6.2681359052658081e-01</leafValues></_>
    <_>
      <internalNodes>
        0 -1 5833 -5.9408764354884624e-04</internalNodes>
      <leafValues>
        -3.4378963708877563e-01 6.4036689698696136e-02</leafValues></_>
    <_>
      <internalNodes>
        0 -1 59261 -1.0129148140549660e-02</internalNodes>
      <leafValues>
        4.2955267429351807e-01 -6.1190061271190643e-02</leafValues></_>
    <_>
      <internalNodes>
        0 -1 93868 1.6811944544315338e-02</internalNodes>
      <leafValues>
        -8.2359068095684052e-02 3.0043616890907288e-01</leafValues></_>
    <_>
      <internalNodes>
        0 -1 140146 -1.3311987277120352e-03</internalNodes>
      <leafValues>
        -3.2862865924835205e-01 7.4784681200981140e-02</leafValues></_>
    <_>
      <internalNodes>
        0 -1 11618 8.4056407213211060e-03</internalNodes>
      <leafValues>
        -1.1086414754390717e-01 2.0933313667774200e-01</leafValues></_>
    <_>
      <internalNodes>
        0 -1 8883 -2.6794146746397018e-02</internalNodes>
      <leafValues>
        -4.3751937150955200e-01 5.3318794816732407e-02</leafValues></_>
    <_>
      <internalNodes>
        0 -1 66643 -1.8872145563364029e-02</internalNodes>
      <leafValues>
        1.3126766681671143e-01 -1.6790889203548431e-01</leafValues></_>
    <_>
      <internalNodes>
        0 -1 147347 -6.5766060724854469e-03</internalNodes>
      <leafValues>
        2.2079692780971527e-01 -1.0284850001335144e-01</leafValues></_>
    <_>
      <internalNodes>
        0 -1 243 -1.6107629984617233e-02</internalNodes>
      <leafValues>
        -1.0752364248037338e-01 2.1400119364261627e-01</leafValues></_>
    <_>
      <internalNodes>
        0 -1 824 1.8905039876699448e-02</internalNodes>
      <leafValues>
        1.3327808678150177e-01 -2.2747573256492615e-01</leafValues></_>
    <_>
      <internalNodes>
        0 -1 2530 -1.0153309255838394e-01</internalNodes>
      <leafValues>
        4.3837979435920715e-02 -5.0353008508682251e-01</leafValues></_>
    <_>
      <internalNodes>
        0 -1 21566 -6.5519346389919519e-04</internalNodes>
      <leafValues>
        -3.1396836042404175e-02 8.5040318965911865e-01</leafValues></_>
    <_>
      <internalNodes>
        0 -1 5857 -1.8191186245530844e-03</internalNodes>
      <leafValues>
        -3.0434170365333557e-01 8.2029320299625397e-02</leafValues></_>
    <_>
      <internalNodes>
        0 -1 118643 -3.1053044949658215e-04</internalNodes>
      <leafValues>
        -3.5576164722442627e-02 7.4205863475799561e-01</leafValues></_>
    <_>
      <internalNodes>
        0 -1 54314 -5.4731336422264576e-03</internalNodes>
      <leafValues>
        6.7563676834106445e-01 -3.1879361718893051e-02</leafValues></_>
    <_>
      <internalNodes>
        0 -1 157717 -2.6029538363218307e-02</internalNodes>
      <leafValues>
        3.9395302534103394e-01 -5.5311642587184906e-02</leafValues></_></weakClassifiers></stage0>
</opencv_storage>
