<?xml version="1.0"?>
<opencv_storage>
<stage10>
  <maxWeakCount>92</maxWeakCount>
  <stageThreshold>-9.7073602676391602e-01</stageThreshold>
  <weakClassifiers>
    <_>
      <internalNodes>
        0 -1 118645 1.1630073189735413e-02</internalNodes>
      <leafValues>
        1.9157212972640991e-01 8.6536109447479248e-01</leafValues></_>
    <_>
      <internalNodes>
        0 -1 44015 -1.8412607908248901e-01</internalNodes>
      <leafValues>
        -1.2287619709968567e-01 4.1571822762489319e-01</leafValues></_>
    <_>
      <internalNodes>
        0 -1 112670 2.0661596208810806e-02</internalNodes>
      <leafValues>
        5.7321324944496155e-02 -5.0544166564941406e-01</leafValues></_>
    <_>
      <internalNodes>
        0 -1 102764 8.0087743699550629e-03</internalNodes>
      <leafValues>
        -4.5040700584650040e-02 7.6730680465698242e-01</leafValues></_>
    <_>
      <internalNodes>
        0 -1 112552 -7.2876840829849243e-02</internalNodes>
      <leafValues>
        3.0328479409217834e-01 -1.4254117012023926e-01</leafValues></_>
    <_>
      <internalNodes>
        0 -1 70643 -3.5033668973483145e-04</internalNodes>
      <leafValues>
        -3.3074855804443359e-01 1.1710926890373230e-01</leafValues></_>
    <_>
      <internalNodes>
        0 -1 130579 1.6833832487463951e-02</internalNodes>
      <leafValues>
        -5.6552257388830185e-02 6.3975143432617188e-01</leafValues></_>
    <_>
      <internalNodes>
        0 -1 127825 4.5236382633447647e-02</internalNodes>
      <leafValues>
        6.2053371220827103e-02 -4.4067627191543579e-01</leafValues></_>
    <_>
      <internalNodes>
        0 -1 96072 -4.2283302173018456e-03</internalNodes>
      <leafValues>
        -3.2444587349891663e-01 7.2480209171772003e-02</leafValues></_>
    <_>
      <internalNodes>
        0 -1 66878 -5.8291897177696228e-02</internalNodes>
      <leafValues>
        -3.0732849612832069e-02 7.5056040287017822e-01</leafValues></_>
    <_>
      <internalNodes>
        0 -1 119732 -6.5112128853797913e-02</internalNodes>
      <leafValues>
        8.9873000979423523e-02 -2.6817378401756287e-01</leafValues></_>
    <_>
      <internalNodes>
        0 -1 138119 8.5767265409231186e-03</internalNodes>
      <leafValues>
        -6.1568930745124817e-02 3.9139285683631897e-01</leafValues></_>
    <_>
      <internalNodes>
        0 -1 121433 4.7131171450018883e-03</internalNodes>
      <leafValues>
        5.4410975426435471e-02 -4.2040967941284180e-01</leafValues></_>
    <_>
      <internalNodes>
        0 -1 96216 -6.6760494373738766e-03</internalNodes>
      <leafValues>
        -3.5417232662439346e-02 6.2242478132247925e-01</leafValues></_>
    <_>
      <internalNodes>
        0 -1 13369 -3.8664512336254120e-02</internalNodes>
      <leafValues>
        9.2979562282562256e-01 -1.9671762362122536e-02</leafValues></_>
    <_>
      <internalNodes>
        0 -1 130225 -1.7109319567680359e-02</internalNodes>
      <leafValues>
        4.5308572053909302e-01 -3.6284375935792923e-02</leafValues></_>
    <_>
      <internalNodes>
        0 -1 146678 7.9791340976953506e-03</internalNodes>
      <leafValues>
        -2.4233354255557060e-02 8.4512466192245483e-01</leafValues></_>
    <_>
      <internalNodes>
        0 -1 155151 -3.8654322270303965e-03</internalNodes>
      <leafValues>
        4.1051626205444336e-01 -4.6653214842081070e-02</leafValues></_>
    <_>
      <internalNodes>
        0 -1 4989 3.2690528314560652e-04</internalNodes>
      <leafValues>
        9.1914765536785126e-02 -2.2635941207408905e-01</leafValues></_>
    <_>
      <internalNodes>
        0 -1 5832 -1.8566820654086769e-04</internalNodes>
      <leafValues>
        -2.4125190079212189e-01 1.0040810704231262e-01</leafValues></_>
    <_>
      <internalNodes>
        0 -1 48507 -9.2802708968520164e-03</internalNodes>
      <leafValues>
        8.8644796609878540e-01 -1.8835576251149178e-02</leafValues></_>
    <_>
      <internalNodes>
        0 -1 161227 2.7085302863270044e-03</internalNodes>
      <leafValues>
        7.7235423028469086e-02 -2.3923332989215851e-01</leafValues></_>
    <_>
      <internalNodes>
        0 -1 138767 -4.5206248760223389e-03</internalNodes>
      <leafValues>
        4.6413826942443848e-01 -3.9582751691341400e-02</leafValues></_>
    <_>
      <internalNodes>
        0 -1 158849 2.2981469519436359e-03</internalNodes>
      <leafValues>
        7.4017561972141266e-02 -2.3908527195453644e-01</leafValues></_>
    <_>
      <internalNodes>
        0 -1 149636 2.6000179350376129e-03</internalNodes>
      <leafValues>
        -4.4502373784780502e-02 4.5457988977432251e-01</leafValues></_>
    <_>
      <internalNodes>
        0 -1 69286 -5.3821532055735588e-03</internalNodes>
      <leafValues>
        4.3492031097412109e-01 -4.2276151478290558e-02</leafValues></_>
    <_>
      <internalNodes>
        0 -1 139145 4.7776792198419571e-03</internalNodes>
      <leafValues>
        5.8161452412605286e-02 -3.0741733312606812e-01</leafValues></_>
    <_>
      <internalNodes>
        0 -1 28367 7.4065096676349640e-02</internalNodes>
      <leafValues>
        4.7948338091373444e-02 -3.7748467922210693e-01</leafValues></_>
    <_>
      <internalNodes>
        0 -1 140504 -4.2621325701475143e-03</internalNodes>
      <leafValues>
        -2.9879454523324966e-02 5.7199817895889282e-01</leafValues></_>
    <_>
      <internalNodes>
        0 -1 149442 -3.3920373767614365e-02</internalNodes>
      <leafValues>
        5.3877975791692734e-02 -3.3392831683158875e-01</leafValues></_>
    <_>
      <internalNodes>
        0 -1 70647 7.5343239586800337e-04</internalNodes>
      <leafValues>
        7.2887308895587921e-02 -2.5710266828536987e-01</leafValues></_>
    <_>
      <internalNodes>
        0 -1 65630 3.3822059631347656e-02</internalNodes>
      <leafValues>
        -3.0390163883566856e-02 6.9863188266754150e-01</leafValues></_>
    <_>
      <internalNodes>
        0 -1 125779 -1.4673499390482903e-02</internalNodes>
      <leafValues>
        5.8928543329238892e-01 -2.1788064390420914e-02</leafValues></_>
    <_>
      <internalNodes>
        0 -1 148880 7.2023348184302449e-04</internalNodes>
      <leafValues>
        8.4688961505889893e-02 -2.1137890219688416e-01</leafValues></_>
    <_>
      <internalNodes>
        0 -1 70113 -1.0330194607377052e-02</internalNodes>
      <leafValues>
        -2.1431997418403625e-02 8.2658642530441284e-01</leafValues></_>
    <_>
      <internalNodes>
        0 -1 125084 2.3744542151689529e-02</internalNodes>
      <leafValues>
        -2.3028844967484474e-02 6.5537047386169434e-01</leafValues></_>
    <_>
      <internalNodes>
        0 -1 88296 -7.2425361722707748e-03</internalNodes>
      <leafValues>
        4.7539705038070679e-01 -3.2929077744483948e-02</leafValues></_>
    <_>
      <internalNodes>
        0 -1 131888 5.1534265279769897e-02</internalNodes>
      <leafValues>
        -2.1499799564480782e-02 6.6245502233505249e-01</leafValues></_>
    <_>
      <internalNodes>
        0 -1 98687 2.4989382363855839e-03</internalNodes>
      <leafValues>
        6.5535761415958405e-02 -2.5638628005981445e-01</leafValues></_>
    <_>
      <internalNodes>
        0 -1 119356 -3.1262751668691635e-02</internalNodes>
      <leafValues>
        -6.3296258449554443e-01 2.2967714816331863e-02</leafValues></_>
    <_>
      <internalNodes>
        0 -1 160546 -1.2752572074532509e-03</internalNodes>
      <leafValues>
        -2.3689737915992737e-01 6.1684627085924149e-02</leafValues></_>
    <_>
      <internalNodes>
        0 -1 158749 -2.3636624217033386e-02</internalNodes>
      <leafValues>
        2.8015652298927307e-01 -5.6860290467739105e-02</leafValues></_>
    <_>
      <internalNodes>
        0 -1 65795 8.2433745265007019e-02</internalNodes>
      <leafValues>
        -3.9325416088104248e-02 3.5887628793716431e-01</leafValues></_>
    <_>
      <internalNodes>
        0 -1 48764 1.6251964261755347e-03</internalNodes>
      <leafValues>
        -8.9383527636528015e-02 1.9040507078170776e-01</leafValues></_>
    <_>
      <internalNodes>
        0 -1 46733 -7.8386254608631134e-03</internalNodes>
      <leafValues>
        4.4150802493095398e-01 -4.0403887629508972e-02</leafValues></_>
    <_>
      <internalNodes>
        0 -1 9483 1.3291668146848679e-03</internalNodes>
      <leafValues>
        8.3809472620487213e-02 -1.9602213799953461e-01</leafValues></_>
    <_>
      <internalNodes>
        0 -1 127996 2.7487960178405046e-03</internalNodes>
      <leafValues>
        -4.4433612376451492e-02 3.6096015572547913e-01</leafValues></_>
    <_>
      <internalNodes>
        0 -1 23483 -8.8188173249363899e-03</internalNodes>
      <leafValues>
        1.6217301785945892e-01 -1.0608298331499100e-01</leafValues></_>
    <_>
      <internalNodes>
        0 -1 10571 -3.5741440951824188e-03</internalNodes>
      <leafValues>
        -3.2370728254318237e-01 5.2589975297451019e-02</leafValues></_>
    <_>
      <internalNodes>
        0 -1 43468 -1.1525581032037735e-01</internalNodes>
      <leafValues>
        -5.4735261201858521e-01 2.9907764866948128e-02</leafValues></_>
    <_>
      <internalNodes>
        0 -1 12626 1.1836524307727814e-01</internalNodes>
      <leafValues>
        -2.2335646674036980e-02 7.3533660173416138e-01</leafValues></_>
    <_>
      <internalNodes>
        0 -1 13376 2.0046730060130358e-03</internalNodes>
      <leafValues>
        6.5965585410594940e-02 -2.4124525487422943e-01</leafValues></_>
    <_>
      <internalNodes>
        0 -1 37897 -3.1045748619362712e-04</internalNodes>
      <leafValues>
        -1.9209435582160950e-01 8.6813516914844513e-02</leafValues></_>
    <_>
      <internalNodes>
        0 -1 125067 -9.2856567353010178e-03</internalNodes>
      <leafValues>
        3.7494605779647827e-01 -4.1737247258424759e-02</leafValues></_>
    <_>
      <internalNodes>
        0 -1 7934 -2.5461417436599731e-01</internalNodes>
      <leafValues>
        -7.2758388519287109e-01 1.9995311275124550e-02</leafValues></_>
    <_>
      <internalNodes>
        0 -1 133923 -4.4165272265672684e-03</internalNodes>
      <leafValues>
        -2.6833420619368553e-02 6.1472374200820923e-01</leafValues></_>
    <_>
      <internalNodes>
        0 -1 160039 -6.1220233328640461e-03</internalNodes>
      <leafValues>
        4.3865099549293518e-02 -4.5006209611892700e-01</leafValues></_>
    <_>
      <internalNodes>
        0 -1 112536 1.9613442942500114e-02</internalNodes>
      <leafValues>
        1.5224097296595573e-02 -8.7314671277999878e-01</leafValues></_>
    <_>
      <internalNodes>
        0 -1 22799 2.8960709460079670e-03</internalNodes>
      <leafValues>
        -1.0517271608114243e-01 1.4514482021331787e-01</leafValues></_>
    <_>
      <internalNodes>
        0 -1 91382 -9.6845533698797226e-03</internalNodes>
      <leafValues>
        -4.4904041290283203e-01 2.9941599816083908e-02</leafValues></_>
    <_>
      <internalNodes>
        0 -1 25074 -2.6114709675312042e-02</internalNodes>
      <leafValues>
        6.5224027633666992e-01 -2.2034928202629089e-02</leafValues></_>
    <_>
      <internalNodes>
        0 -1 128433 -1.3380320742726326e-02</internalNodes>
      <leafValues>
        -3.8098808377981186e-02 3.5928180813789368e-01</leafValues></_>
    <_>
      <internalNodes>
        0 -1 126788 6.8914536386728287e-03</internalNodes>
      <leafValues>
        4.5664008706808090e-02 -3.0870997905731201e-01</leafValues></_>
    <_>
      <internalNodes>
        0 -1 4098 -2.9045552946627140e-03</internalNodes>
      <leafValues>
        2.0570369437336922e-02 -6.8968087434768677e-01</leafValues></_>
    <_>
      <internalNodes>
        0 -1 89064 -7.8897168859839439e-03</internalNodes>
      <leafValues>
        6.0917085409164429e-01 -2.5175711140036583e-02</leafValues></_>
    <_>
      <internalNodes>
        0 -1 106033 8.6350515484809875e-03</internalNodes>
      <leafValues>
        -7.7720083296298981e-02 1.7556917667388916e-01</leafValues></_>
    <_>
      <internalNodes>
        0 -1 161840 1.2105549685657024e-03</internalNodes>
      <leafValues>
        8.5817791521549225e-02 -1.9011947512626648e-01</leafValues></_>
    <_>
      <internalNodes>
        0 -1 74519 -1.2573755811899900e-03</internalNodes>
      <leafValues>
        -1.9575960934162140e-02 6.8792665004730225e-01</leafValues></_>
    <_>
      <internalNodes>
        0 -1 138489 -4.5013648923486471e-04</internalNodes>
      <leafValues>
        1.5084059536457062e-01 -9.5725484192371368e-02</leafValues></_>
    <_>
      <internalNodes>
        0 -1 244 -3.7188932765275240e-03</internalNodes>
      <leafValues>
        -3.3671987056732178e-01 4.3741639703512192e-02</leafValues></_>
    <_>
      <internalNodes>
        0 -1 120918 -5.6970043806359172e-04</internalNodes>
      <leafValues>
        1.4836098253726959e-01 -9.5649071037769318e-02</leafValues></_>
    <_>
      <internalNodes>
        0 -1 105999 -6.3961096107959747e-02</internalNodes>
      <leafValues>
        -6.0186952352523804e-01 2.6195466518402100e-02</leafValues></_>
    <_>
      <internalNodes>
        0 -1 22847 -3.1038965098559856e-03</internalNodes>
      <leafValues>
        -2.3499740287661552e-02 6.8103265762329102e-01</leafValues></_>
    <_>
      <internalNodes>
        0 -1 66708 1.7002853564918041e-03</internalNodes>
      <leafValues>
        7.4868135154247284e-02 -2.0046204328536987e-01</leafValues></_>
    <_>
      <internalNodes>
        0 -1 145351 3.6661718040704727e-03</internalNodes>
      <leafValues>
        3.5914316773414612e-02 -4.0098762512207031e-01</leafValues></_>
    <_>
      <internalNodes>
        0 -1 48507 1.1199810542166233e-03</internalNodes>
      <leafValues>
        -7.3674537241458893e-02 2.0495398342609406e-01</leafValues></_>
    <_>
      <internalNodes>
        0 -1 114387 -2.2518143523484468e-03</internalNodes>
      <leafValues>
        -2.3556274175643921e-01 6.2673710286617279e-02</leafValues></_>
    <_>
      <internalNodes>
        0 -1 25785 -1.7794463783502579e-02</internalNodes>
      <leafValues>
        4.4020989537239075e-01 -3.8649432361125946e-02</leafValues></_>
    <_>
      <internalNodes>
        0 -1 132653 9.5973780844360590e-04</internalNodes>
      <leafValues>
        9.6435382962226868e-02 -1.4723092317581177e-01</leafValues></_>
    <_>
      <internalNodes>
        0 -1 61101 3.1046277284622192e-01</internalNodes>
      <leafValues>
        1.3405279256403446e-02 -9.4009041786193848e-01</leafValues></_>
    <_>
      <internalNodes>
        0 -1 10019 5.5831079371273518e-03</internalNodes>
      <leafValues>
        2.8087710961699486e-02 -4.3609070777893066e-01</leafValues></_>
    <_>
      <internalNodes>
        0 -1 9483 1.2679542414844036e-02</internalNodes>
      <leafValues>
        -2.1926814690232277e-02 7.0027971267700195e-01</leafValues></_>
    <_>
      <internalNodes>
        0 -1 30771 2.3830968420952559e-03</internalNodes>
      <leafValues>
        6.6911391913890839e-02 -2.2361887991428375e-01</leafValues></_>
    <_>
      <internalNodes>
        0 -1 52268 8.1474361941218376e-03</internalNodes>
      <leafValues>
        -9.8524384200572968e-02 1.5734831988811493e-01</leafValues></_>
    <_>
      <internalNodes>
        0 -1 4101 6.6914227791130543e-03</internalNodes>
      <leafValues>
        4.7876555472612381e-02 -3.5704725980758667e-01</leafValues></_>
    <_>
      <internalNodes>
        0 -1 64329 3.9544114843010902e-03</internalNodes>
      <leafValues>
        -4.3086003512144089e-02 4.1173559427261353e-01</leafValues></_>
    <_>
      <internalNodes>
        0 -1 117883 -4.2020631954073906e-03</internalNodes>
      <leafValues>
        -1.8915271386504173e-02 7.5414294004440308e-01</leafValues></_>
    <_>
      <internalNodes>
        0 -1 15707 5.7285226881504059e-02</internalNodes>
      <leafValues>
        6.2983095645904541e-02 -2.4240265786647797e-01</leafValues></_>
    <_>
      <internalNodes>
        0 -1 49767 1.2537491321563721e-01</internalNodes>
      <leafValues>
        -2.8579968959093094e-02 5.3742915391921997e-01</leafValues></_>
    <_>
      <internalNodes>
        0 -1 45177 1.1952675879001617e-02</internalNodes>
      <leafValues>
        -7.9645521938800812e-02 1.8339183926582336e-01</leafValues></_>
    <_>
      <internalNodes>
        0 -1 20785 -2.9738910496234894e-02</internalNodes>
      <leafValues>
        1.9842302799224854e-01 -8.0035254359245300e-02</leafValues></_>
    <_>
      <internalNodes>
        0 -1 131331 -5.8370135724544525e-02</internalNodes>
      <leafValues>
        -8.4371227025985718e-01 2.0131548866629601e-02</leafValues></_></weakClassifiers></stage10>
</opencv_storage>
