<?xml version="1.0"?>
<opencv_storage>
<stage5>
  <maxWeakCount>94</maxWeakCount>
  <stageThreshold>-9.9985134601593018e-01</stageThreshold>
  <weakClassifiers>
    <_>
      <internalNodes>
        0 -1 126124 -9.9931415170431137e-03</internalNodes>
      <leafValues>
        6.7329543828964233e-01 7.4361316859722137e-02</leafValues></_>
    <_>
      <internalNodes>
        0 -1 53875 3.6803260445594788e-02</internalNodes>
      <leafValues>
        -4.7943774610757828e-02 8.1071388721466064e-01</leafValues></_>
    <_>
      <internalNodes>
        0 -1 9750 1.1054490506649017e-01</internalNodes>
      <leafValues>
        -1.2905238568782806e-01 5.5966955423355103e-01</leafValues></_>
    <_>
      <internalNodes>
        0 -1 117884 -5.7647014036774635e-03</internalNodes>
      <leafValues>
        -7.0010662078857422e-02 4.6794989705085754e-01</leafValues></_>
    <_>
      <internalNodes>
        0 -1 145411 -1.2341219931840897e-02</internalNodes>
      <leafValues>
        7.7177059650421143e-01 -2.4157956242561340e-02</leafValues></_>
    <_>
      <internalNodes>
        0 -1 136656 8.0461744219064713e-03</internalNodes>
      <leafValues>
        -1.6733565926551819e-01 2.1385499835014343e-01</leafValues></_>
    <_>
      <internalNodes>
        0 -1 156408 -5.3935416042804718e-02</internalNodes>
      <leafValues>
        6.0798637568950653e-02 -5.0545984506607056e-01</leafValues></_>
    <_>
      <internalNodes>
        0 -1 136389 3.6032851785421371e-03</internalNodes>
      <leafValues>
        1.1478745937347412e-01 -2.3519368469715118e-01</leafValues></_>
    <_>
      <internalNodes>
        0 -1 13050 8.8172545656561852e-03</internalNodes>
      <leafValues>
        6.4291171729564667e-02 -2.8993141651153564e-01</leafValues></_>
    <_>
      <internalNodes>
        0 -1 151658 -3.1053994316607714e-03</internalNodes>
      <leafValues>
        5.7891130447387695e-01 -4.0887620300054550e-02</leafValues></_>
    <_>
      <internalNodes>
        0 -1 74661 7.6526161283254623e-03</internalNodes>
      <leafValues>
        -1.2321439385414124e-01 1.6629038751125336e-01</leafValues></_>
    <_>
      <internalNodes>
        0 -1 156230 -4.8590477555990219e-02</internalNodes>
      <leafValues>
        4.7305372357368469e-01 -4.7686927020549774e-02</leafValues></_>
    <_>
      <internalNodes>
        0 -1 118045 8.2520805299282074e-03</internalNodes>
      <leafValues>
        -1.0513811558485031e-01 2.1376346051692963e-01</leafValues></_>
    <_>
      <internalNodes>
        0 -1 96141 -1.9448082894086838e-02</internalNodes>
      <leafValues>
        -6.6083878278732300e-02 3.2791984081268311e-01</leafValues></_>
    <_>
      <internalNodes>
        0 -1 89086 -7.3015596717596054e-03</internalNodes>
      <leafValues>
        5.1222687959671021e-01 -4.7833085060119629e-02</leafValues></_>
    <_>
      <internalNodes>
        0 -1 4791 5.8593976497650146e-01</internalNodes>
      <leafValues>
        -3.5536054521799088e-02 5.8851778507232666e-01</leafValues></_>
    <_>
      <internalNodes>
        0 -1 28301 4.0443670004606247e-03</internalNodes>
      <leafValues>
        1.0826913267374039e-01 -2.2224842011928558e-01</leafValues></_>
    <_>
      <internalNodes>
        0 -1 68948 -1.1939702555537224e-02</internalNodes>
      <leafValues>
        5.3609251976013184e-01 -3.8060214370489120e-02</leafValues></_>
    <_>
      <internalNodes>
        0 -1 124263 -9.5578643959015608e-04</internalNodes>
      <leafValues>
        3.0560281127691269e-02 -7.7357035875320435e-01</leafValues></_>
    <_>
      <internalNodes>
        0 -1 30402 -6.2240827828645706e-03</internalNodes>
      <leafValues>
        6.9654488563537598e-01 -3.5834439098834991e-02</leafValues></_>
    <_>
      <internalNodes>
        0 -1 138863 5.6601446121931076e-03</internalNodes>
      <leafValues>
        4.9764797091484070e-02 -4.4123527407646179e-01</leafValues></_>
    <_>
      <internalNodes>
        0 -1 108019 -3.2683489844202995e-03</internalNodes>
      <leafValues>
        -5.3896385431289673e-01 3.5635907202959061e-02</leafValues></_>
    <_>
      <internalNodes>
        0 -1 143652 -9.8837185651063919e-03</internalNodes>
      <leafValues>
        4.6366432309150696e-01 -4.8017699271440506e-02</leafValues></_>
    <_>
      <internalNodes>
        0 -1 143816 -4.8241121694445610e-03</internalNodes>
      <leafValues>
        -3.2988303899765015e-01 6.5421268343925476e-02</leafValues></_>
    <_>
      <internalNodes>
        0 -1 99958 -1.0658169630914927e-03</internalNodes>
      <leafValues>
        -2.3651856184005737e-01 8.4584839642047882e-02</leafValues></_>
    <_>
      <internalNodes>
        0 -1 133122 -7.7762745786458254e-04</internalNodes>
      <leafValues>
        2.0487621426582336e-01 -9.2958152294158936e-02</leafValues></_>
    <_>
      <internalNodes>
        0 -1 11484 -9.6308795036748052e-04</internalNodes>
      <leafValues>
        -4.4900938868522644e-01 4.4792130589485168e-02</leafValues></_>
    <_>
      <internalNodes>
        0 -1 158213 -1.9558768719434738e-02</internalNodes>
      <leafValues>
        2.4678935110569000e-01 -7.8534327447414398e-02</leafValues></_>
    <_>
      <internalNodes>
        0 -1 104446 -1.0384093970060349e-02</internalNodes>
      <leafValues>
        4.8690676689147949e-01 -3.6952227354049683e-02</leafValues></_>
    <_>
      <internalNodes>
        0 -1 5953 1.8616764573380351e-03</internalNodes>
      <leafValues>
        5.8554917573928833e-02 -3.2646167278289795e-01</leafValues></_>
    <_>
      <internalNodes>
        0 -1 82543 1.2813845276832581e-01</internalNodes>
      <leafValues>
        2.6968197897076607e-02 -6.4370536804199219e-01</leafValues></_>
    <_>
      <internalNodes>
        0 -1 18907 -2.2072296589612961e-02</internalNodes>
      <leafValues>
        3.8480687141418457e-01 -5.2591115236282349e-02</leafValues></_>
    <_>
      <internalNodes>
        0 -1 37903 -1.6416190192103386e-03</internalNodes>
      <leafValues>
        -2.6475369930267334e-01 7.9992063343524933e-02</leafValues></_>
    <_>
      <internalNodes>
        0 -1 119308 9.5716267824172974e-03</internalNodes>
      <leafValues>
        -3.3769391477108002e-02 5.7010042667388916e-01</leafValues></_>
    <_>
      <internalNodes>
        0 -1 8814 3.3949213102459908e-03</internalNodes>
      <leafValues>
        3.8333393633365631e-02 -4.5812958478927612e-01</leafValues></_>
    <_>
      <internalNodes>
        0 -1 156802 -1.6176577191799879e-03</internalNodes>
      <leafValues>
        -2.9603058099746704e-01 5.9977948665618896e-02</leafValues></_>
    <_>
      <internalNodes>
        0 -1 159527 -9.6382317133247852e-04</internalNodes>
      <leafValues>
        1.4956372976303101e-01 -1.2110910564661026e-01</leafValues></_>
    <_>
      <internalNodes>
        0 -1 162062 -5.9576157946139574e-04</internalNodes>
      <leafValues>
        -2.8120550513267517e-01 6.6899240016937256e-02</leafValues></_>
    <_>
      <internalNodes>
        0 -1 56379 2.0618891716003418e-01</internalNodes>
      <leafValues>
        2.7369165793061256e-02 -6.8438875675201416e-01</leafValues></_>
    <_>
      <internalNodes>
        0 -1 128037 -1.8570683896541595e-02</internalNodes>
      <leafValues>
        1.0973867028951645e-01 -1.6404916346073151e-01</leafValues></_>
    <_>
      <internalNodes>
        0 -1 44080 -4.6473944187164307e-01</internalNodes>
      <leafValues>
        -1.2562412023544312e-01 1.5126618742942810e-01</leafValues></_>
    <_>
      <internalNodes>
        0 -1 72061 1.1377079784870148e-01</internalNodes>
      <leafValues>
        -2.5505399331450462e-02 8.3588612079620361e-01</leafValues></_>
    <_>
      <internalNodes>
        0 -1 161263 -1.4595151878893375e-03</internalNodes>
      <leafValues>
        3.7867707014083862e-01 -3.9169222116470337e-02</leafValues></_>
    <_>
      <internalNodes>
        0 -1 9442 -2.4222643114626408e-03</internalNodes>
      <leafValues>
        -3.4345623850822449e-01 4.7162145376205444e-02</leafValues></_>
    <_>
      <internalNodes>
        0 -1 87697 -1.0194299742579460e-02</internalNodes>
      <leafValues>
        5.2670162916183472e-01 -3.4439522773027420e-02</leafValues></_>
    <_>
      <internalNodes>
        0 -1 11902 1.0456861928105354e-03</internalNodes>
      <leafValues>
        -9.4109162688255310e-02 1.9855675101280212e-01</leafValues></_>
    <_>
      <internalNodes>
        0 -1 151732 2.2629143204540014e-03</internalNodes>
      <leafValues>
        -3.7620358169078827e-02 4.4536253809928894e-01</leafValues></_>
    <_>
      <internalNodes>
        0 -1 155280 7.5312680564820766e-03</internalNodes>
      <leafValues>
        4.1421066969633102e-02 -4.3776613473892212e-01</leafValues></_>
    <_>
      <internalNodes>
        0 -1 13417 1.2916626874357462e-03</internalNodes>
      <leafValues>
        6.7773729562759399e-02 -2.2968387603759766e-01</leafValues></_>
    <_>
      <internalNodes>
        0 -1 147098 -1.4414589852094650e-02</internalNodes>
      <leafValues>
        5.0958031415939331e-01 -3.2375246286392212e-02</leafValues></_>
    <_>
      <internalNodes>
        0 -1 48214 3.8779294118285179e-03</internalNodes>
      <leafValues>
        -5.6340478360652924e-02 2.6265317201614380e-01</leafValues></_>
    <_>
      <internalNodes>
        0 -1 151732 -3.1121126376092434e-03</internalNodes>
      <leafValues>
        5.4326623678207397e-01 -2.8928460553288460e-02</leafValues></_>
    <_>
      <internalNodes>
        0 -1 68623 -1.6630848869681358e-02</internalNodes>
      <leafValues>
        5.0406497716903687e-01 -3.1485948711633682e-02</leafValues></_>
    <_>
      <internalNodes>
        0 -1 115523 -4.2888871394097805e-03</internalNodes>
      <leafValues>
        -6.2623196840286255e-01 2.8963837772607803e-02</leafValues></_>
    <_>
      <internalNodes>
        0 -1 141089 8.7584247812628746e-03</internalNodes>
      <leafValues>
        -2.6347773149609566e-02 7.0254909992218018e-01</leafValues></_>
    <_>
      <internalNodes>
        0 -1 122412 -2.5951217394322157e-03</internalNodes>
      <leafValues>
        -7.6742535829544067e-01 2.6037607342004776e-02</leafValues></_>
    <_>
      <internalNodes>
        0 -1 146527 4.8443034291267395e-02</internalNodes>
      <leafValues>
        -4.2156130075454712e-02 4.3439790606498718e-01</leafValues></_>
    <_>
      <internalNodes>
        0 -1 111266 -1.9046921283006668e-02</internalNodes>
      <leafValues>
        4.3641230463981628e-01 -3.5236135125160217e-02</leafValues></_>
    <_>
      <internalNodes>
        0 -1 71501 1.9258505105972290e-01</internalNodes>
      <leafValues>
        -8.8064819574356079e-02 2.0345914363861084e-01</leafValues></_>
    <_>
      <internalNodes>
        0 -1 70761 1.4583953656256199e-02</internalNodes>
      <leafValues>
        7.2143256664276123e-02 -2.5542524456977844e-01</leafValues></_>
    <_>
      <internalNodes>
        0 -1 130467 -9.1215096414089203e-02</internalNodes>
      <leafValues>
        4.8235483467578888e-02 -3.7018984556198120e-01</leafValues></_>
    <_>
      <internalNodes>
        0 -1 88410 -2.8062237426638603e-02</internalNodes>
      <leafValues>
        2.2934100031852722e-01 -8.4266938269138336e-02</leafValues></_>
    <_>
      <internalNodes>
        0 -1 162232 -6.9602642906829715e-04</internalNodes>
      <leafValues>
        -3.1776890158653259e-01 5.9655934572219849e-02</leafValues></_>
    <_>
      <internalNodes>
        0 -1 130939 -3.1733416020870209e-02</internalNodes>
      <leafValues>
        -3.0251706019043922e-02 5.8506441116333008e-01</leafValues></_>
    <_>
      <internalNodes>
        0 -1 161648 1.4379147905856371e-03</internalNodes>
      <leafValues>
        6.0156662017107010e-02 -3.0936229228973389e-01</leafValues></_>
    <_>
      <internalNodes>
        0 -1 138319 -1.6453322023153305e-02</internalNodes>
      <leafValues>
        3.7716305255889893e-01 -4.6940159052610397e-02</leafValues></_>
    <_>
      <internalNodes>
        0 -1 12838 -5.0064938841387630e-04</internalNodes>
      <leafValues>
        1.6443859040737152e-01 -9.4044193625450134e-02</leafValues></_>
    <_>
      <internalNodes>
        0 -1 60380 -9.0123098343610764e-03</internalNodes>
      <leafValues>
        -3.3896639943122864e-01 4.4053539633750916e-02</leafValues></_>
    <_>
      <internalNodes>
        0 -1 19095 -3.3282540738582611e-02</internalNodes>
      <leafValues>
        2.0847681164741516e-01 -7.1505926549434662e-02</leafValues></_>
    <_>
      <internalNodes>
        0 -1 151717 -6.5231341868638992e-03</internalNodes>
      <leafValues>
        1.7414259910583496e-01 -8.3898790180683136e-02</leafValues></_>
    <_>
      <internalNodes>
        0 -1 24699 -2.1536557003855705e-02</internalNodes>
      <leafValues>
        -2.0681054890155792e-01 8.1602729856967926e-02</leafValues></_>
    <_>
      <internalNodes>
        0 -1 70696 -3.8220644928514957e-03</internalNodes>
      <leafValues>
        -2.0889152586460114e-01 7.4253618717193604e-02</leafValues></_>
    <_>
      <internalNodes>
        0 -1 141033 -6.2809763476252556e-03</internalNodes>
      <leafValues>
        -6.2325721979141235e-01 2.3298023268580437e-02</leafValues></_>
    <_>
      <internalNodes>
        0 -1 11228 -8.2809314131736755e-02</internalNodes>
      <leafValues>
        -4.1375848650932312e-01 3.2016459852457047e-02</leafValues></_>
    <_>
      <internalNodes>
        0 -1 79416 2.0901702344417572e-02</internalNodes>
      <leafValues>
        -1.7849447205662727e-02 8.5636270046234131e-01</leafValues></_>
    <_>
      <internalNodes>
        0 -1 83659 4.5612519606947899e-03</internalNodes>
      <leafValues>
        3.3592060208320618e-02 -4.8448583483695984e-01</leafValues></_>
    <_>
      <internalNodes>
        0 -1 131634 -1.4259891584515572e-02</internalNodes>
      <leafValues>
        1.6198311746120453e-01 -9.1400653123855591e-02</leafValues></_>
    <_>
      <internalNodes>
        0 -1 125261 4.3827863410115242e-03</internalNodes>
      <leafValues>
        4.8764154314994812e-02 -3.2976469397544861e-01</leafValues></_>
    <_>
      <internalNodes>
        0 -1 1594 1.3670560903847218e-02</internalNodes>
      <leafValues>
        -1.1970265209674835e-01 1.3328585028648376e-01</leafValues></_>
    <_>
      <internalNodes>
        0 -1 28138 1.0556081682443619e-01</internalNodes>
      <leafValues>
        -4.0596701204776764e-02 4.1779291629791260e-01</leafValues></_>
    <_>
      <internalNodes>
        0 -1 79103 3.3462010324001312e-02</internalNodes>
      <leafValues>
        -2.4160675704479218e-02 5.7960641384124756e-01</leafValues></_>
    <_>
      <internalNodes>
        0 -1 128719 -4.5570135116577148e-02</internalNodes>
      <leafValues>
        2.7089121937751770e-01 -5.3527344018220901e-02</leafValues></_>
    <_>
      <internalNodes>
        0 -1 121711 1.0756744071841240e-02</internalNodes>
      <leafValues>
        -9.1813139617443085e-02 2.0360881090164185e-01</leafValues></_>
    <_>
      <internalNodes>
        0 -1 107176 9.7689218819141388e-03</internalNodes>
      <leafValues>
        4.2571254074573517e-02 -3.9063861966133118e-01</leafValues></_>
    <_>
      <internalNodes>
        0 -1 147710 -2.5898692547343671e-04</internalNodes>
      <leafValues>
        1.2122067809104919e-01 -1.3271868228912354e-01</leafValues></_>
    <_>
      <internalNodes>
        0 -1 7678 4.3149933218955994e-02</internalNodes>
      <leafValues>
        -2.7320217341184616e-02 5.5685794353485107e-01</leafValues></_>
    <_>
      <internalNodes>
        0 -1 14065 -1.6518784686923027e-03</internalNodes>
      <leafValues>
        -2.2293354570865631e-01 7.3905132710933685e-02</leafValues></_>
    <_>
      <internalNodes>
        0 -1 155959 -1.0832608677446842e-03</internalNodes>
      <leafValues>
        3.0734741687774658e-01 -4.7734383493661880e-02</leafValues></_>
    <_>
      <internalNodes>
        0 -1 132806 1.3743647374212742e-02</internalNodes>
      <leafValues>
        -6.2332194298505783e-02 2.6054939627647400e-01</leafValues></_>
    <_>
      <internalNodes>
        0 -1 104756 -2.1098405122756958e-03</internalNodes>
      <leafValues>
        -2.5162640213966370e-01 6.2165748327970505e-02</leafValues></_>
    <_>
      <internalNodes>
        0 -1 66351 5.6593611836433411e-02</internalNodes>
      <leafValues>
        -3.7878580391407013e-02 3.6606284976005554e-01</leafValues></_>
    <_>
      <internalNodes>
        0 -1 67421 1.7425012588500977e-01</internalNodes>
      <leafValues>
        2.3576974868774414e-02 -7.6604509353637695e-01</leafValues></_>
    <_>
      <internalNodes>
        0 -1 30342 -2.9833037406206131e-03</internalNodes>
      <leafValues>
        -3.9395472407341003e-01 3.5242129117250443e-02</leafValues></_>
    <_>
      <internalNodes>
        0 -1 106749 7.9580163583159447e-04</internalNodes>
      <leafValues>
        6.5757766366004944e-02 -2.1995118260383606e-01</leafValues></_></weakClassifiers></stage5>
</opencv_storage>
