<?xml version="1.0"?>
<opencv_storage>
<stage27>
  <maxWeakCount>100</maxWeakCount>
  <stageThreshold>-8.5398244857788086e-01</stageThreshold>
  <weakClassifiers>
    <_>
      <internalNodes>
        0 -1 94329 1.3063084334135056e-02</internalNodes>
      <leafValues>
        1.9510255753993988e-01 8.6905831098556519e-01</leafValues></_>
    <_>
      <internalNodes>
        0 -1 19943 -2.5195199251174927e-01</internalNodes>
      <leafValues>
        -1.2769617140293121e-01 3.3962851762771606e-01</leafValues></_>
    <_>
      <internalNodes>
        0 -1 151732 -2.8433552943170071e-03</internalNodes>
      <leafValues>
        5.3226733207702637e-01 -7.7275894582271576e-02</leafValues></_>
    <_>
      <internalNodes>
        0 -1 119638 -1.4115936355665326e-03</internalNodes>
      <leafValues>
        1.8673299252986908e-01 -1.3183651864528656e-01</leafValues></_>
    <_>
      <internalNodes>
        0 -1 22979 -1.1125879362225533e-02</internalNodes>
      <leafValues>
        4.1279977560043335e-01 -5.4632406681776047e-02</leafValues></_>
    <_>
      <internalNodes>
        0 -1 105181 -6.9581538438796997e-02</internalNodes>
      <leafValues>
        5.3092122077941895e-01 -4.2543370276689529e-02</leafValues></_>
    <_>
      <internalNodes>
        0 -1 161263 -1.3948241248726845e-03</internalNodes>
      <leafValues>
        3.5605311393737793e-01 -4.7421008348464966e-02</leafValues></_>
    <_>
      <internalNodes>
        0 -1 104742 -5.4110027849674225e-04</internalNodes>
      <leafValues>
        -3.2904112339019775e-01 4.6605300158262253e-02</leafValues></_>
    <_>
      <internalNodes>
        0 -1 162095 1.4186417683959007e-03</internalNodes>
      <leafValues>
        -6.0424543917179108e-02 3.1731593608856201e-01</leafValues></_>
    <_>
      <internalNodes>
        0 -1 59675 4.9416637048125267e-03</internalNodes>
      <leafValues>
        1.0336835682392120e-01 -1.7167323827743530e-01</leafValues></_>
    <_>
      <internalNodes>
        0 -1 136026 7.7819363214075565e-03</internalNodes>
      <leafValues>
        3.0073095113039017e-02 -5.2811342477798462e-01</leafValues></_>
    <_>
      <internalNodes>
        0 -1 155791 -2.6131165213882923e-03</internalNodes>
      <leafValues>
        4.6121177077293396e-01 -3.6906152963638306e-02</leafValues></_>
    <_>
      <internalNodes>
        0 -1 89798 -6.0214074328541756e-03</internalNodes>
      <leafValues>
        -2.0807059109210968e-01 7.5937733054161072e-02</leafValues></_>
    <_>
      <internalNodes>
        0 -1 77677 3.1128780916333199e-02</internalNodes>
      <leafValues>
        8.3087861537933350e-02 -2.1520119905471802e-01</leafValues></_>
    <_>
      <internalNodes>
        0 -1 77677 1.2443225085735321e-01</internalNodes>
      <leafValues>
        -2.3493152111768723e-02 6.6894263029098511e-01</leafValues></_>
    <_>
      <internalNodes>
        0 -1 9303 -9.0192466974258423e-02</internalNodes>
      <leafValues>
        1.8438363075256348e-01 -7.8770063817501068e-02</leafValues></_>
    <_>
      <internalNodes>
        0 -1 133733 -2.6506019756197929e-02</internalNodes>
      <leafValues>
        1.0052276402711868e-01 -1.8455323576927185e-01</leafValues></_>
    <_>
      <internalNodes>
        0 -1 13298 -2.1433585789054632e-03</internalNodes>
      <leafValues>
        -7.3064789175987244e-02 2.2897161543369293e-01</leafValues></_>
    <_>
      <internalNodes>
        0 -1 12646 6.5471995621919632e-03</internalNodes>
      <leafValues>
        1.0219828784465790e-01 -1.8052649497985840e-01</leafValues></_>
    <_>
      <internalNodes>
        0 -1 133508 1.7774249427020550e-03</internalNodes>
      <leafValues>
        2.8144206851720810e-02 -5.8880132436752319e-01</leafValues></_>
    <_>
      <internalNodes>
        0 -1 121525 5.1041498780250549e-02</internalNodes>
      <leafValues>
        -3.7244766950607300e-02 4.1867822408676147e-01</leafValues></_>
    <_>
      <internalNodes>
        0 -1 118249 -4.0367608889937401e-03</internalNodes>
      <leafValues>
        -9.3011760711669922e-01 1.6412738710641861e-02</leafValues></_>
    <_>
      <internalNodes>
        0 -1 161791 2.3487433791160583e-03</internalNodes>
      <leafValues>
        1.7044266685843468e-02 -6.4441680908203125e-01</leafValues></_>
    <_>
      <internalNodes>
        0 -1 835 -1.4027136564254761e-01</internalNodes>
      <leafValues>
        -4.2978191375732422e-01 2.9769793152809143e-02</leafValues></_>
    <_>
      <internalNodes>
        0 -1 55550 6.7134574055671692e-03</internalNodes>
      <leafValues>
        -2.3981269448995590e-02 6.2264043092727661e-01</leafValues></_>
    <_>
      <internalNodes>
        0 -1 132736 -1.1415204033255577e-02</internalNodes>
      <leafValues>
        2.1722806617617607e-02 -8.1502515077590942e-01</leafValues></_>
    <_>
      <internalNodes>
        0 -1 155204 3.8013495504856110e-03</internalNodes>
      <leafValues>
        3.8034509867429733e-02 -3.1193643808364868e-01</leafValues></_>
    <_>
      <internalNodes>
        0 -1 157545 1.6444935463368893e-03</internalNodes>
      <leafValues>
        -6.6854417324066162e-02 2.0055423676967621e-01</leafValues></_>
    <_>
      <internalNodes>
        0 -1 159681 3.2400107011198997e-03</internalNodes>
      <leafValues>
        4.2528033256530762e-02 -3.2315695285797119e-01</leafValues></_>
    <_>
      <internalNodes>
        0 -1 125471 -1.7369013279676437e-02</internalNodes>
      <leafValues>
        3.2043981552124023e-01 -4.2573668062686920e-02</leafValues></_>
    <_>
      <internalNodes>
        0 -1 88465 -3.9009071886539459e-02</internalNodes>
      <leafValues>
        3.6421042680740356e-01 -4.5472167432308197e-02</leafValues></_>
    <_>
      <internalNodes>
        0 -1 126352 -2.9953147750347853e-03</internalNodes>
      <leafValues>
        -5.1154983043670654e-01 3.3399447798728943e-02</leafValues></_>
    <_>
      <internalNodes>
        0 -1 124750 -2.8206868097186089e-02</internalNodes>
      <leafValues>
        -4.9310806393623352e-01 2.7515769004821777e-02</leafValues></_>
    <_>
      <internalNodes>
        0 -1 109141 -3.3015832304954529e-03</internalNodes>
      <leafValues>
        1.9741822779178619e-01 -6.4868398010730743e-02</leafValues></_>
    <_>
      <internalNodes>
        0 -1 106293 -7.7549819834530354e-03</internalNodes>
      <leafValues>
        5.3103065490722656e-01 -2.8464054688811302e-02</leafValues></_>
    <_>
      <internalNodes>
        0 -1 46580 -4.2049745097756386e-03</internalNodes>
      <leafValues>
        5.8179169893264771e-02 -2.6038682460784912e-01</leafValues></_>
    <_>
      <internalNodes>
        0 -1 93688 -6.1065964400768280e-03</internalNodes>
      <leafValues>
        -5.2673870325088501e-01 2.6939069852232933e-02</leafValues></_>
    <_>
      <internalNodes>
        0 -1 131910 -1.2003583833575249e-02</internalNodes>
      <leafValues>
        1.5802305936813354e-01 -8.8341474533081055e-02</leafValues></_>
    <_>
      <internalNodes>
        0 -1 46314 6.9607019424438477e-02</internalNodes>
      <leafValues>
        -2.9006399214267731e-02 5.2498608827590942e-01</leafValues></_>
    <_>
      <internalNodes>
        0 -1 84776 -2.1960534155368805e-02</internalNodes>
      <leafValues>
        -1.5278702974319458e-01 1.0102868080139160e-01</leafValues></_>
    <_>
      <internalNodes>
        0 -1 89065 -1.0438911616802216e-02</internalNodes>
      <leafValues>
        1.0986983031034470e-01 -1.3117282092571259e-01</leafValues></_>
    <_>
      <internalNodes>
        0 -1 126457 -5.0760932266712189e-02</internalNodes>
      <leafValues>
        -3.4294504672288895e-02 3.6795815825462341e-01</leafValues></_>
    <_>
      <internalNodes>
        0 -1 127486 7.8232455998659134e-03</internalNodes>
      <leafValues>
        -1.6680596396327019e-02 6.8659675121307373e-01</leafValues></_>
    <_>
      <internalNodes>
        0 -1 32095 8.3407662808895111e-02</internalNodes>
      <leafValues>
        -1.6383497044444084e-02 6.5482664108276367e-01</leafValues></_>
    <_>
      <internalNodes>
        0 -1 69587 -9.7124185413122177e-03</internalNodes>
      <leafValues>
        6.3187360763549805e-01 -1.7541335895657539e-02</leafValues></_>
    <_>
      <internalNodes>
        0 -1 43808 -2.6633664965629578e-03</internalNodes>
      <leafValues>
        2.3186436295509338e-01 -5.7424314320087433e-02</leafValues></_>
    <_>
      <internalNodes>
        0 -1 60260 -2.8161681257188320e-04</internalNodes>
      <leafValues>
        -2.3250213265419006e-01 6.3284926116466522e-02</leafValues></_>
    <_>
      <internalNodes>
        0 -1 145963 9.0999826788902283e-03</internalNodes>
      <leafValues>
        -3.6485563963651657e-02 4.2554473876953125e-01</leafValues></_>
    <_>
      <internalNodes>
        0 -1 69396 -1.5384877100586891e-02</internalNodes>
      <leafValues>
        -2.2852703928947449e-01 6.0396499931812286e-02</leafValues></_>
    <_>
      <internalNodes>
        0 -1 89145 -1.0555086657404900e-02</internalNodes>
      <leafValues>
        1.5830792486667633e-01 -8.5716627538204193e-02</leafValues></_>
    <_>
      <internalNodes>
        0 -1 98017 8.1516355276107788e-03</internalNodes>
      <leafValues>
        -9.7212873399257660e-02 1.6229765117168427e-01</leafValues></_>
    <_>
      <internalNodes>
        0 -1 138711 -1.9960436038672924e-03</internalNodes>
      <leafValues>
        1.2193448096513748e-01 -1.1945358663797379e-01</leafValues></_>
    <_>
      <internalNodes>
        0 -1 159727 -1.5247735427692533e-03</internalNodes>
      <leafValues>
        1.9221128523349762e-01 -6.9895304739475250e-02</leafValues></_>
    <_>
      <internalNodes>
        0 -1 119378 -6.8528585135936737e-02</internalNodes>
      <leafValues>
        -9.6263420581817627e-01 1.5540719963610172e-02</leafValues></_>
    <_>
      <internalNodes>
        0 -1 116051 -1.0178219527006149e-03</internalNodes>
      <leafValues>
        -2.1587092429399490e-02 6.8783479928970337e-01</leafValues></_>
    <_>
      <internalNodes>
        0 -1 141840 1.1738843750208616e-03</internalNodes>
      <leafValues>
        8.3808340132236481e-02 -1.6055051982402802e-01</leafValues></_>
    <_>
      <internalNodes>
        0 -1 31384 3.4996353089809418e-02</internalNodes>
      <leafValues>
        5.6973855942487717e-02 -2.2053372859954834e-01</leafValues></_>
    <_>
      <internalNodes>
        0 -1 113967 -1.3410788960754871e-03</internalNodes>
      <leafValues>
        1.3623289763927460e-01 -9.6410319209098816e-02</leafValues></_>
    <_>
      <internalNodes>
        0 -1 58301 -2.7789995074272156e-02</internalNodes>
      <leafValues>
        3.6874216794967651e-01 -3.4811731427907944e-02</leafValues></_>
    <_>
      <internalNodes>
        0 -1 10674 4.1218837723135948e-03</internalNodes>
      <leafValues>
        -7.5601518154144287e-02 1.6526460647583008e-01</leafValues></_>
    <_>
      <internalNodes>
        0 -1 94761 4.7413930296897888e-03</internalNodes>
      <leafValues>
        -5.1651529967784882e-02 2.5673550367355347e-01</leafValues></_>
    <_>
      <internalNodes>
        0 -1 131291 -2.7942944318056107e-02</internalNodes>
      <leafValues>
        -2.2123564779758453e-01 6.3079245388507843e-02</leafValues></_>
    <_>
      <internalNodes>
        0 -1 13152 -3.4430273808538914e-03</internalNodes>
      <leafValues>
        -2.2344984114170074e-01 6.1201497912406921e-02</leafValues></_>
    <_>
      <internalNodes>
        0 -1 91274 3.3340752124786377e-03</internalNodes>
      <leafValues>
        6.4635120332241058e-02 -1.9359397888183594e-01</leafValues></_>
    <_>
      <internalNodes>
        0 -1 157822 -1.0240636765956879e-02</internalNodes>
      <leafValues>
        -4.1011533141136169e-01 3.0091254040598869e-02</leafValues></_>
    <_>
      <internalNodes>
        0 -1 48507 5.7067500893026590e-04</internalNodes>
      <leafValues>
        -8.0725677311420441e-02 1.5284065902233124e-01</leafValues></_>
    <_>
      <internalNodes>
        0 -1 11446 -1.9322041189298034e-03</internalNodes>
      <leafValues>
        9.1998711228370667e-02 -1.3355904817581177e-01</leafValues></_>
    <_>
      <internalNodes>
        0 -1 58589 -2.8437596559524536e-01</internalNodes>
      <leafValues>
        -9.5919138193130493e-01 1.3786818832159042e-02</leafValues></_>
    <_>
      <internalNodes>
        0 -1 59433 -8.0862984061241150e-02</internalNodes>
      <leafValues>
        3.6948832869529724e-01 -3.5753581672906876e-02</leafValues></_>
    <_>
      <internalNodes>
        0 -1 69598 -1.9601095467805862e-02</internalNodes>
      <leafValues>
        -4.6383693814277649e-01 2.7694603428244591e-02</leafValues></_>
    <_>
      <internalNodes>
        0 -1 155959 -1.1793763842433691e-03</internalNodes>
      <leafValues>
        2.5510269403457642e-01 -5.0099201500415802e-02</leafValues></_>
    <_>
      <internalNodes>
        0 -1 161467 -1.9808718934655190e-03</internalNodes>
      <leafValues>
        -5.1284736394882202e-01 2.3938577622175217e-02</leafValues></_>
    <_>
      <internalNodes>
        0 -1 31 8.1250034272670746e-03</internalNodes>
      <leafValues>
        4.9791742116212845e-02 -2.3183386027812958e-01</leafValues></_>
    <_>
      <internalNodes>
        0 -1 88251 -5.6472574360668659e-03</internalNodes>
      <leafValues>
        -3.6462011933326721e-01 3.3753603696823120e-02</leafValues></_>
    <_>
      <internalNodes>
        0 -1 161104 4.0966636152006686e-04</internalNodes>
      <leafValues>
        -1.0117197781801224e-01 1.2332081049680710e-01</leafValues></_>
    <_>
      <internalNodes>
        0 -1 161178 3.3723255619406700e-03</internalNodes>
      <leafValues>
        2.7666818350553513e-02 -4.5941185951232910e-01</leafValues></_>
    <_>
      <internalNodes>
        0 -1 136535 -1.0896155145019293e-03</internalNodes>
      <leafValues>
        9.4383068382740021e-02 -1.2749290466308594e-01</leafValues></_>
    <_>
      <internalNodes>
        0 -1 105079 6.2708131736144423e-05</internalNodes>
      <leafValues>
        9.9815770983695984e-02 -1.2338933348655701e-01</leafValues></_>
    <_>
      <internalNodes>
        0 -1 12242 6.0058296658098698e-03</internalNodes>
      <leafValues>
        -2.4502573534846306e-02 4.3381857872009277e-01</leafValues></_>
    <_>
      <internalNodes>
        0 -1 52254 -1.6495048999786377e-02</internalNodes>
      <leafValues>
        -4.1763432323932648e-02 2.5700750946998596e-01</leafValues></_>
    <_>
      <internalNodes>
        0 -1 33923 -2.3729581385850906e-02</internalNodes>
      <leafValues>
        3.9563976228237152e-02 -2.7045997977256775e-01</leafValues></_>
    <_>
      <internalNodes>
        0 -1 126625 -4.7415914013981819e-03</internalNodes>
      <leafValues>
        -9.6138834953308105e-01 1.3982990756630898e-02</leafValues></_>
    <_>
      <internalNodes>
        0 -1 31288 -1.2917311323690228e-05</internalNodes>
      <leafValues>
        1.0298353433609009e-01 -1.0403648018836975e-01</leafValues></_>
    <_>
      <internalNodes>
        0 -1 5114 -3.7192422896623611e-03</internalNodes>
      <leafValues>
        -2.5157368183135986e-01 4.9839463084936142e-02</leafValues></_>
    <_>
      <internalNodes>
        0 -1 162333 1.1913663001905661e-05</internalNodes>
      <leafValues>
        -9.9096044898033142e-02 1.0879503190517426e-01</leafValues></_>
    <_>
      <internalNodes>
        0 -1 155155 -6.3852863386273384e-03</internalNodes>
      <leafValues>
        2.8008967638015747e-01 -4.0480677038431168e-02</leafValues></_>
    <_>
      <internalNodes>
        0 -1 149636 1.9708378240466118e-03</internalNodes>
      <leafValues>
        -4.1681427508592606e-02 2.7177056670188904e-01</leafValues></_>
    <_>
      <internalNodes>
        0 -1 162294 -3.4780269488692284e-03</internalNodes>
      <leafValues>
        -2.6141500473022461e-01 4.8986475914716721e-02</leafValues></_>
    <_>
      <internalNodes>
        0 -1 139124 1.0933945886790752e-02</internalNodes>
      <leafValues>
        3.5482268780469894e-02 -3.2212099432945251e-01</leafValues></_>
    <_>
      <internalNodes>
        0 -1 135392 5.6904032826423645e-03</internalNodes>
      <leafValues>
        4.5656107366085052e-02 -2.5642824172973633e-01</leafValues></_>
    <_>
      <internalNodes>
        0 -1 149217 9.7358589991927147e-03</internalNodes>
      <leafValues>
        -2.8433354571461678e-02 4.9046233296394348e-01</leafValues></_>
    <_>
      <internalNodes>
        0 -1 139363 -3.2594919204711914e-02</internalNodes>
      <leafValues>
        -3.7448477745056152e-01 3.8181871175765991e-02</leafValues></_>
    <_>
      <internalNodes>
        0 -1 61051 2.0762766897678375e-01</internalNodes>
      <leafValues>
        -1.8048610538244247e-02 7.9236894845962524e-01</leafValues></_>
    <_>
      <internalNodes>
        0 -1 114448 -1.7412273213267326e-02</internalNodes>
      <leafValues>
        -6.0431683063507080e-01 2.6740446686744690e-02</leafValues></_>
    <_>
      <internalNodes>
        0 -1 30248 -2.7576708234846592e-03</internalNodes>
      <leafValues>
        1.4497606456279755e-01 -8.3003312349319458e-02</leafValues></_>
    <_>
      <internalNodes>
        0 -1 63074 6.8627549335360527e-03</internalNodes>
      <leafValues>
        -1.1942620575428009e-01 1.1729324609041214e-01</leafValues></_>
    <_>
      <internalNodes>
        0 -1 161263 4.7512489254586399e-04</internalNodes>
      <leafValues>
        -5.4418209940195084e-02 2.2656108438968658e-01</leafValues></_>
    <_>
      <internalNodes>
        0 -1 33998 1.1672959662973881e-03</internalNodes>
      <leafValues>
        7.0894494652748108e-02 -1.7769211530685425e-01</leafValues></_>
    <_>
      <internalNodes>
        0 -1 38932 -3.3908861223608255e-03</internalNodes>
      <leafValues>
        -9.0416061878204346e-01 1.2471727095544338e-02</leafValues></_>
    <_>
      <internalNodes>
        0 -1 131821 1.4959236606955528e-02</internalNodes>
      <leafValues>
        -2.5988841429352760e-02 5.0133532285690308e-01</leafValues></_></weakClassifiers></stage27>
</opencv_storage>
