<?xml version="1.0"?>
<opencv_storage>
<stage30>
  <maxWeakCount>100</maxWeakCount>
  <stageThreshold>-9.7388774156570435e-01</stageThreshold>
  <weakClassifiers>
    <_>
      <internalNodes>
        0 -1 145898 -3.7555750459432602e-03</internalNodes>
      <leafValues>
        8.3293932676315308e-01 1.7216238379478455e-01</leafValues></_>
    <_>
      <internalNodes>
        0 -1 27332 -7.0364183187484741e-01</internalNodes>
      <leafValues>
        -2.5080284476280212e-01 2.3255310952663422e-01</leafValues></_>
    <_>
      <internalNodes>
        0 -1 84138 -4.8676886945031583e-04</internalNodes>
      <leafValues>
        -5.3156364709138870e-02 6.5033417940139771e-01</leafValues></_>
    <_>
      <internalNodes>
        0 -1 157567 1.1740152258425951e-03</internalNodes>
      <leafValues>
        -1.0067307949066162e-01 3.0735969543457031e-01</leafValues></_>
    <_>
      <internalNodes>
        0 -1 68614 1.8241673707962036e-02</internalNodes>
      <leafValues>
        -3.4993369132280350e-02 6.8551570177078247e-01</leafValues></_>
    <_>
      <internalNodes>
        0 -1 112934 -5.3623408079147339e-02</internalNodes>
      <leafValues>
        -3.6610835790634155e-01 5.6963253766298294e-02</leafValues></_>
    <_>
      <internalNodes>
        0 -1 84138 -4.9041083548218012e-04</internalNodes>
      <leafValues>
        4.0448673069477081e-02 -8.9449363946914673e-01</leafValues></_>
    <_>
      <internalNodes>
        0 -1 84138 -4.8676886945031583e-04</internalNodes>
      <leafValues>
        -1.9016914069652557e-02 8.0583328008651733e-01</leafValues></_>
    <_>
      <internalNodes>
        0 -1 111960 2.6080865063704550e-04</internalNodes>
      <leafValues>
        1.1420416831970215e-01 -1.9454219937324524e-01</leafValues></_>
    <_>
      <internalNodes>
        0 -1 76880 -1.8072169274091721e-02</internalNodes>
      <leafValues>
        9.7992226481437683e-02 -2.1205392479896545e-01</leafValues></_>
    <_>
      <internalNodes>
        0 -1 13298 -1.3210048200562596e-03</internalNodes>
      <leafValues>
        -5.3140293806791306e-02 3.8402166962623596e-01</leafValues></_>
    <_>
      <internalNodes>
        0 -1 112648 9.6985779702663422e-02</internalNodes>
      <leafValues>
        -3.6076236516237259e-02 5.2306079864501953e-01</leafValues></_>
    <_>
      <internalNodes>
        0 -1 103799 -9.7301267087459564e-03</internalNodes>
      <leafValues>
        2.6792025566101074e-01 -6.7686595022678375e-02</leafValues></_>
    <_>
      <internalNodes>
        0 -1 116577 2.2667454555630684e-02</internalNodes>
      <leafValues>
        -4.2490292340517044e-02 3.7296655774116516e-01</leafValues></_>
    <_>
      <internalNodes>
        0 -1 61643 5.8132275938987732e-02</internalNodes>
      <leafValues>
        1.0779731720685959e-01 -1.9199353456497192e-01</leafValues></_>
    <_>
      <internalNodes>
        0 -1 9830 3.7722002714872360e-02</internalNodes>
      <leafValues>
        -3.6589983850717545e-02 4.3885517120361328e-01</leafValues></_>
    <_>
      <internalNodes>
        0 -1 65739 -1.0469376295804977e-01</internalNodes>
      <leafValues>
        8.7246042490005493e-01 -1.5057371929287910e-02</leafValues></_>
    <_>
      <internalNodes>
        0 -1 78776 1.8868578597903252e-02</internalNodes>
      <leafValues>
        -3.5167686641216278e-02 3.7348142266273499e-01</leafValues></_>
    <_>
      <internalNodes>
        0 -1 113585 -2.9522483237087727e-03</internalNodes>
      <leafValues>
        2.1078957617282867e-01 -7.8900516033172607e-02</leafValues></_>
    <_>
      <internalNodes>
        0 -1 97666 -6.8738649133592844e-04</internalNodes>
      <leafValues>
        -2.3623591661453247e-01 6.7982636392116547e-02</leafValues></_>
    <_>
      <internalNodes>
        0 -1 63572 -3.4913190756924450e-04</internalNodes>
      <leafValues>
        -2.5685565546154976e-02 5.8690577745437622e-01</leafValues></_>
    <_>
      <internalNodes>
        0 -1 13373 -5.1749506965279579e-03</internalNodes>
      <leafValues>
        1.2294577807188034e-01 -1.2133339047431946e-01</leafValues></_>
    <_>
      <internalNodes>
        0 -1 48489 -5.2353730425238609e-03</internalNodes>
      <leafValues>
        -7.4631959199905396e-02 1.8479609489440918e-01</leafValues></_>
    <_>
      <internalNodes>
        0 -1 87149 2.2644302225671709e-04</internalNodes>
      <leafValues>
        9.0996704995632172e-02 -1.6419279575347900e-01</leafValues></_>
    <_>
      <internalNodes>
        0 -1 105154 -1.0769435204565525e-02</internalNodes>
      <leafValues>
        2.3949335515499115e-01 -5.4737400263547897e-02</leafValues></_>
    <_>
      <internalNodes>
        0 -1 120819 -2.6881523430347443e-02</internalNodes>
      <leafValues>
        5.7912986725568771e-02 -2.5119554996490479e-01</leafValues></_>
    <_>
      <internalNodes>
        0 -1 158103 -1.1208516079932451e-03</internalNodes>
      <leafValues>
        2.6997315883636475e-01 -5.3853034973144531e-02</leafValues></_>
    <_>
      <internalNodes>
        0 -1 151048 -3.8798907771706581e-03</internalNodes>
      <leafValues>
        -1.6303703188896179e-01 7.5804159045219421e-02</leafValues></_>
    <_>
      <internalNodes>
        0 -1 119606 -4.9211308360099792e-03</internalNodes>
      <leafValues>
        -3.2501231878995895e-02 3.8201969861984253e-01</leafValues></_>
    <_>
      <internalNodes>
        0 -1 159628 2.8324672020971775e-03</internalNodes>
      <leafValues>
        -7.3907837271690369e-02 1.7330062389373779e-01</leafValues></_>
    <_>
      <internalNodes>
        0 -1 9461 6.5394695848226547e-03</internalNodes>
      <leafValues>
        5.2698925137519836e-02 -2.5504127144813538e-01</leafValues></_>
    <_>
      <internalNodes>
        0 -1 37652 -8.8123381137847900e-03</internalNodes>
      <leafValues>
        6.2273375689983368e-02 -2.3414973914623260e-01</leafValues></_>
    <_>
      <internalNodes>
        0 -1 159515 -1.8161874264478683e-02</internalNodes>
      <leafValues>
        -6.4121365547180176e-02 2.5845119357109070e-01</leafValues></_>
    <_>
      <internalNodes>
        0 -1 59406 2.4834778159856796e-02</internalNodes>
      <leafValues>
        -1.0163550078868866e-01 1.5049017965793610e-01</leafValues></_>
    <_>
      <internalNodes>
        0 -1 89604 -2.4403515271842480e-03</internalNodes>
      <leafValues>
        1.4783929288387299e-01 -9.6269465982913971e-02</leafValues></_>
    <_>
      <internalNodes>
        0 -1 123651 8.0793220549821854e-03</internalNodes>
      <leafValues>
        2.6951313018798828e-02 -4.7884210944175720e-01</leafValues></_>
    <_>
      <internalNodes>
        0 -1 104866 7.4761672876775265e-03</internalNodes>
      <leafValues>
        -3.6228083074092865e-02 3.3883655071258545e-01</leafValues></_>
    <_>
      <internalNodes>
        0 -1 151732 2.4384330026805401e-03</internalNodes>
      <leafValues>
        -3.5215571522712708e-02 3.2637363672256470e-01</leafValues></_>
    <_>
      <internalNodes>
        0 -1 151732 -2.0623118616640568e-03</internalNodes>
      <leafValues>
        3.2585334777832031e-01 -3.8410238921642303e-02</leafValues></_>
    <_>
      <internalNodes>
        0 -1 121999 -1.2746535241603851e-02</internalNodes>
      <leafValues>
        -4.6045333147048950e-02 3.1133905053138733e-01</leafValues></_>
    <_>
      <internalNodes>
        0 -1 162236 1.5072780661284924e-03</internalNodes>
      <leafValues>
        6.4348585903644562e-02 -1.9755148887634277e-01</leafValues></_>
    <_>
      <internalNodes>
        0 -1 73152 -6.3799833878874779e-03</internalNodes>
      <leafValues>
        2.2683601826429367e-02 -6.4253240823745728e-01</leafValues></_>
    <_>
      <internalNodes>
        0 -1 106748 -4.4097583740949631e-03</internalNodes>
      <leafValues>
        -4.3062305450439453e-01 2.7724137529730797e-02</leafValues></_>
    <_>
      <internalNodes>
        0 -1 113736 4.7816578298807144e-03</internalNodes>
      <leafValues>
        4.5520320534706116e-02 -2.8368514776229858e-01</leafValues></_>
    <_>
      <internalNodes>
        0 -1 131271 1.8918624147772789e-02</internalNodes>
      <leafValues>
        1.6631510108709335e-02 -6.7168968915939331e-01</leafValues></_>
    <_>
      <internalNodes>
        0 -1 75106 -2.2518709301948547e-02</internalNodes>
      <leafValues>
        8.5198605060577393e-01 -1.6413526609539986e-02</leafValues></_>
    <_>
      <internalNodes>
        0 -1 59492 -3.3031487837433815e-03</internalNodes>
      <leafValues>
        4.2159235477447510e-01 -2.3557666689157486e-02</leafValues></_>
    <_>
      <internalNodes>
        0 -1 96786 1.6945405513979495e-04</internalNodes>
      <leafValues>
        1.0074868798255920e-01 -1.3422806560993195e-01</leafValues></_>
    <_>
      <internalNodes>
        0 -1 96436 4.7314660623669624e-03</internalNodes>
      <leafValues>
        2.9529152438044548e-02 -4.7918093204498291e-01</leafValues></_>
    <_>
      <internalNodes>
        0 -1 131844 -2.0094490610063076e-03</internalNodes>
      <leafValues>
        1.1038690060377121e-01 -1.1426137387752533e-01</leafValues></_>
    <_>
      <internalNodes>
        0 -1 146867 -2.5162253528833389e-02</internalNodes>
      <leafValues>
        5.9490644931793213e-01 -2.5389326736330986e-02</leafValues></_>
    <_>
      <internalNodes>
        0 -1 77338 -2.2506536915898323e-02</internalNodes>
      <leafValues>
        9.2037296295166016e-01 -9.1920485720038414e-03</leafValues></_>
    <_>
      <internalNodes>
        0 -1 48739 1.5941784949973226e-03</internalNodes>
      <leafValues>
        -2.9784282669425011e-02 3.5411581397056580e-01</leafValues></_>
    <_>
      <internalNodes>
        0 -1 117521 2.5059957057237625e-02</internalNodes>
      <leafValues>
        2.8072167187929153e-02 -4.8506408929824829e-01</leafValues></_>
    <_>
      <internalNodes>
        0 -1 70551 8.8210840476676822e-04</internalNodes>
      <leafValues>
        3.2528392970561981e-02 -3.5932034254074097e-01</leafValues></_>
    <_>
      <internalNodes>
        0 -1 88122 -1.1697921436280012e-03</internalNodes>
      <leafValues>
        -8.7085351347923279e-02 1.3712635636329651e-01</leafValues></_>
    <_>
      <internalNodes>
        0 -1 157575 -3.4591073635965586e-03</internalNodes>
      <leafValues>
        3.2235258817672729e-01 -3.6276347935199738e-02</leafValues></_>
    <_>
      <internalNodes>
        0 -1 151809 -9.2502878978848457e-03</internalNodes>
      <leafValues>
        -5.7490360736846924e-01 2.2584326565265656e-02</leafValues></_>
    <_>
      <internalNodes>
        0 -1 145629 6.2497016042470932e-03</internalNodes>
      <leafValues>
        1.1766514740884304e-02 -8.1548511981964111e-01</leafValues></_>
    <_>
      <internalNodes>
        0 -1 76430 -6.7562162876129150e-02</internalNodes>
      <leafValues>
        -2.9143797233700752e-02 4.6045219898223877e-01</leafValues></_>
    <_>
      <internalNodes>
        0 -1 75770 -6.7135635763406754e-03</internalNodes>
      <leafValues>
        4.4424879550933838e-01 -2.6191251352429390e-02</leafValues></_>
    <_>
      <internalNodes>
        0 -1 102207 -9.3558942899107933e-03</internalNodes>
      <leafValues>
        -9.0208619832992554e-01 1.3283125124871731e-02</leafValues></_>
    <_>
      <internalNodes>
        0 -1 159702 1.1420723749324679e-03</internalNodes>
      <leafValues>
        -4.7876339405775070e-02 2.8559070825576782e-01</leafValues></_>
    <_>
      <internalNodes>
        0 -1 139589 1.7276546359062195e-01</internalNodes>
      <leafValues>
        -4.2592614889144897e-02 2.7947875857353210e-01</leafValues></_>
    <_>
      <internalNodes>
        0 -1 99227 -3.1201343983411789e-02</internalNodes>
      <leafValues>
        2.0681589841842651e-02 -7.5247842073440552e-01</leafValues></_>
    <_>
      <internalNodes>
        0 -1 109162 1.3991095329402015e-05</internalNodes>
      <leafValues>
        -1.3770945370197296e-01 9.3916550278663635e-02</leafValues></_>
    <_>
      <internalNodes>
        0 -1 146638 6.0666451463475823e-04</internalNodes>
      <leafValues>
        7.1287542581558228e-02 -1.8148876726627350e-01</leafValues></_>
    <_>
      <internalNodes>
        0 -1 37268 1.9872381817549467e-03</internalNodes>
      <leafValues>
        -1.0964164137840271e-01 1.0960064083337784e-01</leafValues></_>
    <_>
      <internalNodes>
        0 -1 94219 -2.8885966166853905e-03</internalNodes>
      <leafValues>
        4.5315039157867432e-01 -2.7477821335196495e-02</leafValues></_>
    <_>
      <internalNodes>
        0 -1 59514 1.2271931627765298e-03</internalNodes>
      <leafValues>
        -6.3631124794483185e-02 2.0032361149787903e-01</leafValues></_>
    <_>
      <internalNodes>
        0 -1 162074 6.0027797007933259e-04</internalNodes>
      <leafValues>
        4.1231051087379456e-02 -2.9880067706108093e-01</leafValues></_>
    <_>
      <internalNodes>
        0 -1 147826 3.0726748518645763e-03</internalNodes>
      <leafValues>
        -4.3385744094848633e-02 2.6379418373107910e-01</leafValues></_>
    <_>
      <internalNodes>
        0 -1 89777 -4.8143202438950539e-03</internalNodes>
      <leafValues>
        -2.2596141323447227e-02 5.0242209434509277e-01</leafValues></_>
    <_>
      <internalNodes>
        0 -1 49292 1.3983612880110741e-03</internalNodes>
      <leafValues>
        -3.3194813877344131e-02 3.4813171625137329e-01</leafValues></_>
    <_>
      <internalNodes>
        0 -1 133413 -1.1051155888708308e-04</internalNodes>
      <leafValues>
        1.1607586592435837e-01 -1.0663135349750519e-01</leafValues></_>
    <_>
      <internalNodes>
        0 -1 127639 9.6715847030282021e-03</internalNodes>
      <leafValues>
        3.5558048635721207e-02 -4.0893572568893433e-01</leafValues></_>
    <_>
      <internalNodes>
        0 -1 127634 -2.5119425263255835e-03</internalNodes>
      <leafValues>
        -2.0672887563705444e-01 5.8281272649765015e-02</leafValues></_>
    <_>
      <internalNodes>
        0 -1 138887 4.1517894715070724e-03</internalNodes>
      <leafValues>
        -2.3451566696166992e-02 5.7861894369125366e-01</leafValues></_>
    <_>
      <internalNodes>
        0 -1 97168 1.2132423929870129e-02</internalNodes>
      <leafValues>
        5.5606659501791000e-02 -2.3846165835857391e-01</leafValues></_>
    <_>
      <internalNodes>
        0 -1 30464 9.8840156570076942e-03</internalNodes>
      <leafValues>
        -1.6878865659236908e-02 6.5508514642715454e-01</leafValues></_>
    <_>
      <internalNodes>
        0 -1 118477 4.9388628453016281e-02</internalNodes>
      <leafValues>
        -5.0171181559562683e-02 2.3224781453609467e-01</leafValues></_>
    <_>
      <internalNodes>
        0 -1 88420 1.9587194547057152e-03</internalNodes>
      <leafValues>
        9.4293460249900818e-02 -1.4250235259532928e-01</leafValues></_>
    <_>
      <internalNodes>
        0 -1 23942 1.4859769726172090e-03</internalNodes>
      <leafValues>
        8.0795355141162872e-02 -1.5732240676879883e-01</leafValues></_>
    <_>
      <internalNodes>
        0 -1 6676 3.8986722938716412e-03</internalNodes>
      <leafValues>
        5.2015766501426697e-02 -2.5872930884361267e-01</leafValues></_>
    <_>
      <internalNodes>
        0 -1 104746 -1.9458706956356764e-03</internalNodes>
      <leafValues>
        -4.1916388273239136e-01 2.8761291876435280e-02</leafValues></_>
    <_>
      <internalNodes>
        0 -1 86692 -1.0658588260412216e-01</internalNodes>
      <leafValues>
        -7.6661258935928345e-01 1.4084172435104847e-02</leafValues></_>
    <_>
      <internalNodes>
        0 -1 160600 -3.7968456745147705e-02</internalNodes>
      <leafValues>
        4.2997968196868896e-01 -3.0337262898683548e-02</leafValues></_>
    <_>
      <internalNodes>
        0 -1 159679 -2.9870071448385715e-03</internalNodes>
      <leafValues>
        -4.0564408898353577e-01 3.5107497125864029e-02</leafValues></_>
    <_>
      <internalNodes>
        0 -1 125053 5.8211116120219231e-03</internalNodes>
      <leafValues>
        -2.4195391684770584e-02 5.3115731477737427e-01</leafValues></_>
    <_>
      <internalNodes>
        0 -1 151748 3.2648160122334957e-03</internalNodes>
      <leafValues>
        -6.9116465747356415e-02 1.8149951100349426e-01</leafValues></_>
    <_>
      <internalNodes>
        0 -1 148093 1.7476620152592659e-02</internalNodes>
      <leafValues>
        6.5438315272331238e-02 -2.0336133241653442e-01</leafValues></_>
    <_>
      <internalNodes>
        0 -1 29924 8.4433063864707947e-02</internalNodes>
      <leafValues>
        -2.9522091150283813e-02 4.1739621758460999e-01</leafValues></_>
    <_>
      <internalNodes>
        0 -1 140444 3.4961622208356857e-02</internalNodes>
      <leafValues>
        1.4498926699161530e-02 -8.2631820440292358e-01</leafValues></_>
    <_>
      <internalNodes>
        0 -1 246 2.4045847356319427e-02</internalNodes>
      <leafValues>
        1.1539186351001263e-02 -8.3783549070358276e-01</leafValues></_>
    <_>
      <internalNodes>
        0 -1 58778 -8.1061899662017822e-02</internalNodes>
      <leafValues>
        -9.3276053667068481e-01 9.0125575661659241e-03</leafValues></_>
    <_>
      <internalNodes>
        0 -1 22759 1.0607007425278425e-04</internalNodes>
      <leafValues>
        -1.2271109223365784e-01 9.0200349688529968e-02</leafValues></_>
    <_>
      <internalNodes>
        0 -1 109220 3.4542314708232880e-02</internalNodes>
      <leafValues>
        2.5388093665242195e-02 -4.1738203167915344e-01</leafValues></_>
    <_>
      <internalNodes>
        0 -1 70078 8.3854924887418747e-03</internalNodes>
      <leafValues>
        -1.7300941050052643e-02 6.3059967756271362e-01</leafValues></_>
    <_>
      <internalNodes>
        0 -1 77387 2.2786229848861694e-02</internalNodes>
      <leafValues>
        -1.7288072034716606e-02 5.6423896551132202e-01</leafValues></_>
    <_>
      <internalNodes>
        0 -1 42349 -8.3323985338211060e-02</internalNodes>
      <leafValues>
        -1.7154350876808167e-01 6.9106973707675934e-02</leafValues></_></weakClassifiers></stage30>
</opencv_storage>
